-0.334109 -0.192513 -0.295138 0.010716 -0.080809 -0.269315 0.231034 0.160748 -0.411641 0.206120 -0.439930 0.383545 -0.346616 -0.154490 0.057227 0.162270 -0.465126 0.221166 0.131015 0.420856 0.367662 0.401616 0.316682 0.135467 0.317706 0.106666 0.355289 -0.142962 -0.250452 -0.179631 -0.341443 -0.094321 0.118095 -0.146341 0.406635 -0.472474 0.074585 0.127909 0.178514 0.153184 -0.175732 0.228824 0.026968 -0.032108 -0.435426 -0.425565 -0.379598 -0.410312 0.285841 0.241656 0.500784 0.143743 0.133512 0.307706 -0.230550 -0.058542 -0.095388 -0.385021 0.288735 0.144399 -0.074413 0.437533 -0.459682 -0.466078 -0.218568 0.437193 -0.448312 0.346256 0.055341 0.220442 -0.010320 0.369849 -0.060494 0.506888 -0.172019 -0.005680 -0.428437 -0.061377 0.074247 0.347644 -0.329481 0.065271 -0.018373 0.294271 -0.136784 0.241317 -0.274031 0.258068 0.346536 0.504944 -0.107293 -0.237637 0.432716 -0.076735 -0.213475 -0.295612 -0.149303 -0.171547 -0.459116 0.396278 -0.460864 0.020804 0.256367 -0.031119 0.017932 -0.425412 0.453441 0.079735 0.003450 0.017928 -0.082381 0.164209 -0.426561 0.389486 -0.051280 -0.073105 0.121044 0.164928 -0.324797 -0.042181 0.160112 0.058150 0.210422 0.083068 0.471655 0.487187 0.277696 -0.187408 -0.194120 0.308820 -0.300890 -0.164744 -0.180136 0.445716 0.294377 0.328035 -0.489456 0.238058 -0.101990 0.004234 -0.253774 0.305868 -0.341317 -0.190095 0.185594 0.097642 0.227040 -0.186525 -0.203882 0.482922 0.304597 0.459426 -0.001421 0.080655 0.042094 -0.050658 -0.076974 -0.255593 0.205600 0.219146 -0.456533 0.394950 -0.455359 -0.146429 0.330906 0.329258 -0.328154 0.331689 0.057556 0.060095 -0.173837 0.294021 -0.143797 -0.024915 -0.404391 -0.449756 -0.450548 0.352555 -0.160395 -0.228157 0.241329 -0.349523 -0.273002 -0.290106 -0.001025 0.174935 0.018292 0.403436 0.400778 -0.285867 0.112822 0.434485 -0.400678 0.147703 -0.221704 0.420468 -0.032800 -0.059619 0.242397 -0.485004 0.490716 -0.441200 0.300700 -0.175412 0.010609 0.343438 -0.240418 0.019794 0.234049 0.214785 0.310881 -0.142464 0.185968 -0.438635 -0.009144 -0.306186 0.219622 0.493816 -0.412510 0.110640 -0.301811 0.190552 0.035365 -0.212249 -0.171506 0.303901 -0.301541 0.285934 -0.265478 0.431095 0.292613 -0.303144 0.421085 0.051128 -0.039807 -0.046279 0.040653 0.405069 -0.363513 -0.331042 0.027502 0.499655 0.086256 -0.181549 0.479395 0.465685 -0.060676 0.189257 0.449741 0.017054 -0.209863 -0.361830 -0.302155 0.315742 -0.083839 0.016579 0.109882 0.104859 -0.236581 0.316022 -0.012024 -0.465322 -0.474440 -0.055417 0.127338 0.268214 0.721580 -0.312071 -0.128344 -0.490759 -0.247817 0.498137 0.449766 0.190682 -0.256354 0.419401 0.146607 0.173210 0.098897 0.086588 -0.319496 0.379274 0.214998 -0.131411 0.185256 -0.378602 0.346073 -0.253546 0.136904 -0.440886 -0.504013 -0.300698 -0.189188 -0.182229 0.342801 0.396315 0.086318 0.186020 0.429071 -0.348908 0.215153 -0.361241 -0.360531 0.155158 0.319681 -0.126645 0.064799 -0.043472 -0.463195 -0.346064 -0.466644 -0.292452 -0.476550 0.238593 0.035600 0.143258 0.224540 -0.097140 0.484435 0.086959 0.096124 -0.401969 0.084338 0.420960 -0.268513 -0.017197 0.069719 0.400989 -0.328351 0.070544 -0.457678 0.377042 0.199542 -0.327969 0.022440 0.009463 0.035626 -0.422521 0.456231 0.062671 -0.278345 0.479827 0.229681 -0.321786 0.142082 -0.204555 0.317513 -0.083299 0.161878 0.365916 -0.363699 0.231467 0.579367 0.275214 -0.428931 -0.348952 -0.152924 0.226504 -0.457723 0.008965 -0.212712 -0.425161 -0.123753 0.477070 -0.262891 0.388927 -0.023227 0.262975 0.456645 -0.076757 -0.241245 -0.361881 -0.123713 -0.477148 -0.244500 -0.492847 -0.326707 -0.486189 0.177012 -0.188590 -0.376056 0.161137 -0.079613 -0.366653 0.075114 -0.011597 -0.225366 0.412430 -0.294853 -0.192849 -0.088365 -0.017325 -0.127770 0.278122 -0.050016 0.099579 0.157288 0.416996 -0.177627 0.073753 -0.213252 0.180116 0.312182 0.355681 0.016071 -0.596140 0.093398 -0.499816 -0.286827 -0.190156 -0.356627 0.125158 -0.373304 0.067807 0.248745 0.192050 -0.453550 -0.486381 0.094720 -0.258163 -0.188989 0.496595 0.214752 0.173480 0.264957 -0.345024 -0.240768 -0.117935 -0.488272 0.084592 0.591982 -0.035366 -0.285105 0.425630 -0.224053 0.525833 0.092216 -0.002933 -0.606518 -0.129515 -0.217543 -0.304564 0.449737 -0.100608 0.253483 0.188722 -0.418318 0.290173 0.192581 0.166642 -0.477750 0.493832 0.153477 0.227242 0.126774 -0.120304 0.348683 0.447944 0.415774 0.461791 0.056910 0.570147 0.025776 0.405403 -0.079464 -0.598214 0.021291 -0.017098 -0.260320 0.226943 0.271335 0.012377 0.412619 0.211312 0.402009 0.156342 -0.109726 0.473931 -0.063245 -0.426905 0.130812 -0.050755 -0.452780 -0.264395 -0.378248 0.305193 0.110462 -0.522266 0.186406 0.080046 0.626387 -0.334598 -0.494559 -0.479056 0.235049 0.350308 0.098653 0.043175 -0.240037 0.328573 -0.239642 -0.478463 -0.168811 -0.336783 0.223089 -0.276562 0.309799 -0.396397 -0.312391 -0.263206 -0.333063 0.272362 0.132515 -0.302589 -0.510802 0.246177 0.252339 0.142883 0.260508 -0.089188 -0.359675 0.087645 -0.024708 -0.044806 -0.489146 -0.061432 -0.220260 0.099748 0.471982 0.029942 -0.081440 -0.277420 0.041719 0.239990 -0.123964 -0.244952 0.453668 -0.323925 -0.151109 -0.368484 -0.126641 -0.054459 0.344790 -0.623810 0.050208 0.466928 0.460152 0.035641 0.084983 0.106778 -0.417749 0.414115 0.014225 0.197483 -0.129112 0.015319 -0.373709 0.140867 -0.394694 -0.411487 -0.338951 0.014106 -0.198667 0.193009 -0.255664 0.167609 0.438297 -0.311756 0.295347 -0.288747 -0.193741 -0.247578 0.301215 -0.245071 -0.183033 -0.033490 -0.187294 -0.229874 -0.339249 0.426664 0.396996 -0.327719 0.331018 -0.098539 0.360004 -0.307854 0.407019 0.476535 0.323254 0.502565 -0.444712 0.474543 0.006912 -0.153140 0.157791 0.241488 0.466132 0.046506 0.408143 0.367550 0.391901 -0.271976 -0.421205 0.159412 -0.007731 -0.083147 -0.357530 0.146330 -0.015501 -0.351622 0.063234 -0.128265 -0.189101 -0.115508 0.263435 -0.338856 0.066878 0.160694 -0.372081 -0.119628 0.153500 -0.326554 -0.154845 -0.349349 0.010547 0.493186 0.382379 0.005496 0.069754 0.250691 -0.175392 -0.086011 0.503040 -0.138767 -0.477800 -0.065613 0.175239 -0.404721 -0.429042 -0.350023 -0.266103 0.124431 0.011952 0.035036 0.499164 -0.234373 0.186419 0.056282 0.416561 0.304578 0.426894 0.060301 0.468264 -0.237712 0.201192 -0.030949 -0.254286 0.073811 0.464786 0.305707 -0.143359 -0.220365 -0.290064 -0.150079 0.131108 -0.277624 0.274548 -0.203414 -0.192105 0.335745 -0.063197 0.032031 -0.049583 0.438995 -0.442693 -0.060180 -0.305138 0.233966 0.486342 -0.398337 0.028784 0.403475 0.152204 -0.012712 -0.343997 -0.156364 0.446578 -0.108043 0.407687 0.401604 -0.312096 -0.245432 -0.328521 -0.111920 0.094729 0.292827 0.100696 -0.140484 -0.420347 0.398831 -0.314498 0.006696 -0.078898 0.126158 -0.064069 -0.031351 -0.443782 0.121033 -0.307145 -0.467200 0.212936 0.211878 0.426515 -0.144620 -0.310594 -0.427242 0.189256 -0.373776 -0.045045 0.087183 -0.481932 0.133098 0.331991 -0.320214 -0.488582 -0.083041 0.462853 0.102354 0.266716 -0.467255 -0.008576 0.442457 0.029681 0.402766 0.058855 0.455852 -0.138346 0.105313 0.067125 0.044749 0.128353 -0.229699 -0.253133 0.045108 0.115921 -0.073488 0.108106 -0.204583 0.042976 -0.446699 0.372841 0.051284 0.176639 0.195071 0.221310 0.178297 -0.397729 0.174403 -0.229110 0.359226 0.197388 0.252554 0.291923 -0.282691 0.145560 -0.158982 -0.336599 0.497454 0.436571 0.220766 0.032443 0.055164 0.481307 0.269550 -0.409488 0.087468 -0.313698 0.188858 0.373125 0.219518 0.232399 0.236206 -0.238959 -0.100722
-0.090299 0.460775 -0.444001 0.002211 0.125418 -0.182871 -0.148323 -0.186955 -0.440077 -0.366160 0.020594 0.195723 -0.034902 0.174236 0.183417 -0.108091 -0.114758 -0.293900 0.437313 -0.143211 0.465890 -0.481935 0.434497 -0.357568 0.197163 0.297862 0.352190 -0.080198 0.024307 -0.396529 0.309320 0.436064 -0.433698 0.367375 -0.059669 0.193775 -0.313440 0.294064 -0.491124 -0.251461 0.429960 0.031527 0.446318 -0.102886 -0.292182 0.131791 0.291079 0.095116 0.339947 0.230447 0.453960 0.307893 0.250568 0.390513 0.452381 -0.050213 0.190430 0.306626 0.371645 -0.283207 0.412153 0.183021 -0.345087 0.480511 0.052451 0.097299 0.176341 0.241067 -0.106581 0.187273 0.491661 -0.174565 -0.279144 0.440035 0.224604 -0.069270 0.073882 0.017739 -0.472099 -0.084115 -0.249758 0.483917 -0.274166 -0.497134 0.376485 -0.319730 -0.045292 0.068971 0.488952 -0.171591 0.287820 0.403161 -0.486515 0.444788 0.385728 0.067992 0.044143 0.064125 -0.188885 0.439618 -0.246546 -0.195168 -0.232892 -0.023634 -0.253077 0.493768 0.409151 0.322860 0.013563 0.439107 -0.259199 0.265860 0.425080 -0.031310 0.270781 0.303621 0.151016 -0.272454 -0.125352 0.142024 0.058010 -0.335477 0.047241 0.073552 -0.388633 -0.064975 -0.356400 0.157566 -0.498795 -0.043230 0.099240 -0.243285 0.263658 0.368404 0.235136 -0.487364 0.364228 0.146343 0.337552 -0.120154 0.087506 -0.419591 -0.352238 0.014642 0.051155 0.420599 -0.179682 -0.288196 -0.342295 0.191091 0.363373 0.247472 0.415668 -0.072061 -0.213435 0.476288 0.334684 -0.068471 0.136646 0.337945 0.390355 -0.262059 -0.403284 0.156069 -0.391599 0.333908 0.170761 0.474685 -0.017693 0.010369 -0.143414 -0.428131 0.092833 0.006404 0.103428 -0.346451 -0.026451 0.455430 -0.104538 0.124451 0.153081 -0.233610 -0.149770 -0.032677 0.080439 0.059658 -0.045246 -0.060911 -0.484847 -0.406545 -0.220910 0.407564 -0.166548 -0.122138 0.065688 -0.056091 -0.286175 -0.261495 -0.079351 0.198188 0.250929 0.279291 0.286974 -0.125680 -0.167759 -0.092704 0.005551 0.225769 -0.188640 0.397103 -0.105160 0.447505 -0.399298 0.063910 -0.137453 0.157449 -0.318446 0.322343 -0.401406 -0.301237 0.417854 -0.120261 -0.391618 -0.246638 0.259657 0.176126 0.199326 0.475538 0.416687 -0.377969 0.190644 0.199600 0.424490 -0.042897 -0.509216 -0.465098 0.165879 -0.029288 0.329145 -0.535324 -0.228417 -0.314906 0.474646 -0.119351 0.318386 -0.150026 -0.421518 -0.498004 -0.325627 -0.320869 -0.297185 -0.405717 0.060926 -0.186748 -0.150299 -0.177361 0.491434 -0.448917 -0.163909 0.440105 -0.332000 0.477939 -0.009864 -0.531216 -0.033639 0.159960 -0.294915 -0.367077 -0.508048 -0.375659 -0.174015 -0.016986 -0.087539 -0.174109 0.404046 -0.267097 0.177921 0.484584 -0.263045 0.354350 -0.334229 -0.058174 0.450689 0.228753 0.257134 -0.197555 -0.410694 0.287087 -0.133779 -0.213707 0.029039 0.164608 -0.052944 -0.267392 0.104174 0.297401 0.229130 0.266525 -0.581056 0.469516 -0.412572 -0.139576 -0.045414 0.001946 0.188371 -0.139312 0.236905 -0.131652 -0.152672 0.475916 -0.275246 0.015155 -0.080202 -0.322501 -0.233040 -0.277193 0.035853 -0.148480 0.555819 0.510417 0.210272 0.123815 -0.110162 0.553463 0.204365 0.321736 0.207578 0.197884 0.387449 0.286197 0.169456 0.476933 -0.351323 -0.373903 -0.019065 0.339104 -0.011159 -0.280105 -0.290492 0.338224 -0.302133 -0.063682 -0.123569 0.148679 0.160265 0.135502 0.470390 -0.237008 0.373100 0.241108 0.487573 0.098581 -0.354283 -0.324783 0.068011 -0.319374 -0.187737 -0.163198 0.380566 -0.298232 -0.374946 0.052078 -0.319243 -0.224213 0.180230 0.163748 -0.383054 -0.328873 0.385699 -0.171490 -0.459635 -0.385492 0.282644 -0.115271 0.354977 0.038372 0.481163 0.123196 0.024301 0.254009 -0.301678 -0.028753 -0.015674 0.081937 0.250709 -0.476636 0.264619 -0.434972 -0.137779 0.147241 -0.231148 -0.010669 -0.298626 -0.048335 0.267174 0.383661 -0.382531 0.386176 -0.414271 -0.465891 -0.267426 -0.422235 -0.287277 0.540009 -0.055682 0.239361 -0.189343 -0.097037 -0.273674 0.409543 -0.110679 0.063446 -0.206073 0.259055 -0.352561 -0.453308 0.284475 0.414114 -0.386223 -0.351248 0.063411 -0.115315 0.140139 0.266841 0.338406 -0.090631 0.173481 0.486816 -0.187927 0.224193 0.505381 0.046752 0.330223 -0.435583 0.100818 -0.319881 0.229312 0.279793 0.106226 -0.307070 0.242194 0.452177 0.246766 -0.461823 0.213288 0.396261 -0.413075 -0.000182 0.312431 -0.297242 0.150626 -0.122103 0.089498 -0.207180 -0.332210 -0.026293 0.218645 0.269060 -0.088530 -0.428800 0.076926 -0.009142 -0.016805 -0.258812 -0.207760 -0.573155 0.019308 -0.202268 0.409340 -0.321059 -0.030614 0.153590 -0.366826 -0.281792 0.193823 0.348517 -0.383476 0.282804 -0.149609 0.431011 0.487618 -0.496928 -0.196321 0.115635 -0.164162 -0.041463 -0.621666 -0.581679 -0.178562 -0.090626 -0.526880 0.263062 0.187089 -0.153256 -0.481562 -0.282483 0.065217 0.115132 -0.027936 -0.023387 0.296129 0.443506 -0.367741 0.431358 -0.336231 0.328138 0.281931 -0.217650 0.112998 -0.365622 -0.284584 0.103349 -0.316754 -0.016347 -0.311924 0.038372 0.549624 -0.262901 -0.053902 -0.225182 0.015975 -0.188483 -0.536478 -0.090259 0.494747 -0.376906 0.052892 0.062019 0.240282 -0.472988 -0.459312 0.038467 0.472574 -0.324997 -0.028119 -0.361601 -0.494803 -0.244132 -0.077196 0.120251 -0.077598 0.191373 -0.218377 0.098850 -0.195182 -0.067725 0.474822 -0.407538 0.038080 -0.039235 -0.035571 -0.285428 0.383430 -0.039184 0.083522 0.380232 0.085966 -0.361530 -0.055693 -0.171696 -0.332463 -0.012949 0.368827 -0.357833 0.164109 -0.157237 -0.217379 0.171362 0.101098 0.217538 -0.129841 0.579851 -0.050698 0.021545 0.038128 0.004454 0.485492 0.093354 0.304796 0.045879 0.433801 -0.389304 0.262506 0.319287 0.073568 -0.151916 0.201575 -0.338410 -0.011391 -0.352062 -0.008050 0.158202 0.137044 -0.137168 0.302425 -0.196791 0.208062 -0.410803 0.454942 -0.211291 0.273267 -0.150442 -0.106095 -0.284516 0.323787 0.358608 0.186123 0.230856 -0.148986 -0.136922 -0.221209 -0.213129 -0.024171 -0.456647 -0.391786 -0.448547 -0.106508 0.311845 -0.284902 0.384157 0.461838 0.209104 0.044414 0.100938 -0.426008 -0.151105 0.406203 0.283700 -0.061948 0.357598 -0.403851 -0.263253 -0.340708 -0.094302 -0.112689 0.456456 -0.251734 -0.437432 0.189369 0.101336 -0.072299 0.470215 0.390263 0.405586 -0.484376 -0.499467 0.459095 -0.088829 0.314434 -0.323751 -0.202616 0.278328 0.387409 0.343854 -0.118678 0.463457 -0.305196 -0.210419 0.249213 0.134913 -0.323478 0.347417 0.373715 -0.162131 -0.244828 -0.236918 -0.203618 0.005493 -0.172294 0.487806 -0.391115 0.257463 0.460077 -0.498796 0.165105 0.477756 -0.496207 0.126256 -0.109017 0.320282 0.304561 0.190422 0.100666 0.194026 0.036332 0.484044 0.159538 0.233192 -0.224320 -0.089193 -0.129840 -0.045742 -0.239720 -0.254069 0.294183 0.017507 0.011069 -0.407379 -0.474944 0.340831 -0.417518 -0.364003 0.100351 -0.455385 -0.360743 -0.232488 -0.475573 -0.354894 0.395823 -0.082535 0.467444 0.202440 -0.390057 0.070166 -0.101479 0.148331 0.056266 -0.439885 -0.116422 0.334002 -0.027022 0.255794 -0.209684 0.235314 -0.496219 -0.413445 -0.245123 0.016907 -0.318769 -0.218011 -0.140206 -0.234230 -0.079958 0.462200 -0.187560 0.061355 -0.268232 -0.161077 0.208517 -0.370353 0.258444 0.178017 0.334142 0.370443 -0.249762 -0.265281 0.020829 0.308560 -0.203110 0.406463 0.144617 0.271924 0.164313 0.436988 0.009294 0.170150 -0.474401 0.266226 -0.310887 -0.291114 -0.449729 0.050963 -0.023288 -0.027631 0.015218 0.291208 -0.464220 0.249042 -0.367814 0.246352 0.380744 0.392685 -0.073575 0.216942 0.265184 0.178719 0.453718 -0.211932 -0.010666 -0.247336 -0.303413 -0.363993 -0.473356 0.362956
-0.417474 0.045468 0.042637 -0.389819 -0.186250 0.233806 -0.178877 -0.133923 -0.213176 0.299890 0.340502 0.304098 0.093153 0.378337 0.055196 0.227395 0.126745 -0.062004 0.122136 -0.444774 -0.343006 -0.110625 0.236001 -0.387232 0.179499 -0.272610 -0.132513 0.378142 -0.134547 -0.103813 0.243155 -0.057440 0.436236 -0.219627 0.047322 -0.255433 -0.491240 0.363026 0.105225 -0.209834 0.157497 -0.059692 -0.411155 -0.254768 -0.186774 0.138622 0.467208 0.434553 -0.428800 0.083925 0.484360 -0.277225 0.467882 0.214942 -0.169876 0.141962 0.436913 0.192193 0.014686 -0.203052 -0.417039 -0.247578 0.234089 -0.486222 0.027376 -0.224008 -0.247074 0.030717 -0.366400 0.352732 0.315464 0.285678 -0.212379 0.398891 -0.474509 0.095428 0.032094 0.487281 0.024562 0.097875 0.065787 0.003503 0.315232 0.028250 -0.286974 -0.360063 -0.335207 -0.355480 0.326711 0.174060 -0.063951 0.404253 0.421063 -0.335280 0.412613 -0.056980 -0.064706 -0.339880 0.468319 0.063474 -0.492567 0.278364 -0.156266 -0.210366 0.171836 -0.136193 0.379643 -0.301489 -0.154331 -0.101214 0.290968 0.406037 0.396870 0.100781 -0.071132 -0.395523 0.235300 0.088243 -0.256421 0.056592 -0.243116 0.174209 -0.044573 -0.327471 0.333510 -0.137379 0.110130 -0.236615 0.017322 0.073031 0.321441 0.019335 -0.154024 -0.340244 0.303551 -0.487607 0.018144 0.177776 -0.294514 0.358394 -0.428857 0.491035 0.259012 0.462595 0.086397 -0.317539 -0.438346 -0.267534 0.210945 -0.221100 0.424315 -0.485244 0.380621 -0.281550 -0.302755 0.363447 0.174662 0.288572 -0.445337 -0.313435 -0.143816 0.370685 0.200481 0.196741 -0.474978 -0.001386 0.203716 0.037747 -0.329029 0.403783 -0.109278 -0.263305 0.389399 -0.355684 -0.392117 -0.080925 -0.180579 -0.254065 0.297923 -0.399856 0.090659 0.200961 -0.423829 0.035473 0.484764 -0.199549 -0.201036 0.124554 -0.445848 -0.151792 0.305700 -0.095083 -0.286526 0.000763 -0.403760 -0.266922 0.493958 0.294537 0.265407 -0.340490 0.192902 -0.349290 -0.195202 0.103357 -0.212331 0.047830 -0.424642 0.191780 0.341958 0.234964 0.082531 -0.133468 0.026786 0.337341 0.363908 -0.094597 -0.465931 -0.341177 -0.475461 -0.417198 0.001613 0.324820 -0.017699 0.209668 -0.179836 0.073122 0.437327 -0.191296 -0.137759 0.197315 -0.123193 -0.474130 0.378960 0.315022 0.076852 -0.485418 -0.294135 -0.126259 0.079497 -0.521611 -0.265211 -0.138874 0.147547 0.411122 -0.334074 -0.042058 -0.180074 -0.305424 0.111347 -0.160954 -0.228040 -0.392459 -0.341552 0.248842 0.311790 -0.026807 -0.183454 0.243699 0.268267 0.149514 -0.100614 -0.294072 0.108264 -0.369522 -0.473334 -0.153995 -0.077687 -0.114842 0.213925 -0.542634 0.224284 -0.049937 0.013099 -0.179099 -0.135413 0.173607 0.273424 0.179094 0.362764 -0.120648 -0.487278 -0.370695 -0.018527 -0.334249 0.372729 -0.212155 0.125314 -0.288591 -0.546794 -0.200843 0.372362 0.036289 0.188959 0.066108 0.206487 0.090487 0.238413 -0.514058 -0.480846 0.372295 -0.277349 0.414764 -0.183060 0.230332 -0.269754 0.176107 -0.101480 0.498251 -0.150217 -0.244135 -0.127817 -0.142914 -0.120248 0.348238 0.095195 -0.260071 -0.485152 -0.351378 0.100349 -0.183714 0.168962 -0.163128 0.051642 -0.285965 0.231669 -0.381682 0.207102 0.217188 -0.072510 -0.442399 0.084064 0.144722 0.466946 0.395585 -0.130365 -0.308227 0.066273 0.262736 -0.315395 0.410638 -0.486817 0.051369 -0.159918 -0.033628 -0.142905 0.176932 0.047466 -0.009427 0.393221 -0.314881 0.363285 0.060462 -0.178757 -0.431142 0.000064 -0.359189 0.077305 -0.013791 0.352580 0.499376 0.038391 -0.068774 0.138679 -0.000082 -0.178608 0.502896 0.186272 0.382246 0.260214 0.365458 0.366321 0.376305 -0.049645 -0.446175 -0.382276 0.260199 0.338631 0.446588 -0.004849 0.337076 0.266329 0.280039 -0.419146 -0.372078 -0.269036 0.285620 -0.236686 0.302850 -0.233590 -0.389524 0.296807 0.299383 0.036283 -0.069932 -0.206118 0.352256 -0.072455 0.474736 0.337410 -0.209333 0.344250 0.041187 0.619024 -0.116222 0.089682 -0.428094 -0.472265 -0.115131 0.410254 -0.148610 -0.463941 0.170170 -0.186958 -0.260248 0.292674 0.038588 -0.480047 -0.449430 -0.163981 -0.219055 -0.344373 -0.372593 -0.425091 0.186491 0.052056 -0.136628 0.140576 0.582510 -0.132424 -0.267753 -0.239362 -0.349497 0.117979 -0.494361 -0.201386 -0.151605 -0.329736 -0.205625 0.123662 -0.383636 0.266378 0.229071 0.192008 -0.425999 0.463404 -0.020737 0.107170 0.477938 0.024414 0.437771 -0.246536 0.174622 -0.440241 -0.177046 -0.066529 0.128736 0.245267 0.429804 0.125837 -0.539527 -0.344474 0.228020 -0.197728 0.493607 0.401781 -0.016597 -0.271596 0.564422 0.478855 0.348773 0.497153 0.239814 0.072425 0.183743 0.308397 0.030410 -0.342413 -0.089851 0.002929 0.176583 -0.157499 0.250975 -0.149000 -0.075606 -0.454265 0.079540 0.363939 0.203445 0.030265 0.233347 0.331671 0.217528 -0.152749 0.347006 0.095607 -0.356765 -0.042497 0.280011 -0.446523 -0.069061 0.123366 -0.454788 -0.334665 -0.309628 0.223536 0.468313 0.215364 0.375704 -0.126957 -0.287125 0.046868 0.216417 0.513114 0.394139 -0.337769 -0.456075 0.031956 -0.270641 0.341484 -0.241774 0.050747 -0.023321 0.333534 0.452544 -0.097831 -0.069088 -0.488179 0.354253 -0.294495 -0.440120 -0.220226 0.323452 -0.400327 -0.060310 -0.491594 0.317790 -0.097415 0.218351 0.188075 0.270209 0.368027 -0.250478 -0.101366 0.380063 -0.355984 0.026941 0.270682 -0.074945 0.069319 0.148263 0.311273 -0.189756 -0.354368 0.164954 -0.261516 0.042382 -0.409553 -0.255114 -0.108783 -0.209466 -0.200653 0.165572 -0.391433 -0.106399 -0.400156 -0.388446 -0.294028 -0.002990 0.302825 0.297543 -0.438550 0.141338 -0.498121 0.090810 -0.020474 -0.414186 -0.148031 -0.030317 0.355147 0.451076 -0.348034 0.216702 -0.244099 -0.207821 -0.123762 -0.011034 0.329142 -0.038734 0.228434 -0.285060 0.246381 -0.477638 0.375093 0.349529 -0.089455 0.469518 0.434003 0.018935 -0.170683 0.144954 -0.136935 0.183670 0.073977 0.164894 -0.075376 -0.390265 0.278926 0.234873 0.129401 0.206475 0.180531 0.275949 -0.082241 0.431013 -0.437291 0.288578 -0.085439 0.386432 -0.255575 -0.362425 -0.404046 0.485387 -0.345481 0.465628 0.329498 0.059644 0.429728 0.279743 -0.334677 -0.140398 0.049057 0.154212 -0.402509 -0.442175 -0.249586 0.035442 -0.320551 -0.440146 -0.235103 0.303431 0.260910 0.440009 0.073961 -0.326749 0.365603 0.131251 0.456410 -0.225255 0.012265 -0.304584 -0.093098 0.102800 -0.324616 0.056002 0.063010 0.499463 -0.389773 -0.012681 0.273788 -0.229868 0.367319 -0.182574 0.418925 0.459391 -0.130168 -0.336080 -0.010585 0.043862 -0.281645 0.248892 -0.158125 0.473847 0.183482 0.410418 -0.358321 0.043667 0.036251 -0.407331 0.312993 -0.456903 -0.217334 -0.285524 0.140478 -0.047368 0.265059 -0.301931 -0.053323 0.369867 0.179970 -0.284954 -0.365420 0.041870 0.027054 -0.451914 -0.004158 0.391467 -0.293412 0.479838 -0.070089 -0.080475 0.223312 0.266367 -0.112047 -0.098624 0.171366 0.024212 0.439624 -0.297802 0.111463 0.247198 -0.260124 0.388711 0.456255 0.374936 -0.164076 0.215895 -0.432414 0.277182 0.080344 0.242137 0.486810 0.209506 -0.221412 0.008444 0.252173 0.269012 -0.105507 0.453343 0.243432 0.318985 -0.132552 -0.038675 0.079933 0.249982 0.357282 -0.254119 -0.231224 0.291487 -0.057340 0.374820 0.033266 0.177118 0.258112 -0.015897 0.046635 -0.411383 -0.305420 0.108802 0.360381 0.269505 -0.154480 0.341772 -0.026408 0.118690 -0.155203 -0.279654 -0.117717 0.233871 -0.331730 -0.379704 0.047438 0.030300 0.076202 -0.378048 -0.225137 -0.071935 -0.137585 0.038220 -0.285866 0.299656 -0.092378 0.241981 -0.028645 -0.339685 -0.279334 -0.487429 -0.256486 -0.090174 0.115955 -0.401524 -0.326088 0.456057 0.434829 0.142085
0.052880 -0.242240 0.340565 0.429744 0.486212 -0.496584 -0.455379 0.028231 0.028296 0.115404 0.144765 0.297741 -0.461949 -0.498239 -0.169458 -0.253234 0.295998 0.232746 0.483328 -0.238065 0.387642 -0.301425 -0.230913 -0.374262 0.102983 0.379623 -0.281205 0.271476 0.330261 -0.351794 -0.091857 -0.105830 -0.083006 -0.240264 -0.165057 -0.085764 -0.225819 -0.109406 0.453496 0.313506 -0.482973 0.109290 0.122276 -0.433893 0.122080 0.463848 -0.176098 -0.070893 0.207622 -0.181741 0.202071 0.106294 0.027863 0.482187 0.243061 -0.358125 0.372840 0.472885 0.424381 0.214130 -0.367881 -0.156448 -0.380671 0.060143 0.114318 -0.034698 0.485408 0.399528 0.366924 0.449933 0.224063 0.394980 0.070252 -0.142631 0.472117 -0.296639 -0.167755 -0.192953 0.143497 -0.449103 0.136336 -0.143403 0.168220 -0.324772 -0.150186 -0.077691 -0.171868 -0.266317 -0.093777 -0.236458 0.458842 0.049372 0.118123 -0.410800 -0.379456 -0.256530 0.065531 -0.383019 -0.345973 -0.056516 -0.422057 0.389119 -0.150506 0.159224 -0.242483 -0.167360 0.373614 0.100791 0.150716 0.028140 0.162717 -0.201919 0.395766 -0.158034 -0.015662 -0.243392 0.275304 0.323499 0.001320 -0.307444 -0.401930 -0.028809 0.252957 0.227222 0.071420 0.384530 0.481721 -0.352020 -0.487460 -0.353223 0.102494 -0.398489 -0.453075 0.463017 0.271764 -0.184530 -0.193315 0.156407 0.427290 0.468431 -0.304425 0.101036 -0.222460 -0.397630 0.454031 0.272907 -0.129992 0.199453 0.067163 0.396019 0.455953 0.254680 -0.114590 0.223626 -0.052966 0.440225 0.103494 -0.052464 -0.393965 0.127063 0.105341 0.219558 0.239603 0.163295 0.193604 0.022396 -0.510205 -0.488682 -0.310168 0.428114 -0.509222 -0.103564 0.040179 -0.220653 -0.007477 -0.040613 -0.418126 0.452615 -0.175733 0.206230 0.352531 -0.231999 -0.076289 -0.368084 0.388925 0.333477 -0.382082 0.045098 -0.166310 -0.265018 -0.316810 0.450060 0.465569 0.433822 0.124385 0.170202 -0.032753 0.125208 0.192550 0.168108 0.064351 0.194356 -0.441739 -0.431951 0.503323 0.114390 0.104185 -0.452523 0.034541 0.457484 0.298588 -0.204860 -0.395454 -0.401921 -0.033845 -0.436271 -0.441683 0.093464 0.119856 -0.096964 0.339475 0.314074 -0.135875 0.316074 0.258925 -0.500461 -0.002695 -0.262798 0.135776 -0.299116 0.399026 -0.342884 0.406209 -0.511563 -0.145337 0.472639 0.261906 0.561469 0.431042 -0.484791 0.342551 0.225252 -0.068179 -0.467007 0.418147 0.399974 -0.400970 0.487493 0.004468 0.229915 -0.098443 -0.145028 0.055018 0.276712 -0.317925 -0.175028 0.287279 0.190409 0.054232 -0.119956 0.374742 -0.043110 0.201387 0.381585 0.083452 -0.480162 0.014687 -0.448592 -0.512446 0.246695 -0.221819 0.398819 -0.038201 0.202237 0.434120 -0.109025 0.113241 -0.455821 -0.110503 -0.371263 0.285122 0.302083 -0.005262 -0.148831 0.089824 0.187842 0.168200 -0.160347 -0.171361 -0.260932 0.366340 -0.224190 0.306554 -0.035953 -0.570133 -0.332103 -0.045315 0.468054 -0.029907 0.024319 0.103833 0.233386 -0.065833 -0.423339 -0.053348 -0.120684 -0.021335 -0.429078 -0.065476 0.379191 -0.289312 -0.269325 0.192303 0.216455 0.091214 -0.226783 -0.135747 -0.247549 0.242035 0.328135 -0.097806 -0.250721 -0.283481 -0.141771 -0.612426 -0.147479 0.192931 0.075812 -0.338375 -0.346257 -0.388839 0.276486 0.398158 0.056357 0.364176 -0.144161 0.446702 -0.146130 -0.062210 -0.107746 -0.255910 0.159507 0.132299 0.444795 -0.155946 -0.317717 -0.251060 0.306080 -0.221143 0.623526 0.151967 -0.167885 -0.032065 0.272598 0.004006 0.061771 -0.435027 -0.298774 -0.351387 -0.262373 -0.134002 -0.229198 -0.474858 -0.224816 0.338188 0.400347 0.142052 0.295919 -0.234754 -0.409129 -0.303425 0.018376 0.229671 0.311816 -0.060033 -0.335878 -0.355529 0.439002 0.511074 0.185590 0.253131 0.033728 0.280703 -0.278957 -0.073790 -0.206316 0.293843 0.002212 0.005939 0.453485 0.250868 0.382965 -0.264684 0.287039 -0.330821 -0.415466 0.198415 0.322260 0.389492 0.472701 0.391787 -0.425543 0.057737 0.086381 0.411759 -0.529276 0.187241 -0.417129 0.303761 0.290285 0.178366 -0.033120 0.007754 0.006761 0.198952 0.444994 0.311474 0.003824 -0.041765 -0.171558 -0.031662 -0.279868 -0.277564 0.214683 -0.481801 -0.097356 0.309225 0.225654 -0.258384 0.207484 0.128772 -0.509726 0.205522 -0.209839 0.494211 0.242787 -0.236422 0.275066 0.320658 -0.547736 0.129738 0.092694 -0.025212 -0.351478 -0.389516 -0.315230 -0.395456 0.432987 0.199623 0.073808 -0.227542 -0.321010 0.304969 0.005923 0.403043 0.314895 0.425917 0.183289 -0.030379 -0.442855 0.024255 -0.126000 -0.306930 -0.465940 0.073289 -0.273974 -0.441494 0.242617 -0.493659 0.467332 0.295139 0.147108 0.071055 -0.219043 0.306659 0.192568 -0.023245 0.422232 0.136584 -0.312593 0.007069 0.420071 -0.151752 -0.225413 -0.117987 -0.232618 -0.400452 -0.299899 -0.434823 0.337471 -0.096511 -0.178617 -0.516245 0.280352 0.174555 0.107310 -0.345512 0.390076 -0.091464 -0.328142 0.368437 -0.285295 0.329995 -0.049479 0.006690 0.147683 -0.345883 -0.505525 0.080944 0.301730 -0.307089 -0.431105 0.227804 0.152888 0.005191 -0.319008 0.340054 0.267724 0.193241 0.464566 -0.157030 -0.395470 -0.063737 -0.056669 -0.468175 -0.271976 -0.431507 -0.302658 -0.370871 -0.011942 -0.119770 -0.491405 0.213792 -0.278746 -0.029855 -0.268489 0.379966 0.135291 -0.262985 -0.028062 -0.026777 -0.035531 0.186093 -0.193472 -0.419112 -0.419127 -0.089915 0.393787 0.094534 0.424442 0.367509 -0.463632 -0.418743 -0.192543 -0.005415 -0.375888 0.046510 0.074107 -0.167517 0.186668 -0.426806 0.223742 0.206293 0.298014 0.456025 -0.312533 -0.459445 0.347019 0.329639 -0.243625 -0.184814 -0.140961 0.314160 0.494463 0.054339 0.217506 0.359513 0.398091 0.235763 0.120919 0.356087 0.104655 0.168316 0.448374 0.423140 -0.326070 -0.416486 -0.019321 0.259066 -0.072973 -0.321623 0.343289 -0.338202 0.395699 0.152332 -0.371149 -0.409954 0.172661 0.466038 0.427539 -0.508302 -0.189510 -0.255497 0.221975 -0.234713 0.257778 0.062011 -0.266774 0.151422 -0.211900 0.365174 0.018538 0.403783 0.044519 -0.022059 0.337953 0.229479 0.072484 -0.170339 -0.000426 -0.489460 0.019067 -0.146109 -0.316633 -0.074205 -0.482747 -0.176753 0.031019 0.232198 -0.180974 -0.018941 0.246770 0.160120 0.234996 0.012955 0.433117 -0.004234 -0.424868 -0.322628 -0.341784 -0.125739 -0.446425 0.187784 -0.210927 0.109123 -0.323247 -0.361945 -0.150369 0.260267 -0.021255 0.360234 0.281836 -0.491159 -0.274846 0.476231 -0.054335 -0.246564 -0.189493 0.487713 -0.503337 0.142712 -0.020199 0.254462 -0.186140 -0.274174 -0.221554 -0.241994 0.232621 -0.135393 -0.053592 0.401866 0.249897 0.011012 0.100679 -0.450001 -0.368835 0.288461 -0.300918 -0.008175 0.059757 0.188856 -0.136913 -0.147378 0.208726 0.099271 -0.160118 -0.334580 0.363736 0.161419 -0.335839 0.371427 -0.184841 0.154992 0.136918 0.140048 0.391847 0.426393 0.409084 0.135496 -0.197970 -0.133479 0.048391 -0.437044 0.388562 -0.339901 -0.376017 -0.469245 0.459589 -0.165905 0.033609 0.030375 -0.466020 0.407726 0.394026 0.253735 0.018025 -0.255063 0.430184 -0.107210 0.417385 -0.394626 -0.224753 -0.256426 0.271395 0.423194 0.394651 0.174271 0.360617 0.314764 -0.179204 -0.326325 -0.307686 0.380216 -0.252340 -0.408095 -0.448655 -0.117328 -0.366311 -0.478037 0.227796 0.178327 0.063367 0.272805 0.097082 -0.031578 0.037569 -0.373864 0.224389 -0.021218 0.029956 0.152803 0.095185 0.316231 0.407405 -0.122391 0.250454 0.313085 -0.437091 0.122100 0.138878 -0.105266 0.306804 0.342221 -0.214021 -0.434507 0.445155 -0.151647 -0.040806 -0.410127 -0.118655 -0.301981 0.279230 0.455741 0.481853 -0.112659 -0.064808 0.030451 0.024506 -0.329390 -0.479738 -0.434509 0.334441 0.126475 0.392751
0.248694 -0.489068 0.150053 0.072809 -0.415130 -0.216818 -0.277284 -0.009367 -0.398985 -0.424033 0.287641 -0.322462 -0.467849 -0.352977 0.147761 -0.366947 0.039397 0.356810 0.423312 0.006166 0.349692 -0.178319 0.452387 -0.108828 0.357216 -0.365974 -0.077538 0.433736 0.479496 -0.440033 0.337516 0.243401 -0.413891 0.002780 -0.168579 -0.313810 0.301172 0.069348 0.192033 0.417399 0.160525 -0.005116 -0.389853 0.207886 0.157118 0.273119 0.356150 -0.288275 0.145139 0.294672 0.233102 0.010042 -0.368436 0.200700 0.416424 -0.496009 0.349936 -0.145903 0.452937 0.344643 -0.070726 0.305664 0.103255 0.030594 -0.176346 0.449886 0.231994 -0.359963 0.034444 -0.060762 -0.427353 -0.289820 0.449333 -0.301996 0.433277 0.121661 -0.513666 0.304638 0.348596 0.146684 0.114521 0.096909 -0.328064 0.261295 -0.187181 -0.396430 0.280497 -0.322034 -0.027122 0.248645 -0.462181 0.417363 0.069520 0.156284 -0.036833 0.408385 0.121381 -0.289628 -0.436367 -0.328964 0.164820 -0.348510 -0.103573 0.129364 -0.135295 -0.155085 -0.233765 -0.133750 -0.335237 -0.369958 -0.471856 0.294495 0.242162 -0.284710 0.071001 -0.429808 -0.165929 -0.133292 -0.236632 0.322160 -0.369436 -0.183602 0.254733 0.215294 -0.512107 -0.266889 0.138890 0.124485 -0.041307 0.217733 0.310732 -0.361276 0.384434 -0.277631 0.283299 -0.235650 0.082494 -0.435256 0.145810 0.262468 -0.290003 0.189164 0.072173 0.467370 0.419665 -0.341615 -0.447228 -0.157252 0.125262 -0.250291 -0.467730 0.062005 0.147776 0.355225 -0.050976 0.167804 -0.375418 -0.429317 -0.194242 0.098486 0.303627 -0.368300 0.252421 0.203272 -0.130720 0.050930 0.482832 0.466985 0.130885 0.143852 0.244664 0.356093 -0.151773 -0.167952 0.447563 -0.112906 0.024101 0.317671 -0.082614 -0.481274 -0.385500 0.115484 0.366128 0.450499 0.076371 -0.309648 0.112660 0.220052 -0.219866 0.433629 -0.166252 -0.401028 -0.419460 -0.398620 0.317454 -0.034970 0.167521 0.315497 -0.052774 -0.186384 -0.025441 -0.292899 -0.206190 0.449583 0.072817 -0.453896 -0.377613 -0.426692 0.519822 0.289520 -0.203254 -0.204223 0.015575 0.463612 -0.324288 -0.481750 -0.361310 0.303565 0.253512 -0.065966 0.252404 -0.397529 0.048217 0.348154 -0.280938 -0.119118 -0.171605 0.401793 -0.288411 0.290832 -0.160489 0.362678 -0.406348 -0.041918 0.066060 0.213938 -0.042381 0.169615 0.254906 0.075468 -0.012156 0.396194 0.265990 0.387102 0.284380 0.395858 0.411530 0.438280 0.214633 0.180253 -0.112474 -0.017752 0.297935 0.450953 -0.154387 -0.467793 -0.152954 0.189219 0.565695 0.235164 0.052120 -0.293683 -0.105478 -0.038212 -0.094852 0.185082 -0.337716 -0.358486 0.051776 0.332957 0.139132 -0.463218 0.165032 -0.163002 0.430062 -0.035377 -0.251934 0.356803 -0.081886 0.477910 0.052266 0.320850 -0.024631 -0.134588 0.287014 0.336192 0.029314 -0.243589 0.169614 -0.021663 0.346118 -0.410846 -0.092517 -0.556443 0.070278 -0.181210 0.546236 0.233142 -0.116745 0.016058 0.051774 -0.468049 0.068050 -0.267984 -0.115840 0.013323 0.211849 0.147437 -0.114663 -0.354826 0.140557 0.452814 0.481234 -0.368863 -0.158970 0.395498 0.732915 0.482090 0.600361 0.100803 -0.027076 0.241015 0.339448 0.330787 0.490000 -0.285692 -0.510104 0.195205 0.451690 -0.069305 -0.273526 0.018674 -0.022144 0.309735 0.265901 0.377227 -0.161731 -0.007039 0.039874 0.238816 0.153345 -0.304358 0.214434 0.152939 0.058235 -0.188832 0.236887 0.054043 0.631665 -0.125872 0.322877 -0.528593 -0.292919 0.014782 0.271282 0.404145 0.238223 0.303972 0.114561 0.205124 -0.250122 0.356245 -0.260991 0.242945 0.181191 -0.479879 0.135382 -0.465330 0.028292 -0.309533 0.291846 -0.288845 -0.001623 0.096648 0.551663 0.456349 0.238548 -0.031817 -0.346694 -0.008314 0.329689 -0.289958 0.070643 0.395845 0.050416 -0.266245 0.315200 -0.196150 -0.447062 -0.055028 -0.475815 -0.181973 -0.183572 -0.221596 -0.423817 -0.487171 -0.186264 0.226776 -0.422983 0.371546 0.518354 0.445220 -0.395895 -0.004193 -0.012735 0.661405 -0.007552 -0.538921 0.045324 -0.028449 0.123765 -0.445363 -0.211398 0.393842 0.465692 0.354229 -0.357192 0.296103 -0.326710 -0.289044 -0.243714 -0.287315 0.044194 0.087924 0.006301 0.135587 0.134715 0.349554 -0.153058 0.261210 0.343237 -0.030964 0.253998 0.408965 0.169136 0.568729 0.545117 0.504395 -0.397205 -0.395829 -0.406043 -0.063581 -0.374080 -0.102230 -0.154529 -0.393177 -0.232791 0.003489 0.418137 -0.044290 0.229657 -0.310367 0.183606 -0.210939 0.300362 -0.171686 0.420385 -0.125374 -0.368517 0.038646 -0.292817 0.198173 0.074928 0.309000 0.205472 0.012147 0.312296 -0.097019 -0.279702 0.225816 -0.073835 -0.170534 -0.322554 0.067296 0.242446 0.038128 0.189330 -0.475133 -0.443172 0.122677 -0.004213 0.301695 0.311465 -0.198255 -0.237160 0.082438 -0.089876 -0.334328 -0.464943 -0.112032 -0.265152 -0.560920 -0.267032 -0.354837 0.526577 0.432504 -0.009863 0.199946 -0.249389 0.225646 -0.059027 0.191987 -0.429678 0.133629 -0.225506 0.327979 -0.313032 0.479034 0.368056 -0.240994 0.116922 -0.141447 -0.475864 -0.197700 0.030702 -0.302794 -0.374334 -0.479695 -0.339018 -0.418632 0.109565 0.240041 -0.054147 0.344991 0.309841 -0.084387 0.210286 -0.184812 -0.369230 0.476108 -0.443956 0.086954 0.183305 -0.358423 -0.264206 0.473010 0.484767 -0.062028 0.467255 0.368034 0.157717 0.052510 -0.319698 0.247538 -0.441137 0.285483 -0.503719 -0.183748 0.391972 -0.159609 -0.091091 -0.064253 -0.483196 0.368804 -0.234485 0.341856 -0.200373 -0.508988 -0.327746 -0.054392 0.482330 -0.256491 -0.452228 0.180846 -0.099703 -0.201223 0.169066 -0.099726 0.263702 0.261877 -0.247909 -0.109372 -0.220842 0.074438 -0.180636 -0.155797 -0.255329 -0.366391 -0.041621 -0.141574 0.148067 -0.498904 0.309384 0.180082 0.385111 -0.409891 0.037148 -0.300051 -0.403668 0.224613 0.160768 -0.406128 0.483333 0.223751 0.289929 -0.101159 -0.450519 0.088997 0.308981 0.268061 -0.404273 -0.396135 -0.320856 -0.183788 0.063364 -0.022506 0.219191 -0.352879 0.456479 -0.121074 0.020758 0.119757 -0.104767 -0.154648 -0.184951 -0.204446 -0.049328 0.367408 0.010714 0.062215 0.107232 -0.313308 0.171298 0.105776 0.425653 -0.023563 -0.480173 0.478602 0.465853 0.328451 0.298720 -0.377988 0.477629 -0.386592 0.059511 0.182134 0.241187 -0.132189 0.344465 0.212876 0.261947 -0.119566 -0.152157 -0.327609 0.240997 0.178103 -0.016844 -0.293120 0.060722 -0.490920 0.284305 -0.316835 -0.289017 -0.029187 0.304151 -0.348154 0.462461 0.339189 -0.354341 0.443525 0.203763 0.459590 -0.419252 0.196602 -0.411791 0.155469 -0.106053 0.344606 -0.461510 -0.246377 0.072693 0.315648 0.149268 0.435747 -0.496750 -0.094525 0.129061 0.001616 0.127566 -0.295007 0.025907 -0.072918 -0.096631 0.252100 0.413106 -0.277269 0.419157 0.390778 -0.422870 -0.419974 0.349514 0.296104 -0.445174 0.445472 0.007917 -0.341755 0.116152 0.417074 -0.481938 0.169853 -0.314092 0.105966 0.000712 0.350386 0.056923 0.019173 -0.228928 -0.298806 -0.464000 0.413848 -0.078602 0.077117 -0.143860 0.339978 -0.155572 -0.215543 -0.422081 -0.221205 -0.309555 -0.329740 -0.125968 -0.444831 0.481574 -0.055931 -0.484148 0.004702 0.117525 0.147215 -0.063013 0.150798 -0.167721 0.138105 -0.228026 0.348202 0.003702 0.344108 -0.117415 0.289984 -0.439487 -0.066204 0.219043 -0.002878 -0.473876 -0.409606 -0.147689 -0.114238 -0.109939 -0.054560 0.179768 0.095717 0.130911 -0.430989 0.166096 0.127696 0.028291 0.197159 -0.352391 -0.338973 -0.140416 0.099806 0.327036 0.207074 -0.246878 -0.385780 0.070486 0.272035 0.473539 0.468283 0.077230 -0.450737 -0.082711 -0.188516 0.061596 -0.041376 -0.082912 0.429117 0.359597 0.322360 -0.110232 0.054576 -0.066713 -0.464110 0.138798 -0.385406
0.194007 -0.302490 0.342174 0.356826 -0.126252 -0.283031 -0.028157 -0.284006 0.439254 0.240176 -0.154575 0.024951 0.027422 -0.165825 0.008444 -0.380137 -0.101352 0.440944 -0.053443 0.475455 -0.085222 0.378856 0.419783 -0.210415 0.216426 -0.175239 0.359372 -0.335076 -0.124138 0.013380 -0.205272 -0.430131 0.210890 -0.363097 0.426695 -0.415362 -0.146128 -0.101462 -0.199369 -0.206874 -0.361285 0.146056 0.318077 0.166137 0.480231 -0.173479 0.286000 -0.121121 -0.232535 -0.267444 -0.145666 0.182243 -0.388588 -0.225883 0.471828 0.327838 0.098878 0.331200 0.492762 0.474740 -0.155420 -0.212510 -0.455392 -0.444530 -0.075607 0.471303 -0.359893 0.278265 -0.130159 -0.059261 -0.428609 0.008556 -0.413205 0.389467 -0.325307 -0.432974 -0.284012 0.460693 -0.054095 -0.016547 -0.306751 0.300240 -0.334303 -0.195339 -0.425643 -0.362475 -0.367501 0.173235 0.468725 -0.374739 0.147975 -0.186695 -0.087249 0.192583 -0.131226 0.337144 0.163886 0.008881 0.115409 -0.466273 0.449620 0.186799 0.042284 -0.463585 0.076267 0.216977 -0.396559 0.292255 0.177669 0.049346 -0.224291 0.370918 -0.150414 -0.058595 -0.324421 -0.076058 0.078930 -0.191922 -0.402823 0.047655 -0.066661 0.245152 0.360960 0.346090 -0.062266 -0.270266 0.183234 -0.398380 0.238616 -0.201357 -0.364652 0.188236 0.485442 0.177632 0.224650 0.061709 -0.105392 0.328091 -0.146036 -0.427723 -0.122563 0.129673 0.443196 0.227023 -0.428922 -0.381225 -0.349035 0.150009 -0.073147 -0.251858 -0.302336 0.360192 0.493294 -0.441376 0.206283 -0.068972 -0.211642 -0.110483 0.032649 -0.473026 0.188160 0.167997 0.215209 0.173603 -0.154372 -0.060140 -0.264688 0.240237 -0.232049 0.089276 0.312514 0.145388 -0.281051 0.255710 -0.127590 -0.209972 0.374485 0.023375 0.440037 -0.198662 0.271518 -0.362299 -0.338470 0.264811 -0.303675 0.367813 -0.304160 -0.015318 -0.242669 0.228488 0.011656 0.445491 -0.103515 -0.273135 0.119094 0.242113 0.166725 0.354406 -0.017650 0.434675 -0.056318 -0.205136 0.080063 0.162631 -0.449426 0.452473 0.452659 0.425058 -0.024151 0.392696 -0.273604 -0.252633 -0.469603 -0.112073 -0.487822 -0.273279 -0.244260 -0.291982 0.211404 0.013071 0.436506 -0.276940 -0.041438 -0.167009 -0.050075 -0.422345 -0.424895 -0.383350 0.432061 0.057455 -0.448675 -0.124257 0.352319 0.131388 -0.461626 0.402892 0.083862 0.491034 0.327951 -0.440289 0.383730 -0.445653 -0.192923 0.414127 -0.057726 -0.180745 -0.359152 0.198014 0.027273 0.352252 -0.288915 -0.036221 -0.424688 0.169646 0.296770 0.025238 0.247301 0.371875 0.141888 0.179362 -0.070670 0.193213 -0.444895 -0.218352 -0.175398 -0.406521 -0.315459 0.408464 -0.415487 -0.487508 0.468174 0.468243 -0.433161 -0.224748 0.382370 0.009113 0.094507 -0.476782 -0.292873 -0.378220 0.375471 -0.081789 0.085560 0.450783 -0.412143 -0.117670 -0.023979 0.335159 -0.245795 -0.382092 0.014521 0.183535 0.311121 0.069626 0.465183 -0.364277 0.163105 -0.350276 -0.455814 0.247618 -0.337784 -0.487639 0.215861 -0.270945 -0.212387 0.098231 0.238167 0.382120 0.121450 0.445294 -0.496099 -0.003080 -0.136494 0.089460 -0.052297 -0.048637 0.471790 0.423724 -0.213478 -0.274005 -0.458368 0.301043 0.409530 0.352753 -0.129331 0.374713 0.488476 -0.466226 -0.475563 -0.467337 0.281392 -0.313348 -0.454977 -0.002747 -0.084293 -0.167364 -0.404516 -0.346126 -0.285244 0.216934 -0.400832 -0.281343 -0.286145 -0.037326 0.308117 0.161558 0.414037 0.279907 0.085282 -0.299441 -0.494098 0.126914 -0.498398 0.415432 -0.020333 -0.127730 0.290145 -0.031856 -0.093956 0.314581 0.000806 -0.312564 -0.498767 0.045830 0.184689 -0.083060 0.378466 0.280173 0.070814 -0.406778 -0.002893 0.169983 -0.188121 0.210962 -0.367343 -0.380004 -0.127480 -0.453306 0.399904 0.457802 -0.252747 0.405806 0.084716 -0.251146 0.321238 -0.435617 0.121125 0.111382 0.032527 -0.472831 -0.074036 -0.466667 -0.285396 -0.072803 0.079163 0.399293 0.344137 -0.042371 0.179467 -0.085049 0.050852 -0.323426 -0.415066 0.362731 0.387536 -0.282410 0.482728 -0.239944 -0.235716 0.382631 -0.282142 0.011537 0.288437 0.302573 0.260391 0.109675 0.366957 -0.118485 -0.278943 -0.100516 -0.091316 0.147021 -0.067183 0.123288 -0.425782 -0.488020 0.022581 0.418355 -0.030390 -0.297952 -0.166694 -0.479538 -0.121378 -0.081760 0.383193 -0.233842 0.135830 0.365921 0.026214 0.400114 0.248552 0.244072 -0.088349 0.036990 0.046645 -0.327958 -0.353336 -0.086398 0.053557 -0.132279 0.313086 0.462241 -0.485258 -0.254097 0.085529 -0.411040 -0.242117 -0.391889 -0.492686 0.227493 -0.189841 -0.159380 0.247955 0.188781 0.258860 0.131148 0.454939 -0.105310 -0.002931 -0.018848 -0.205195 -0.254378 -0.274776 0.206456 0.282611 0.271869 0.378497 0.429275 -0.314529 -0.067946 -0.203003 0.498556 -0.105705 -0.188261 -0.255541 0.479825 -0.099302 0.002342 -0.412065 -0.091987 -0.270164 -0.101906 0.248633 0.477791 -0.413126 0.007493 0.108939 -0.458187 0.402184 -0.393992 0.022966 -0.303012 -0.148370 0.248190 0.403444 -0.365759 0.020059 0.281941 -0.436484 0.205529 -0.286005 -0.139487 0.204086 0.108291 0.172252 0.448545 0.088115 -0.427050 -0.049112 0.176050 -0.019038 0.180723 -0.425856 -0.270405 0.158514 -0.338981 0.237088 -0.232547 -0.297168 0.139272 -0.126539 0.225797 0.336260 0.225090 -0.026013 0.239704 0.359331 0.494045 0.021645 0.422847 0.199575 0.235640 -0.216640 -0.096339 -0.156069 0.455611 -0.147794 0.432046 -0.471439 0.303093 0.108096 0.009523 -0.016184 0.182241 0.239119 -0.357670 0.343259 -0.023793 -0.090217 -0.453909 -0.384521 0.283243 0.271888 0.451739 0.008333 -0.254125 0.191443 -0.132336 -0.260079 -0.286912 -0.209489 0.439495 0.448728 0.073871 -0.156844 -0.207341 0.029482 0.195362 -0.275296 0.058043 -0.001545 0.332801 -0.432434 0.482271 0.015041 0.306685 -0.375399 -0.141699 -0.217108 0.034384 -0.095608 -0.101629 -0.182373 -0.323720 -0.149890 0.325960 -0.077844 -0.458448 -0.306375 0.162076 -0.245360 -0.015864 0.101572 -0.296632 -0.441994 0.444728 -0.003974 0.087488 0.140089 0.220731 -0.354469 -0.361456 0.053532 -0.286903 -0.379184 -0.431427 -0.480218 -0.254583 -0.073126 -0.197326 0.279801 0.331266 0.201045 -0.402572 -0.492454 -0.448846 0.423388 -0.070299 -0.407293 -0.382987 -0.408222 -0.152653 0.101148 0.193349 0.050715 0.159155 0.138077 -0.453259 -0.253357 -0.221833 0.267472 -0.107826 -0.083289 -0.178996 0.105271 0.037526 -0.110423 0.125053 0.282943 0.316450 0.427727 0.062744 0.147716 0.128772 0.160172 0.155262 0.179926 0.083560 -0.415037 0.272633 0.200573 -0.323259 -0.380020 -0.198279 0.370090 0.170695 0.460876 0.008167 0.217436 -0.292481 0.286334 -0.015092 0.099693 -0.296955 0.305912 -0.295037 0.240571 -0.304512 0.330016 0.023514 -0.488061 0.257743 -0.413742 0.159655 -0.113485 0.246430 -0.185084 -0.433559 -0.170010 -0.100121 0.339074 -0.469437 0.076620 0.459054 -0.167716 -0.053289 0.129749 -0.206840 0.454878 -0.152815 0.000679 0.241212 0.332093 -0.399629 0.444257 0.138004 -0.194665 0.184828 0.333493 -0.364649 -0.291658 0.345432 0.393094 -0.205399 0.005086 -0.220391 -0.458969 0.320003 -0.153950 -0.128979 -0.280118 -0.314876 -0.098417 0.296502 -0.355822 0.233867 -0.256787 0.273927 -0.472972 -0.301909 -0.378889 0.027707 0.439302 0.453204 0.128078 0.383559 0.091209 0.433413 0.068387 -0.075298 -0.431236 0.276729 -0.229867 0.461858 -0.428670 0.275219 -0.258532 -0.387639 0.095222 0.087518 -0.016619 0.315104 0.272642 0.384965 0.111606 0.416821 0.118832 0.354819 0.190747 0.145860 -0.447090 0.311859 -0.326434 0.492212 0.265063 0.301644 0.375771 -0.143728 0.235057 -0.055842 0.280973 0.303821 -0.279112 -0.448894 0.265680 -0.207782 0.326326 -0.492853 -0.095421 -0.078452 0.094665 0.387960 -0.263348 -0.132692
0.275086 0.350420 -0.213710 -0.106081 0.205239 0.477037 -0.460222 0.258149 0.288896 -0.286655 0.250361 0.053959 -0.485011 0.126132 0.410231 0.250046 -0.429709 0.191204 0.053867 -0.208822 0.242310 -0.180453 0.083396 0.068636 -0.173306 0.487975 0.490183 0.421359 0.375935 -0.273165 -0.211333 0.148859 -0.424907 0.072795 -0.459384 0.278170 0.047671 -0.421767 0.034157 -0.165595 -0.210585 -0.217644 0.386202 -0.197758 0.406327 0.294271 -0.449873 0.474456 -0.016687 0.101832 -0.236528 -0.276539 0.419217 0.344707 0.289935 -0.256251 0.330520 0.277956 -0.337053 0.204293 -0.497371 -0.050548 -0.149010 -0.424439 -0.479914 -0.110555 0.351569 0.065595 -0.034485 -0.116435 0.397838 0.252769 0.163759 0.281879 -0.447151 0.067925 0.073988 -0.399186 0.040218 -0.444861 0.200484 0.301529 -0.223562 0.117539 0.144074 -0.435789 0.359127 -0.027568 0.340005 -0.480088 -0.325438 0.340472 -0.032797 0.023391 0.413871 -0.014873 0.410674 0.263279 -0.451440 -0.125973 -0.355318 0.444236 -0.375366 0.306279 0.223953 -0.324679 -0.127958 -0.204220 -0.226026 0.410099 -0.151243 0.472296 0.209466 0.123033 0.087674 -0.148622 0.185082 -0.055361 0.321648 0.022925 -0.037611 0.494048 -0.138764 0.427430 0.015277 -0.227055 -0.089605 -0.076211 -0.465938 -0.043207 0.295654 -0.323418 -0.101132 0.418126 0.480699 -0.379341 -0.408714 -0.149420 -0.085723 -0.136902 -0.241483 0.260872 -0.166768 0.465821 -0.118257 0.418744 -0.184963 -0.378122 -0.124941 -0.239618 0.201801 0.409688 -0.355505 0.462965 0.288530 0.130417 -0.284716 -0.345051 -0.438848 -0.252816 0.109581 0.354644 -0.078396 -0.493713 0.270608 -0.099858 -0.375215 0.359732 0.248560 0.036900 -0.279332 -0.495085 -0.204390 0.051738 0.398420 0.121694 -0.129090 -0.257679 0.258356 0.289759 -0.108904 -0.236100 -0.000948 -0.022051 -0.218189 -0.090267 -0.324580 -0.023581 0.044006 -0.265590 0.221441 -0.348575 -0.413108 -0.359116 -0.344449 0.355338 0.038864 -0.221827 0.212908 -0.214738 0.312911 0.431415 -0.282139 -0.456623 -0.116419 -0.299607 0.301964 0.428707 -0.067748 -0.052253 0.075022 0.263482 0.233317 -0.021211 -0.011419 -0.405147 0.305925 0.154516 0.069110 -0.152231 0.386764 -0.211610 -0.002967 0.471494 -0.072888 0.150422 0.324670 0.463814 0.426433 0.035416 -0.323239 0.157785 -0.079626 0.011411 0.342692 0.540546 0.467569 0.262356 0.390462 -0.147522 -0.284079 0.207444 -0.231005 0.527574 -0.426604 0.238883 -0.444385 0.377159 -0.108763 0.122563 -0.277234 -0.224161 0.408791 0.217637 -0.254829 -0.166259 -0.134103 -0.432321 -0.284246 -0.289229 0.126155 0.078821 -0.472874 -0.343984 -0.250188 0.452433 -0.519617 0.298099 -0.064782 0.301683 -0.314516 0.110060 0.047629 -0.074329 0.070822 0.118862 -0.337608 0.124275 -0.006141 0.051467 -0.255324 0.214464 0.325144 -0.348695 -0.070061 -0.431847 -0.096754 0.207312 -0.435578 0.256171 -0.394729 0.197277 -0.103272 -0.338713 0.233697 -0.219878 0.512713 0.230046 -0.246024 -0.054353 0.185276 -0.099965 -0.446455 -0.269257 0.323544 0.122206 0.347443 0.483774 -0.255681 -0.160859 0.033079 -0.013167 -0.448557 -0.143939 0.126491 -0.123798 -0.243490 -0.523557 -0.421342 -0.058359 0.366673 -0.141711 -0.319246 -0.472382 -0.114066 -0.484886 0.038296 -0.082410 0.369575 0.315110 0.361074 0.052689 -0.287017 0.412458 0.281270 -0.465635 0.032502 0.126551 -0.484023 0.274659 0.463530 0.046894 -0.250156 -0.520053 0.231668 0.184604 -0.240108 -0.301069 -0.594710 0.114594 0.394767 0.352312 -0.511877 -0.371211 -0.460508 0.057166 -0.273000 0.177564 0.472594 -0.405587 -0.009488 0.331506 0.144940 0.201333 0.241802 -0.075953 0.233536 -0.227858 -0.451563 0.247351 -0.488225 -0.566435 -0.329890 -0.276790 -0.503863 -0.330850 -0.565923 -0.256641 0.052631 -0.058909 -0.432053 -0.233382 -0.448026 -0.131190 0.030757 -0.313233 0.423814 0.255595 0.362170 0.394246 0.347846 -0.149480 0.223591 -0.009376 -0.450309 -0.036769 0.412510 0.281065 0.156971 0.382544 -0.052343 0.198022 0.316385 0.267477 -0.564388 0.358289 -0.499402 -0.529486 -0.327583 -0.140110 -0.044531 0.253001 0.388797 0.052272 -0.380351 -0.082607 0.236878 -0.458699 -0.329173 0.096885 0.433385 -0.483489 0.445243 0.154814 0.004974 0.492772 -0.436978 -0.160919 0.225878 0.262324 -0.259558 -0.248002 -0.054054 -0.230146 -0.433143 0.146552 -0.372291 -0.351822 0.503089 0.263078 0.121988 -0.082618 0.058167 0.008624 0.467492 0.175654 0.423855 0.202208 0.214794 -0.407481 -0.203069 0.146017 -0.393131 -0.259987 -0.210816 -0.036714 -0.358550 -0.046055 -0.605130 0.308333 -0.423814 -0.173541 -0.107988 0.394584 0.167030 0.027259 0.080917 -0.500973 0.011550 0.022203 0.348444 -0.368624 0.437423 -0.095551 0.137837 0.402753 -0.422059 0.059530 0.102799 0.290573 0.149888 0.397569 -0.005539 0.168232 -0.467357 0.232726 -0.043004 -0.076689 -0.594478 -0.222961 -0.047037 0.057654 0.254023 0.269510 -0.158554 -0.065004 -0.447359 0.334238 0.038876 0.062029 -0.145721 -0.114842 0.191242 -0.210460 0.287445 -0.173082 -0.309869 0.363225 0.384286 0.290768 0.151636 0.068665 0.141832 -0.414602 -0.250522 0.288387 0.160967 -0.002628 -0.385543 0.426232 -0.505609 0.111691 -0.099043 0.258317 -0.307875 0.112995 -0.208286 -0.257396 -0.054930 0.328428 0.302471 0.297187 -0.288576 -0.008448 -0.415435 0.496707 0.316308 -0.227466 0.357770 0.198432 -0.490373 -0.053754 -0.374469 0.088048 -0.064372 -0.055599 0.047790 -0.168029 -0.352394 0.241441 -0.187822 -0.324337 -0.219898 0.192550 0.469617 -0.029935 -0.196617 -0.240831 0.210508 0.246292 -0.414565 0.010817 0.041317 -0.205302 0.500208 0.123720 -0.210756 0.314354 0.416541 -0.402219 -0.063258 0.333044 0.021147 0.192774 0.146683 -0.287908 -0.228007 -0.265412 0.070967 -0.104214 0.495580 0.480961 0.069287 -0.226480 0.171349 0.036742 0.241424 0.472570 0.293749 -0.050230 0.216700 0.377023 0.458426 -0.244145 -0.330441 0.456471 0.399863 -0.067051 0.270787 0.282526 0.108067 -0.286729 0.158625 -0.307766 -0.515126 -0.094055 -0.067763 -0.245305 0.168318 -0.386362 0.148319 0.161736 -0.407563 -0.284556 0.433095 0.261624 0.250024 0.172357 0.232033 0.041612 -0.380035 -0.053429 -0.083528 -0.423771 0.200265 0.083869 -0.469461 0.075516 -0.461652 0.335244 -0.157301 0.135517 -0.427996 -0.439210 0.380459 -0.418449 -0.027218 -0.140002 -0.165916 -0.361061 -0.028526 0.480242 0.298513 0.061749 -0.306475 0.229446 -0.178789 0.441387 -0.100359 -0.448918 -0.019163 0.017444 -0.004509 0.395147 0.091511 -0.306406 -0.023145 0.119888 0.266949 0.013041 -0.085234 -0.392514 -0.353604 -0.015392 -0.333886 -0.475307 0.063997 0.136734 -0.117471 0.395920 0.273511 0.351841 0.374000 0.069862 -0.088572 -0.434637 -0.202854 0.230478 -0.495412 0.194625 0.279398 -0.016736 -0.290093 -0.227273 -0.123751 0.299257 -0.035841 0.350942 -0.083018 -0.271054 -0.138179 0.329587 -0.165730 0.006055 -0.187967 -0.001778 0.028587 0.373868 -0.367205 0.408954 0.267626 0.404144 0.258633 0.139465 -0.028155 -0.332100 0.202666 0.266829 0.396216 0.205092 -0.040707 0.173452 -0.313806 0.167038 0.444017 0.060281 -0.035867 -0.093985 -0.090938 0.378954 0.132799 0.268721 0.206379 0.464907 -0.227385 -0.483750 -0.039033 0.299040 0.387956 0.091600 0.205832 0.153421 -0.006418 -0.037697 -0.209276 0.463265 0.128041 0.491228 0.227932 0.022096 0.194158 -0.314937 -0.306614 0.378191 0.349940 -0.364759 -0.063690 -0.188089 0.039094 0.343210 -0.311297 -0.330269 0.109770 0.392920 -0.367523 0.380223 0.407008 0.091282 0.177101 0.292803 -0.319280 -0.119229 -0.055938 0.172141 0.340912 0.232624 0.133244 -0.033208 0.221690 -0.140986 0.486725 -0.086314 0.041915 -0.322051 -0.210285 -0.110307 -0.188971 0.223864 0.199443 0.347961 0.064913 0.385984 -0.484470 -0.327480
0.274201 -0.356696 -0.451960 0.179047 0.232425 0.222979 -0.030312 0.410984 -0.398412 0.411588 0.080962 0.440338 0.142050 -0.287956 -0.095032 -0.138422 0.068897 -0.110468 0.273103 -0.391350 0.065319 -0.439344 -0.003818 0.374186 0.282358 -0.306538 0.219985 -0.154891 -0.422716 0.233354 0.015468 0.351865 0.377037 0.063887 0.031291 0.109842 -0.212754 -0.498641 0.021204 -0.110787 0.413326 -0.397454 -0.170069 0.055755 -0.185031 0.235278 0.417712 0.384245 -0.374811 0.191194 0.493274 0.190887 0.252229 -0.010165 0.065453 0.034967 0.183676 -0.214183 0.380455 0.261340 -0.480450 -0.103698 0.113584 0.396967 0.460568 -0.354746 0.007187 -0.251807 -0.353008 -0.471229 0.137785 -0.439303 -0.368304 0.468095 0.116831 -0.052956 0.203752 0.034923 -0.168331 0.329320 -0.273504 -0.174678 0.020587 0.479105 0.315536 -0.413581 0.014451 -0.000408 -0.127385 -0.104715 -0.238689 -0.107456 0.291966 0.375274 -0.210110 0.252913 -0.479093 0.297457 -0.498515 -0.331721 0.326607 0.139650 -0.270645 0.458682 0.108124 0.346566 -0.093895 -0.187745 -0.118132 0.238153 -0.358045 0.108743 -0.436146 0.162921 0.088227 0.379769 0.249719 -0.396944 -0.120259 -0.377287 -0.001280 0.141431 0.015637 -0.208935 0.017084 0.305906 -0.455643 0.038371 0.103742 -0.453779 0.207028 -0.069272 0.186250 0.436763 -0.110212 -0.205246 0.283708 0.296273 0.107388 -0.334046 0.034805 0.249722 0.275076 0.099038 -0.086978 -0.136318 -0.020814 -0.398817 -0.109990 0.172897 -0.341255 0.337188 -0.143273 0.117075 -0.217908 -0.463244 0.108513 -0.197603 0.057329 -0.287366 -0.151002 -0.235264 0.143741 -0.464373 -0.298122 -0.466091 -0.169240 0.485965 0.330560 0.438527 -0.347701 -0.134256 0.188629 0.427755 0.449802 -0.491434 -0.176077 -0.137725 -0.291650 0.316693 -0.267938 0.040361 0.300430 0.309456 -0.148237 0.480984 0.324866 0.463621 -0.213274 -0.117426 -0.323366 0.136102 0.147689 0.320754 0.172109 0.349947 0.355042 -0.496752 0.336291 0.185982 0.442155 0.488969 -0.463254 0.096641 0.449211 -0.435076 0.228058 -0.297534 -0.144412 0.404368 0.512469 0.232734 0.008320 0.110432 0.078206 0.407088 0.179607 -0.100925 0.371088 0.466712 0.282027 -0.451899 0.103193 -0.069904 0.369234 -0.224319 -0.219578 0.224655 -0.220691 -0.382907 -0.104343 -0.322781 -0.312909 -0.002331 0.361653 -0.483048 -0.051933 0.072429 -0.205209 0.533035 0.145333 -0.353528 0.248324 -0.329074 0.398628 -0.213214 -0.452977 0.078614 0.186240 0.418489 0.045705 -0.031353 0.466969 -0.350723 0.399122 0.336583 -0.074662 -0.320077 0.105199 0.160402 -0.243831 0.444248 0.379431 -0.193049 -0.083346 0.201271 -0.071389 0.551820 0.067862 0.259032 0.412709 0.456303 0.365848 0.076787 -0.403762 0.264855 0.363952 -0.356360 -0.156151 0.050572 -0.437491 0.389933 -0.480403 -0.470143 -0.460411 0.419098 0.410401 -0.034266 -0.442127 -0.105384 -0.303861 -0.217470 -0.221780 -0.686438 0.199229 0.398952 0.611153 -0.013868 0.399422 -0.251162 0.393543 0.122862 -0.294479 0.259770 -0.299972 -0.197862 0.025005 -0.435640 -0.053843 0.369233 0.115311 0.009045 0.259545 0.135287 0.098223 0.378045 0.134924 -0.037301 -0.213687 0.073286 0.279613 -0.173227 -0.232751 -0.232210 0.268128 0.528050 -0.312483 -0.084883 -0.414710 0.337149 0.164334 0.479212 -0.039610 0.370234 0.239361 0.160797 -0.327248 -0.235255 0.225536 0.119288 -0.365643 -0.158774 -0.312346 0.488172 0.517033 0.192596 0.195804 -0.077848 -0.639003 0.265559 -0.421760 0.375136 -0.067590 -0.123340 -0.297297 0.431806 -0.405938 -0.271580 -0.152697 -0.320269 -0.434052 -0.487984 -0.340678 0.026717 0.382630 0.399063 -0.312107 -0.444240 -0.335813 0.413809 0.269319 -0.122356 -0.194901 0.369374 -0.293175 -0.445561 -0.144781 0.410244 0.369642 0.108234 0.374272 0.426351 -0.058299 -0.254935 -0.307742 0.110849 -0.322750 -0.213301 0.339648 0.024932 -0.033191 0.405974 0.037327 0.126510 -0.066930 -0.079664 0.025953 0.121343 0.055195 0.269239 0.100386 -0.293159 0.619721 0.235927 0.626255 -0.332558 -0.299580 0.039566 0.069318 0.286176 0.285759 0.420944 0.242693 -0.058984 -0.333612 0.435331 -0.447756 -0.155983 -0.277591 0.392270 0.369328 0.189597 0.298624 -0.092966 -0.183513 -0.267926 0.371520 0.421539 0.430163 -0.160332 0.097418 -0.068137 0.069991 -0.109903 -0.312754 -0.223124 0.512281 -0.180868 0.210701 0.277793 0.496431 0.326503 0.202081 0.239503 -0.232102 0.368847 0.175213 -0.179479 -0.286757 0.398001 -0.286830 -0.417050 0.087977 -0.487827 0.049305 0.468203 -0.194178 -0.137207 0.302764 -0.373160 0.218036 -0.231969 -0.014954 -0.656712 0.444386 0.190922 -0.048008 0.011926 0.377233 -0.157269 -0.203972 0.374043 -0.330387 0.498488 0.113925 -0.062110 0.367714 -0.210483 0.258789 -0.418663 -0.312103 0.472339 -0.398267 0.276680 0.475217 -0.019977 0.067438 -0.437982 0.490114 0.209670 -0.253127 -0.151203 0.277163 0.327968 0.197294 0.019219 -0.010605 -0.323673 -0.465511 -0.132993 0.019437 -0.169104 -0.258572 0.189429 -0.170237 0.355732 -0.372302 -0.302144 -0.354372 0.386866 -0.220428 -0.194080 0.373809 -0.117856 -0.530983 0.140378 -0.494056 0.490834 -0.451615 -0.634176 -0.488630 -0.096929 0.157006 0.435449 -0.276695 -0.146419 -0.044953 0.213079 0.030287 -0.010085 -0.419535 -0.449897 0.321190 -0.177728 0.239911 -0.348668 -0.321617 0.367988 -0.150433 -0.175609 0.288621 0.221847 0.276929 0.256376 -0.323353 0.244690 -0.145380 -0.386840 0.050615 0.057190 -0.240421 0.285398 0.440901 0.424692 0.221226 -0.335415 -0.221348 -0.323348 0.378043 0.309318 0.166946 0.458886 0.359800 -0.011485 -0.218463 0.100090 0.140226 -0.039700 -0.056197 0.495433 0.216833 -0.195044 0.156258 0.009117 0.348402 0.133499 -0.385175 -0.288968 0.298467 0.276827 0.336766 -0.378244 0.062604 0.278046 -0.453173 -0.215791 0.443010 -0.174143 -0.038759 0.321432 -0.364446 -0.371434 0.280697 0.495733 0.117460 -0.437386 0.071548 -0.271623 0.014409 -0.468441 -0.304637 -0.184135 -0.190613 0.391414 0.212769 -0.442913 0.067999 0.467714 -0.069663 -0.064579 0.244920 -0.232518 0.057556 -0.192097 -0.454092 0.104762 0.092492 0.489297 0.430999 -0.445888 0.311108 -0.433068 -0.316943 0.092184 -0.436956 0.300896 0.155177 0.159626 -0.440659 -0.316025 0.225043 -0.191664 -0.012030 -0.485093 -0.322221 -0.258407 -0.355206 0.242563 -0.290314 0.075510 -0.321637 0.454985 0.343372 0.236299 -0.236733 0.389658 -0.158560 0.356138 0.379335 -0.227182 0.410629 0.190822 -0.159871 -0.405935 -0.216615 -0.096447 0.395340 0.438942 -0.436442 0.455060 -0.381830 0.288980 -0.236225 0.106520 0.304266 -0.058067 0.348492 0.449439 -0.315125 -0.441443 0.025328 -0.136383 -0.486079 -0.130921 -0.399705 -0.222432 -0.240884 -0.057886 -0.365915 -0.361170 0.215312 -0.454908 0.330031 -0.444180 -0.360464 -0.386205 -0.040248 -0.464745 -0.446884 0.023689 0.490694 -0.328335 -0.186953 -0.245152 0.278564 -0.382307 0.197160 0.127436 -0.432489 0.382414 0.186372 0.093218 -0.253590 0.200673 0.462676 -0.152915 0.478619 -0.277828 0.289578 -0.386917 -0.138619 0.005269 -0.341445 -0.308209 0.061468 -0.201530 -0.194035 -0.478401 -0.165896 -0.140539 0.045667 -0.174823 0.031505 0.359093 0.080404 -0.189551 0.477165 -0.222057 0.438263 -0.454945 -0.339264 0.125014 0.138652 -0.092474 -0.173934 0.101708 0.254990 -0.194935 0.324258 0.044947 -0.081473 -0.313982 -0.449405 0.077461 -0.121811 0.112442 0.376310 0.184533 0.134420 -0.289206 -0.455627 -0.319534 0.036350 0.076257 -0.460061 -0.382866 0.387085 -0.482517 -0.104544 0.325727 -0.437082 0.056572 -0.048879 0.201949 0.464477 0.277567 -0.195964 0.219846 -0.416989 -0.371326 -0.234828 0.001917 -0.184929 -0.183854 -0.420243 0.193639 0.428967 0.456447 -0.121449 0.063767 -0.332380 -0.076697 0.244612 0.204349
-0.497531 0.287459 0.324391 0.389933 0.305322 -0.279774 0.216039 0.368618 0.277177 -0.332460 0.070947 0.242033 0.445485 0.375362 -0.037742 -0.471125 -0.495585 0.227809 0.031171 -0.180134 -0.455666 0.111308 -0.486116 0.473681 0.068134 -0.107186 0.037827 0.236133 0.316497 -0.217181 -0.059139 0.316816 -0.431872 -0.236897 0.204599 0.371300 -0.018821 -0.081511 0.237769 -0.243793 0.083879 -0.193433 0.496090 0.027214 -0.320221 -0.043801 0.053940 -0.317955 -0.318142 -0.417038 -0.000239 -0.275958 0.192120 0.011495 -0.304427 -0.241895 0.402159 0.231251 0.492088 0.216507 -0.488080 -0.069200 0.031173 -0.422102 0.191753 -0.266378 0.447049 -0.329217 0.149961 0.182669 -0.075160 -0.268310 0.487086 -0.081219 0.256755 -0.335285 0.372830 -0.191455 -0.155389 -0.447462 -0.110643 0.342222 -0.225569 -0.420672 -0.148433 -0.032146 -0.164717 -0.248423 -0.303044 -0.174778 0.465934 -0.293274 0.253873 -0.005043 -0.217526 -0.056524 0.226430 -0.272626 0.112110 -0.125759 0.407893 -0.465200 0.103782 0.392829 -0.048569 -0.141613 -0.444605 -0.177888 0.164783 -0.102144 -0.127500 -0.448009 -0.262072 0.144781 -0.370831 0.087346 -0.389514 -0.037697 0.336773 -0.194708 0.285375 0.300558 0.009868 0.037098 -0.206634 0.290193 0.478425 -0.482354 -0.484583 0.088385 -0.110263 0.421160 0.121036 0.491370 0.311839 -0.429682 -0.152393 0.365085 -0.109720 -0.489759 -0.239209 0.260631 -0.439918 -0.003430 -0.096738 -0.312898 -0.418234 -0.016116 0.203964 0.362034 0.233036 -0.135786 0.184160 -0.126698 0.482189 -0.439854 -0.389498 0.441705 -0.478490 -0.376231 0.027941 -0.090902 -0.457221 -0.353173 -0.101682 0.352469 -0.285004 0.243776 0.215404 0.103126 0.251867 0.474045 -0.138393 0.309800 0.004094 0.350179 0.560642 0.045158 -0.308556 0.127946 -0.033979 -0.369493 -0.335243 -0.222869 -0.098481 -0.472082 -0.321165 0.013421 0.471023 -0.301805 0.135040 -0.003186 0.105143 0.175670 0.141492 0.501312 0.025990 0.354338 0.242938 -0.260756 -0.044686 -0.007344 -0.253231 0.374883 -0.133804 0.158923 0.050623 -0.162353 -0.229321 0.378531 0.550979 0.369104 0.485940 0.531464 0.351978 -0.169110 -0.474028 -0.466934 0.342162 0.494846 -0.270888 -0.024947 -0.010490 0.332106 -0.351427 -0.371148 0.331268 0.172414 0.481041 0.072057 0.445137 -0.012306 -0.412506 -0.455263 -0.293744 -0.141293 0.210168 0.105760 0.153696 -0.417060 0.092479 0.079677 0.193436 0.054802 0.074449 0.050688 0.417795 0.098272 0.081605 0.257807 0.090968 0.308567 -0.269290 -0.421671 0.138523 -0.122866 -0.294968 -0.032358 -0.444322 -0.262589 -0.442765 0.348401 0.137081 -0.318834 -0.610274 0.184604 0.037638 0.508122 0.227363 -0.324314 0.357245 -0.160388 0.183655 0.069964 0.426516 -0.244045 -0.381497 0.342162 0.352077 0.197958 0.097819 -0.059105 0.004375 0.326380 0.017074 -0.359251 -0.290355 0.276714 0.108327 -0.237844 0.487904 0.095537 -0.468435 -0.028915 0.318736 -0.166954 -0.123275 -0.248510 -0.349487 -0.449554 -0.204451 -0.497703 -0.112092 0.477055 0.070112 -0.187725 -0.269140 0.186465 -0.347713 -0.419213 -0.117726 0.247957 0.019532 0.384499 0.044839 -0.460616 -0.518365 0.336218 0.434315 0.166551 -0.506387 0.067537 -0.140116 -0.171025 -0.303690 0.591673 0.034936 0.037169 -0.308325 0.105599 0.085465 -0.014926 0.105747 0.471224 -0.040021 -0.326290 -0.218651 0.188689 0.358026 -0.068514 0.267327 -0.261850 -0.350055 -0.245992 -0.326565 0.371771 -0.131131 -0.366744 0.092528 -0.404163 0.187332 0.118460 0.512577 -0.408971 0.274851 0.379928 -0.469140 -0.282109 -0.085052 -0.279615 0.321341 0.498264 0.203310 -0.075061 0.467338 -0.338861 0.096499 -0.253462 0.347679 -0.047625 0.145173 0.166578 0.283809 0.362029 0.291332 0.283220 0.329212 -0.196723 0.464109 -0.467019 -0.047889 0.271350 0.136257 0.489940 0.239238 -0.122288 0.367719 0.267948 0.093454 -0.219483 0.486184 -0.087355 -0.223368 0.187344 0.335434 -0.258180 0.346334 -0.070216 0.039930 0.245585 0.391020 -0.306218 -0.128320 0.180965 -0.458096 -0.140179 -0.157346 0.279661 0.136036 -0.132659 0.232186 0.177086 -0.477098 -0.152034 0.164877 0.259990 0.223529 0.030446 0.025789 -0.185167 0.308814 0.009823 0.225329 -0.416704 -0.304982 0.058614 -0.119958 -0.407076 0.465932 0.313437 0.301496 0.402228 0.454809 -0.374759 -0.013762 0.578967 -0.100116 0.258932 0.075698 0.156931 -0.390608 -0.218650 -0.200218 -0.369856 0.127166 0.462509 0.387984 -0.151455 -0.009194 -0.088376 0.161229 -0.202530 0.419298 -0.115592 -0.148732 -0.298484 0.504979 0.222991 -0.248729 0.501576 0.122758 0.455201 0.227557 -0.036399 0.455140 -0.331784 -0.052033 -0.343864 -0.492322 -0.493704 0.246748 -0.385080 -0.214504 -0.455620 -0.257086 0.410512 -0.495260 -0.371251 -0.243092 -0.006604 0.038223 0.415987 0.256124 0.012128 -0.151620 -0.283798 0.063028 -0.303561 0.518703 0.345425 -0.439352 -0.266417 0.217055 0.443150 0.325840 0.022956 -0.344609 -0.236420 0.109222 -0.339080 -0.232273 -0.146180 -0.226310 0.051073 -0.103949 0.014455 -0.040565 -0.101359 0.141055 0.214194 0.389888 -0.358818 0.164597 0.190979 0.175387 0.405722 0.438002 -0.149850 -0.343807 0.179598 0.560096 -0.124295 -0.425773 -0.019087 -0.240997 0.389586 0.473211 -0.087756 -0.348983 0.080284 0.071015 -0.083406 0.431954 0.342555 0.465517 -0.174145 -0.145139 -0.077197 0.222347 0.493766 -0.353069 0.094821 -0.304912 0.321297 -0.208521 0.292332 0.069421 -0.365232 0.549217 0.332367 0.339462 0.390128 -0.346064 0.379528 -0.123981 -0.089211 0.266964 -0.152919 0.320883 0.415831 0.425215 -0.110252 -0.169725 0.355019 -0.269846 -0.206358 -0.321275 0.082866 0.194811 0.372762 0.035238 0.281855 -0.046560 0.130156 0.010778 0.249242 -0.001758 -0.292393 0.359403 0.022105 -0.376522 0.225922 -0.089916 -0.224736 0.103300 0.283953 0.183903 -0.131886 -0.371115 0.002637 -0.218204 -0.448050 0.390236 0.109922 0.404820 -0.381759 0.381930 -0.441411 0.164727 0.047719 0.406638 -0.324627 -0.106336 -0.068342 -0.537263 -0.477242 -0.226733 0.043940 -0.154197 -0.323644 -0.436105 -0.032869 0.400129 -0.028171 0.240246 0.001279 -0.246367 -0.078000 0.367244 -0.119632 0.422487 -0.353110 -0.069832 0.310574 0.254662 -0.167161 0.426665 0.153927 -0.087916 0.107634 -0.234662 -0.111898 0.392612 0.221592 0.368828 0.400679 0.281268 -0.363497 -0.057530 -0.375079 -0.189290 0.004215 0.089902 -0.291311 0.473894 -0.172001 0.207818 -0.274623 0.247849 0.072912 0.103595 0.168187 0.217653 -0.468386 -0.023389 -0.029835 -0.137697 -0.098874 -0.378057 0.272238 -0.477551 -0.114869 -0.341809 0.412911 -0.395426 -0.475131 0.311441 0.383692 -0.340778 -0.248239 -0.493537 -0.032218 0.253826 0.094215 0.174321 0.225571 0.420065 -0.120011 0.448799 0.165764 0.450752 0.050245 -0.168199 0.166255 0.079710 0.306262 -0.365730 0.439864 -0.294761 -0.245936 0.209952 -0.274462 0.137046 0.365993 -0.363700 0.239470 0.388712 0.445592 0.121012 -0.454216 -0.304797 0.125325 0.011417 0.446880 -0.282609 -0.316412 0.170302 -0.364694 0.061428 0.116951 0.298921 0.010030 -0.334953 -0.371428 -0.325865 0.242607 0.432685 -0.193744 0.180321 -0.364225 0.058170 -0.111876 -0.140836 -0.306934 -0.248033 -0.006686 0.430386 -0.361470 -0.063243 0.049249 -0.317836 0.129810 -0.327575 0.191432 0.074541 -0.112333 0.372870 -0.257307 0.020824 -0.067852 0.357495 -0.182405 0.440029 -0.479608 -0.055982 -0.387986 0.260850 -0.125447 -0.083879 -0.060979 0.008179 0.472142 0.324995 0.365193 -0.336942 -0.425187 -0.143642 -0.408705 -0.288807 0.290965 0.138395 -0.108793 -0.081374 0.308670 -0.419511 0.491017 -0.305813 0.451210 -0.268440 0.212861 -0.118791 -0.413094 -0.471693 -0.180912 -0.394852 -0.029825 -0.071047 0.363848 0.342579 0.342924 -0.199280 -0.151392 0.312916 -0.376434
-0.285945 0.476229 -0.301367 0.068264 -0.434626 -0.092324 -0.142921 0.201619 0.296733 0.273555 0.008140 0.375073 0.262422 0.200177 0.324134 0.491833 -0.089111 -0.296807 -0.423411 -0.062954 0.020131 -0.320412 0.405071 0.446935 -0.458714 0.245500 0.287709 -0.160143 -0.408041 0.098476 -0.038727 -0.198540 0.070152 0.155352 0.365170 0.130972 -0.441526 -0.282304 -0.171962 0.350654 0.486697 0.331624 0.221174 0.244566 0.027248 0.040754 0.231845 0.433584 0.239393 0.303881 -0.133923 -0.245029 0.478915 -0.233405 -0.302648 -0.484352 -0.492459 0.480508 -0.149049 -0.405054 0.074431 0.307670 -0.108147 -0.359971 -0.041531 -0.247530 0.266448 0.012389 -0.034387 -0.410068 -0.141510 -0.052244 0.417003 -0.424890 -0.312231 -0.060302 0.111310 0.415061 -0.131271 -0.153850 0.214388 0.230252 0.096567 0.188749 0.492293 0.289366 0.199843 0.495281 0.265321 -0.453759 -0.414326 -0.164802 0.349358 -0.027027 -0.029327 -0.196727 0.220890 -0.267432 0.311109 -0.318051 -0.182054 -0.334955 0.125152 -0.269604 -0.264398 0.308368 0.165541 0.342358 0.218875 -0.470284 -0.316045 -0.071291 0.255415 0.275969 -0.387095 0.243154 0.060781 0.308194 0.233881 -0.178452 0.349881 0.315002 0.152193 0.194685 -0.216578 -0.381687 0.493405 0.499758 -0.153673 0.299960 -0.322846 0.159720 0.460452 0.297753 0.385562 -0.308500 0.101567 0.046550 -0.470695 -0.184112 0.071712 -0.291294 0.240044 -0.177427 0.480121 0.348395 -0.438826 0.038779 0.154467 0.319614 0.382455 0.028584 0.132170 -0.089135 -0.414146 0.258479 0.114742 -0.323653 0.375023 0.456515 0.471754 -0.452377 0.111681 0.427652 0.340822 -0.007310 -0.385401 -0.062164 -0.465314 -0.360650 0.249170 0.101845 -0.156497 -0.015339 0.419865 -0.185549 -0.156742 0.505275 0.367010 0.478094 0.278577 0.136980 -0.013684 -0.338705 -0.355112 0.100541 -0.265905 0.306275 0.323532 -0.395436 0.258236 0.290733 -0.352367 -0.134636 0.213832 0.483902 0.353501 0.323878 -0.082816 0.383633 0.458675 -0.338199 -0.019075 -0.206995 0.156663 -0.089009 0.163941 0.466898 -0.117855 -0.024506 0.563741 -0.468412 -0.374956 -0.221388 -0.015991 -0.154910 -0.451283 0.209866 -0.353189 0.367696 0.309876 0.400494 0.153876 0.452956 -0.238695 -0.136846 0.432304 -0.389748 -0.317522 -0.155066 0.489331 -0.355374 0.042946 0.083316 0.086598 -0.337054 0.404875 -0.235907 -0.394811 -0.457908 -0.100291 -0.626428 -0.185000 0.148739 -0.069444 0.318265 0.480701 -0.025280 0.023578 -0.377041 -0.162138 -0.171100 -0.481101 0.487185 -0.222698 -0.224350 -0.154214 -0.294947 -0.118652 0.031737 0.081578 -0.020880 0.326234 -0.556002 0.426201 -0.324810 -0.536486 0.065478 -0.339359 -0.192859 0.406011 0.100185 -0.196644 -0.265507 -0.264205 0.229358 -0.451795 -0.288057 -0.300476 0.067229 -0.169652 0.032833 0.391576 -0.155306 0.015465 -0.335675 0.115791 0.400376 -0.024283 0.587256 -0.168755 0.320108 -0.067394 -0.491135 0.299351 -0.429383 -0.342457 -0.186602 0.431659 -0.287598 -0.112517 0.244432 0.308033 0.186285 0.474372 -0.460725 -0.088911 -0.481976 -0.253336 0.106060 0.080700 0.072459 -0.365660 -0.032277 0.412599 0.193550 0.243007 0.003900 -0.017657 0.451448 -0.116941 0.182261 0.428208 0.284984 0.423910 0.425872 -0.395550 0.490021 0.441723 0.381679 -0.302131 -0.175348 0.121558 0.501348 -0.493616 0.091377 -0.463930 -0.087080 0.104848 -0.221820 -0.485574 -0.319006 0.346085 -0.307488 0.198732 0.248306 0.451855 -0.245000 -0.417684 -0.057594 -0.196205 0.187933 -0.537903 -0.308125 0.199680 -0.471464 0.458694 0.166894 -0.485996 0.395864 0.044020 -0.292681 -0.284038 -0.338975 -0.295886 -0.282208 0.247849 -0.264370 0.126158 -0.151857 0.057556 0.184330 0.006112 -0.167683 0.433725 -0.397490 -0.567151 0.165885 -0.173441 -0.164261 0.326732 0.166713 -0.314738 0.466583 0.302626 0.278496 0.490565 0.256766 -0.059163 0.500015 0.148076 0.480304 -0.297219 0.359485 -0.363224 -0.097658 -0.427276 0.380071 0.181718 0.242627 -0.294811 -0.397451 -0.167945 -0.141603 0.020312 -0.556031 0.416086 0.081972 0.320535 -0.236992 0.337926 -0.026872 0.493472 -0.414309 -0.064843 0.291544 0.359634 -0.078832 0.043757 -0.204083 -0.083370 -0.312721 -0.228332 0.114858 -0.457789 -0.096110 -0.487354 -0.341321 -0.136825 0.216272 0.240675 -0.144960 0.416094 -0.379898 -0.185319 -0.501012 -0.160585 -0.166231 0.221864 0.266730 -0.042604 0.270790 -0.173744 -0.053685 0.351927 0.256859 -0.266694 0.207008 -0.326526 0.272509 0.498372 0.085551 0.455235 -0.234514 -0.304145 0.541191 0.248590 -0.396727 -0.547419 0.393926 0.445391 0.340642 -0.146092 -0.179102 -0.457309 0.210942 0.357065 -0.370531 0.298609 0.187710 -0.426451 -0.248549 -0.046053 -0.104749 0.193212 -0.198680 -0.352444 0.421964 0.503774 -0.183524 0.189920 0.497592 0.392854 0.184281 -0.185149 -0.487729 0.066488 0.319341 -0.165930 0.320954 0.296296 -0.635006 -0.058538 -0.318676 0.109801 0.079742 0.445181 0.088609 0.335363 0.239236 -0.228234 0.404358 0.486134 0.221159 -0.204945 0.174792 -0.482075 -0.061942 0.092203 -0.482854 0.249981 -0.178751 -0.444027 0.181658 0.436323 -0.235813 0.142653 0.076995 -0.227020 -0.573566 -0.562487 -0.486813 -0.438646 0.364875 -0.193792 0.357551 -0.020183 -0.253164 -0.058393 -0.189374 0.481519 0.208819 -0.289569 0.463099 -0.074576 0.000933 0.133337 -0.061204 0.434438 -0.279013 0.001797 0.230273 0.088687 0.052505 -0.114147 0.016166 0.361593 -0.430943 0.341515 0.380744 -0.495404 -0.311482 0.413677 -0.326884 -0.451160 -0.284669 -0.473886 0.024103 -0.042386 -0.036832 0.330176 -0.065421 -0.332567 -0.463947 -0.106876 0.088304 0.032432 -0.478092 -0.508651 0.029715 -0.177160 0.241154 -0.175166 0.461801 0.590726 -0.057509 -0.560746 0.147699 -0.035820 -0.441732 0.019836 0.029925 -0.257767 -0.071041 0.198488 -0.213481 0.139737 0.220049 0.306068 -0.407203 -0.321337 0.131690 0.022823 -0.158457 0.163190 0.411393 0.394096 -0.289832 0.456537 0.490937 0.198615 -0.206119 0.007211 0.332276 0.403308 -0.190437 -0.257039 -0.492475 0.454779 0.211599 -0.438761 -0.029939 -0.263029 -0.201082 0.394466 0.430905 0.080884 0.029650 0.146401 -0.117602 0.117893 0.320511 -0.490465 -0.363838 -0.342499 0.168171 -0.456998 -0.421759 0.354686 0.466678 -0.483025 -0.001036 -0.374821 -0.079463 -0.223684 -0.493601 0.241396 0.000401 -0.490630 0.191621 -0.292553 -0.433944 -0.342871 -0.060136 -0.139579 -0.452958 -0.133784 0.436751 0.072138 -0.491937 -0.185404 -0.314523 0.324020 -0.180422 -0.182914 0.476968 0.483195 -0.144466 -0.449345 0.333328 -0.181823 -0.436923 -0.172262 -0.061198 -0.020940 0.099501 -0.059353 -0.284098 -0.404652 -0.054536 0.402970 -0.201759 0.006966 -0.444455 0.233552 0.362834 -0.401966 -0.404786 0.295031 0.165618 -0.401277 -0.394926 0.346542 0.418190 -0.079902 -0.340926 0.390604 -0.101260 0.010055 0.436706 -0.272486 0.323678 0.495229 0.050699 -0.242073 -0.030264 -0.354354 0.194021 0.181085 -0.263559 -0.365068 0.079502 0.030129 0.137345 0.130493 -0.240873 -0.004375 0.223974 -0.150213 -0.213897 -0.114962 -0.056043 -0.113377 -0.272974 -0.142406 0.302168 -0.118454 -0.256355 -0.303646 0.387048 -0.324202 -0.080685 0.206173 -0.333526 0.465460 0.459547 0.131657 -0.393447 0.149014 -0.191812 -0.161560 0.279392 0.383136 0.364016 -0.087817 0.009076 -0.381411 0.403254 -0.271504 -0.036177 -0.315196 0.108981 0.403227 0.066873 0.331453 -0.243732 -0.135512 -0.291554 -0.004640 0.056289 -0.409059 0.166604 0.471050 0.292560 0.328524 0.431957 0.247553 -0.044372 -0.466044 -0.107986 0.259262 -0.132157 -0.333148 0.137845 -0.272694 0.074482 -0.357632 -0.158659 -0.026817 -0.133689 0.300611 0.153433 0.470739 0.199285 -0.284247 0.297638 0.450999 0.075687 0.501531 -0.058195 -0.372578 -0.412082 -0.396144 -0.406081
0.368195 0.420098 -0.486406 0.111195 -0.128828 -0.457003 -0.501345 -0.374119 -0.093714 -0.339046 0.259173 0.129039 0.230882 0.396988 0.465826 -0.300488 -0.241255 0.261884 0.348392 -0.275070 -0.043385 -0.440409 -0.481985 -0.096939 0.130725 -0.485008 0.340313 0.253594 -0.401644 0.439615 0.342960 0.469727 0.362888 0.359729 0.084098 -0.262764 0.405901 0.085928 -0.133708 -0.184637 0.250058 -0.371360 0.447577 -0.015884 -0.471197 0.416579 0.186803 -0.209276 0.181638 0.038370 0.018830 -0.358571 0.101137 0.040020 0.047666 -0.264963 0.058188 -0.108846 0.491807 0.159720 -0.166056 0.337942 0.132623 -0.299992 0.200846 -0.280104 -0.059581 0.109922 0.309000 0.309887 0.428461 0.062233 0.441703 0.379213 -0.450476 0.473681 0.298967 0.239503 -0.232419 -0.016219 -0.218952 0.289587 0.128385 0.385360 -0.167218 -0.320774 -0.376427 0.394146 0.073556 -0.381445 0.057042 0.410676 0.459673 -0.307160 -0.386141 0.163695 -0.084088 0.057454 -0.223208 -0.271913 -0.129484 -0.291571 0.293496 -0.184605 -0.409183 0.346195 -0.207748 0.392959 0.088873 0.063008 -0.120084 0.373097 -0.144230 -0.488523 0.261633 0.191728 -0.306122 0.388382 0.089050 0.270610 -0.489887 -0.350733 0.184461 0.472961 -0.154718 0.301495 0.139831 0.264369 -0.137875 0.419799 0.495632 0.235817 -0.368597 0.292303 -0.445613 -0.274604 0.141674 -0.150186 -0.378469 -0.266277 0.415998 0.004622 -0.390004 -0.225057 0.019274 0.374804 0.469847 0.216328 0.266362 0.062072 -0.009887 0.279650 0.214515 -0.322251 0.255787 -0.437027 0.482420 -0.101206 0.330518 -0.152279 -0.178232 0.329325 -0.413287 -0.043653 0.124804 -0.355724 0.184918 -0.230347 -0.002735 0.309624 0.006551 -0.083562 -0.182578 0.119722 0.194557 0.339871 -0.002298 0.167580 0.059374 -0.232761 -0.267172 -0.447707 -0.449332 0.451491 -0.266413 0.309027 -0.483334 -0.280817 -0.289004 0.350360 0.070079 0.035940 0.182860 0.159968 0.495463 -0.189161 0.307419 0.183557 0.083668 -0.192141 -0.003643 -0.406605 0.227473 0.316954 0.216293 -0.074794 0.159631 -0.280518 -0.400863 -0.274274 -0.009239 -0.164860 -0.218436 0.041798 -0.214342 0.015152 -0.146972 -0.194500 0.237510 0.067200 -0.340965 -0.189235 -0.393684 0.345071 0.473908 -0.395046 -0.340914 0.284502 0.291687 0.245929 -0.404463 -0.208781 0.342500 0.325816 -0.386448 0.065143 -0.241888 0.274525 0.282314 -0.144587 -0.497546 -0.223381 0.189817 -0.218184 0.317075 0.477678 0.300143 -0.326721 -0.213646 0.040829 0.243654 -0.051435 0.354769 0.353145 -0.203189 0.331853 0.461275 -0.040927 0.119531 0.256138 -0.291823 0.217873 -0.446292 -0.442602 0.047604 -0.334943 0.118996 0.305347 0.445330 -0.091970 -0.336801 0.446184 0.180734 0.354246 -0.268824 0.000985 0.335100 -0.465506 0.177439 -0.375371 0.078499 -0.075731 0.076369 -0.063556 -0.219410 0.376356 -0.228528 -0.254959 -0.161766 0.395518 -0.492101 0.051793 0.115597 -0.441938 0.106985 -0.333623 -0.271997 -0.267298 0.475872 -0.327772 0.136817 -0.359699 -0.378412 -0.179273 -0.502278 -0.144061 0.324887 0.335998 -0.106391 0.005502 0.463802 0.475283 0.432946 0.043347 -0.085098 -0.283288 -0.077491 0.189180 -0.032500 0.266495 0.087507 -0.027913 -0.182209 -0.294323 0.036267 0.431497 -0.123798 0.263165 -0.339717 -0.146697 0.438568 0.300275 -0.003220 -0.436669 -0.375822 -0.002322 -0.077555 0.452241 -0.163149 0.319229 -0.039082 -0.196171 0.297688 -0.102960 0.349982 -0.284604 0.118266 -0.221391 0.409958 -0.413503 -0.454294 0.000037 0.064208 -0.132112 0.207423 -0.402467 -0.203667 -0.414173 0.363873 -0.040208 -0.057694 0.305616 -0.236757 0.442262 0.372123 -0.109404 -0.056885 -0.202256 -0.153988 0.283142 -0.379852 0.310106 -0.410224 0.420642 -0.290049 0.446246 -0.356502 0.333969 -0.273199 -0.445205 0.420095 -0.228356 0.053366 -0.017533 0.139053 -0.236036 0.083176 0.438561 -0.147033 -0.049775 -0.098472 0.298449 -0.240983 0.167946 0.243886 -0.365685 -0.438282 -0.309824 -0.064766 -0.089095 0.476124 0.058188 -0.273611 -0.426640 -0.014573 -0.060608 -0.481627 0.127213 -0.227379 -0.255438 0.181642 -0.306914 0.016941 -0.262790 0.178729 -0.340830 0.004350 -0.234920 -0.399094 0.360492 0.218480 0.005610 0.162117 0.480673 -0.323268 -0.090822 -0.381837 -0.258375 0.102160 0.057912 0.159251 0.084881 -0.381693 0.383067 0.155190 0.104228 -0.174735 0.177232 -0.264887 0.099355 0.421300 0.417122 0.294644 -0.058583 -0.342493 -0.023452 0.103762 0.165033 0.244804 0.207844 0.028701 -0.033541 -0.283371 -0.306007 -0.049692 -0.103464 0.105977 0.072986 0.144882 -0.286975 -0.368605 -0.199782 0.297427 -0.247123 -0.313909 -0.042005 0.363826 0.014535 -0.366003 -0.403267 -0.384880 -0.441527 -0.482970 0.412939 0.003065 -0.322287 -0.107338 -0.389997 0.345921 -0.359358 0.321022 -0.122202 0.110277 -0.459173 0.074966 -0.434901 -0.055916 -0.313675 0.138582 -0.414949 -0.100284 0.273152 -0.111926 -0.297478 -0.468113 0.079053 0.159287 0.392661 -0.405182 0.296459 0.492570 -0.286887 0.358107 -0.487225 -0.370772 -0.135652 -0.306336 0.025066 -0.022473 -0.457239 0.168883 -0.198276 -0.076266 -0.216326 -0.151098 -0.496288 -0.148894 0.289441 -0.310461 0.490658 0.378161 0.095977 0.270037 -0.230713 0.295926 0.299736 0.350543 -0.041612 0.195572 0.448536 -0.241977 0.191318 -0.335175 -0.380694 0.207269 -0.202772 -0.013171 0.404108 0.325470 0.467532 0.450044 -0.002472 -0.226229 -0.119871 0.284505 0.122801 -0.116530 -0.363050 -0.082874 0.077400 -0.369340 -0.205207 -0.329675 0.400218 0.067256 0.469427 0.203129 -0.079025 -0.069010 -0.098123 -0.127313 0.192188 -0.403630 0.040687 0.314669 0.306814 0.341091 -0.195326 0.214098 0.169736 -0.222910 0.168657 -0.327248 0.053300 -0.450242 0.459335 -0.321820 -0.067375 -0.404687 0.092624 -0.489480 -0.271824 0.390593 -0.315979 -0.368431 -0.038975 -0.343377 0.337873 0.385175 0.090788 -0.257074 -0.238963 -0.213848 -0.157528 0.304900 -0.396004 -0.347538 0.149167 -0.088154 0.369735 -0.177922 0.190403 0.040228 -0.004306 -0.255433 0.090850 -0.044477 -0.076760 -0.473349 0.054012 -0.480961 -0.459654 0.285363 0.412808 -0.272458 0.420108 -0.122992 -0.112660 0.261157 -0.234642 0.481304 -0.492742 0.029571 -0.229369 -0.147094 -0.162354 -0.122197 0.008543 0.489988 0.292824 -0.118546 -0.184758 -0.013597 0.424857 0.314112 0.234145 0.018882 -0.227190 -0.339440 0.048709 0.329998 -0.317225 0.092230 0.118537 -0.401241 0.322947 0.041820 -0.021058 -0.286537 -0.193848 0.247476 -0.302058 -0.183414 -0.219778 -0.028251 0.172668 0.121044 0.352727 -0.315614 0.114208 0.148727 0.069016 0.432625 -0.361695 -0.002952 0.249912 0.375625 -0.480894 -0.474102 -0.460639 0.070990 0.359072 -0.274689 -0.333604 -0.019216 -0.172754 0.492519 -0.474220 0.309363 -0.290843 -0.164893 0.060015 -0.089725 0.154869 0.343413 0.385199 -0.169288 -0.032368 0.241102 0.018274 -0.414985 -0.106996 -0.409535 -0.479184 0.034485 0.090689 0.273904 -0.086714 0.112971 0.302977 -0.044178 -0.312863 0.165224 0.184309 -0.143291 -0.350816 -0.485270 -0.147597 -0.321861 0.327269 0.064735 0.016422 -0.109541 0.478185 -0.325533 -0.262953 0.366560 0.008355 0.207855 0.110837 -0.470195 0.296045 -0.492983 -0.376554 0.320037 0.044677 0.217310 0.097116 0.461139 -0.166543 -0.096731 -0.079864 0.023770 -0.428331 -0.392379 0.383654 -0.275972 -0.374473 -0.260768 -0.094658 0.455971 0.307143 0.424940 -0.150394 0.288504 -0.397418 0.089829 0.158239 0.114113 -0.199141 -0.227748 0.147093 -0.399920 -0.217556 0.273714 0.423292 0.330297 -0.005800 0.023583 0.294611 0.330833 0.430027 -0.282077 -0.142222 -0.495129 -0.171281 -0.255392 -0.267925 -0.042578 -0.012984 0.140593 -0.083432 -0.202665 0.068708 0.269350 -0.410986 0.174466 -0.137646 0.250429 -0.208245 0.166389 -0.474144 0.442023 0.269644
-0.185349 0.222088 0.199287 -0.351876 -0.280536 -0.273954 0.445911 -0.446528 -0.340751 -0.332991 -0.085574 -0.332704 -0.001096 0.162210 -0.097454 0.459501 -0.347598 -0.453685 -0.120755 -0.047088 0.118199 -0.348229 0.045101 -0.204159 0.017300 -0.201295 0.090771 -0.313136 -0.172263 0.035970 0.459684 0.142388 -0.241942 0.158971 0.290512 -0.022478 0.385017 0.236423 0.030994 -0.455733 0.403432 0.445420 -0.288437 -0.097664 0.107630 0.114109 -0.138162 0.260032 0.160424 0.241083 -0.287056 -0.221377 0.392854 0.258045 0.074463 -0.089846 -0.443250 -0.334766 0.097018 -0.115513 0.201204 0.056702 -0.473125 0.459261 -0.284326 0.317387 -0.063217 -0.399309 0.053810 0.467777 -0.355042 -0.042758 0.413198 -0.143480 0.359579 0.020828 0.470629 -0.278584 -0.219140 0.131053 0.462499 -0.006197 0.409676 0.355353 -0.248152 -0.015861 -0.234493 -0.191402 0.149373 0.362525 0.193086 -0.149424 -0.080772 0.219961 -0.190162 0.134901 0.037348 0.246621 0.235593 -0.408842 0.214398 0.380550 0.048401 0.127596 -0.262929 -0.092021 -0.351576 -0.292300 0.129396 -0.070717 0.338753 0.091895 0.423087 0.248429 -0.052752 -0.325065 -0.267433 0.212755 -0.016467 0.381940 0.075280 -0.323381 -0.267484 0.494508 0.396580 0.042354 0.129409 -0.066072 -0.211025 -0.134998 0.025086 -0.496627 -0.254448 -0.426513 0.130969 -0.017377 -0.018534 0.279393 0.190323 -0.389138 -0.291324 0.029076 0.202757 -0.368237 -0.222495 -0.349995 -0.193303 0.010072 0.362760 0.290231 -0.107988 -0.061960 0.466849 0.124529 -0.067452 0.363429 -0.333117 -0.438042 -0.202644 -0.044142 -0.073040 0.322443 -0.040769 0.172512 0.395930 -0.409800 -0.344864 -0.122604 0.369593 0.345459 -0.011742 -0.421731 -0.125465 -0.308985 -0.289969 0.152040 -0.158980 0.016729 -0.337888 -0.296220 -0.193041 0.054125 0.141821 -0.226192 -0.321347 -0.425631 -0.362763 -0.154464 -0.363673 -0.065406 0.301394 0.063287 -0.242964 -0.239375 -0.264200 -0.347034 -0.149174 -0.109065 0.030362 -0.279581 -0.263606 -0.481380 -0.201312 0.110929 -0.290365 0.008719 -0.237031 0.050655 -0.474552 -0.074918 0.254436 -0.167593 0.479206 -0.103743 0.106215 -0.342140 -0.029374 0.243452 0.003396 0.106953 -0.321954 -0.195210 -0.329760 -0.064918 0.065415 -0.093960 0.088048 0.416241 0.296975 -0.381590 -0.363340 -0.466631 -0.362970 -0.064653 0.144299 -0.153335 0.444066 0.407268 0.397321 0.469514 -0.167650 0.151756 -0.198080 -0.188444 -0.451987 0.408136 -0.030584 0.018639 0.151588 0.472812 -0.374408 0.329634 -0.222399 -0.204168 -0.235284 0.343017 0.201872 0.352764 0.259258 -0.001152 0.471174 0.395917 0.032217 -0.391796 -0.168735 -0.323484 -0.045131 -0.224669 -0.416216 -0.147811 -0.255155 -0.083866 -0.496054 0.046765 0.227690 -0.448041 -0.045099 -0.302894 0.070598 -0.393511 -0.330082 0.196190 0.436122 -0.052481 0.492022 -0.299162 -0.209464 0.193894 -0.446399 -0.450206 -0.307258 -0.475225 0.445711 0.224959 -0.367021 -0.223024 0.401475 0.087847 0.052307 0.485259 0.440037 0.297151 -0.098607 0.443983 -0.156083 -0.370917 0.495941 0.298817 -0.173811 0.066539 0.405306 -0.003893 -0.237272 0.341428 0.443626 -0.245250 -0.457734 -0.265838 0.448645 -0.404133 -0.216044 -0.358613 -0.379358 -0.270333 0.366346 -0.246379 0.006643 0.267820 0.341468 -0.441050 0.253079 0.281505 0.356102 -0.345528 0.225487 -0.299982 -0.216445 0.221429 0.498836 0.109744 -0.212033 0.404141 -0.394149 0.050696 0.245569 -0.450523 0.305446 0.287835 -0.216361 0.254091 0.383702 0.067595 0.395478 -0.495656 0.297263 0.261823 -0.242035 -0.196094 0.029643 -0.400567 -0.137144 -0.217278 0.380938 -0.281042 -0.062806 0.106425 -0.081024 0.220749 -0.172146 -0.082188 -0.169508 0.115821 -0.178047 -0.063657 -0.333483 -0.432478 -0.014180 0.471963 0.355357 0.269460 0.226054 0.239059 -0.162945 0.121532 0.243403 -0.365682 -0.116645 -0.498633 -0.061776 0.412999 -0.399200 0.301080 -0.304279 0.481738 -0.479962 0.132915 0.088163 -0.060986 -0.146336 0.416016 0.356826 0.184156 0.031837 -0.321222 -0.379501 0.198354 -0.253700 0.106320 0.170317 -0.398343 -0.124220 -0.103628 0.340716 0.212835 -0.482097 0.084119 0.347153 -0.098741 0.085486 -0.214623 -0.185743 0.186287 -0.413543 0.009978 0.168024 -0.393505 -0.357107 -0.243813 0.045509 -0.003443 -0.327797 -0.097666 -0.319287 0.204040 0.081113 -0.198787 -0.097606 0.327413 0.407532 -0.427288 0.429071 -0.216688 -0.030917 0.269787 0.496147 -0.013013 -0.146094 0.343299 0.388245 0.439393 -0.371324 -0.297497 0.125679 -0.284867 0.212481 -0.206297 -0.178372 0.355375 0.049890 0.367136 -0.148068 0.222093 -0.230529 0.032645 -0.073867 0.350584 0.333858 0.328527 0.177997 0.241390 0.401239 0.107068 -0.475298 -0.129678 -0.123145 -0.479152 0.357308 0.230761 0.364148 0.245553 0.170154 0.492824 0.448056 -0.204167 -0.292043 0.160537 0.089536 0.029584 0.015912 -0.360574 -0.103279 0.367843 0.361519 0.166192 -0.099512 -0.212348 0.016775 -0.265654 -0.383821 -0.305227 0.475736 -0.482583 0.301841 -0.499563 -0.112261 -0.321304 -0.478714 -0.254953 0.409457 0.385433 0.490601 0.079610 0.378257 0.438657 0.375443 -0.413786 0.099194 -0.035021 0.115798 -0.384895 0.104405 -0.487481 0.482949 -0.034076 0.178710 -0.116563 0.253576 -0.304514 0.117782 0.369754 -0.109742 0.093518 0.387172 -0.307901 0.093955 -0.225089 -0.129206 0.115241 0.019958 -0.219749 0.000675 0.010559 0.359862 -0.121068 -0.050784 0.235305 -0.034855 -0.451590 -0.299716 -0.419057 -0.336485 0.304689 -0.406538 -0.353536 -0.229387 0.272172 0.029901 -0.475811 0.467658 -0.352317 0.393943 -0.142084 0.241201 0.281115 0.050015 -0.164843 -0.443974 0.420809 0.450398 0.075984 -0.298940 -0.048928 -0.413456 -0.439078 0.330004 0.035760 0.296226 -0.204851 0.084170 0.496510 -0.123907 0.247685 0.301199 -0.030445 0.394149 -0.428188 -0.258273 -0.075950 -0.403999 -0.290616 0.071733 0.489944 0.067300 -0.187065 0.271059 -0.382685 0.148091 0.327084 -0.461876 0.098489 -0.096931 -0.260816 -0.450438 -0.010388 -0.199895 0.379566 -0.474628 -0.403668 -0.325285 0.109542 -0.407158 0.050808 -0.142773 0.394041 -0.479638 -0.248624 0.465854 -0.237911 0.175426 -0.438145 -0.028527 -0.252841 -0.448201 -0.461227 0.060094 0.322857 -0.343912 -0.291815 0.149942 -0.305789 0.306674 -0.446989 -0.066605 0.356236 0.042623 0.233500 0.235802 0.067995 0.329831 0.410517 -0.322464 0.422673 -0.038675 0.034763 0.316715 -0.018313 0.286138 0.282568 0.243776 -0.038436 0.344423 -0.284751 0.208723 0.396222 -0.245978 -0.231183 0.219079 -0.089890 -0.022998 -0.130979 0.104321 -0.216324 -0.077968 -0.462285 -0.360088 0.464654 0.271215 0.375714 0.032649 0.101047 0.286231 0.210185 0.023720 -0.252445 -0.255052 -0.159565 0.229242 -0.468914 -0.376997 -0.026982 -0.007349 0.467426 0.188267 -0.298626 0.363648 0.442289 -0.029809 0.082727 -0.147601 0.447193 0.451748 0.456720 -0.269131 -0.126220 0.494435 -0.129219 -0.161565 0.265650 -0.253505 0.371084 -0.133303 -0.467274 0.081269 0.390417 -0.219719 0.326217 -0.269149 -0.490477 0.357303 -0.146146 -0.017459 -0.150046 -0.178720 -0.329191 0.051328 -0.315072 -0.386902 -0.478482 0.267656 -0.034503 0.468711 0.219404 -0.077783 -0.300420 -0.406816 -0.083348 0.070361 -0.068381 -0.317698 0.316856 -0.197298 0.048999 0.349581 0.383971 -0.060584 -0.370138 0.210188 0.170267 -0.360615 0.067492 -0.475879 0.121926 0.417446 -0.154599 0.292735 -0.031227 0.030330 0.405833 -0.009709 -0.202015 -0.128670 -0.040998 -0.482610 0.293547 0.158581 -0.389426 -0.289801 -0.271058 0.042193 -0.107499 -0.454202 0.344895 0.441500 0.395379 0.228867 -0.119085 -0.474760 -0.060945 -0.448818 -0.335375 -0.493453 -0.424697 0.286552 0.423992 -0.079296 0.079287 -0.107235 0.451034 -0.014880 0.383056 -0.250980 0.356450 -0.157942 -0.233591
0.149997 -0.499360 -0.123017 0.360195 -0.270418 0.419176 -0.247304 -0.224621 0.264071 -0.305805 -0.329242 -0.007062 0.075111 -0.304002 0.431993 0.126293 -0.139376 0.438540 0.201596 -0.352824 0.362532 -0.377700 0.226462 -0.244703 -0.426666 -0.288418 -0.361647 -0.177646 -0.431968 -0.019588 0.088763 0.218029 -0.018948 0.465746 0.078224 0.210634 0.384923 0.330920 0.486013 0.148994 -0.474885 -0.343229 -0.358068 0.100226 -0.147230 -0.426075 -0.273482 0.213394 -0.487535 0.428114 0.360569 0.374997 -0.449586 0.087032 -0.369706 -0.376252 0.298614 -0.231353 -0.053898 0.366646 0.249059 -0.465135 0.084674 -0.269889 -0.499388 -0.337102 0.440744 0.385534 0.493818 0.426757 0.034528 -0.481067 -0.416471 0.176460 0.119159 -0.063702 0.250386 0.345678 -0.350308 0.262850 0.273792 -0.489739 0.137847 0.324206 0.097293 0.268141 0.447954 -0.104094 -0.463212 -0.105944 -0.237448 0.285846 -0.071079 0.347227 -0.484043 -0.070467 -0.489875 0.456701 -0.184933 -0.496057 0.383459 0.349595 -0.477123 0.466987 0.026056 0.142036 -0.096715 -0.223559 -0.012286 0.052977 -0.460708 -0.238494 0.063238 0.177139 -0.414289 -0.339469 -0.054721 -0.466335 0.056437 -0.017933 -0.072279 0.318990 -0.232087 0.356642 0.166216 -0.216130 -0.213826 0.176341 -0.259428 0.101241 0.180285 -0.375970 -0.049164 0.203162 -0.408982 0.476892 -0.154802 -0.005697 -0.246667 0.332912 -0.452720 -0.207376 -0.405583 0.110518 0.469763 -0.319872 0.271049 -0.084958 -0.286207 -0.172514 0.397109 0.141514 -0.353524 -0.334978 -0.001844 0.312692 -0.051108 0.284330 -0.010966 0.189464 -0.114429 -0.330681 0.313494 0.336407 0.372480 0.404511 0.313299 -0.282322 -0.101186 -0.433369 -0.449410 -0.053905 -0.140744 -0.354993 -0.443387 -0.170982 -0.174865 0.327662 0.244060 0.038928 -0.344851 0.141169 -0.319558 -0.198375 0.306191 0.178598 -0.385683 -0.244917 -0.037073 0.103351 0.444547 0.348498 0.272669 0.258041 0.184905 0.145150 0.162552 -0.001796 0.362828 -0.438634 0.064835 0.413417 0.007461 0.424090 -0.441576 0.064074 -0.246891 -0.116441 -0.108264 0.497169 0.422487 0.046885 0.138338 -0.397071 0.348509 -0.055471 0.281526 0.462826 0.199612 -0.255546 0.066177 0.144159 -0.407048 -0.161154 -0.097800 0.277857 0.483996 -0.435248 -0.223939 0.346824 -0.373882 0.340896 0.260241 0.133579 0.264986 0.318665 -0.302347 -0.481905 -0.297776 0.089389 -0.484736 -0.375290 -0.363726 0.153603 -0.272361 0.484783 -0.401868 -0.490835 0.447609 0.297744 -0.246381 0.013786 -0.058096 -0.153429 0.352632 0.344103 -0.375572 0.336628 0.408855 -0.099512 0.183452 -0.465028 -0.258616 -0.056307 0.168551 -0.493630 -0.237642 0.366204 -0.475535 -0.035418 -0.044407 -0.460271 0.089292 0.091867 0.193332 0.316931 0.076649 0.291464 0.326096 0.024258 0.089208 -0.420285 -0.461956 -0.468888 -0.073714 0.390676 0.375215 0.050713 0.227305 0.284069 0.451202 -0.089243 0.319042 -0.307415 0.354450 -0.012407 -0.301045 -0.383192 -0.146203 -0.276580 0.081390 0.309390 -0.236851 -0.329318 -0.098743 0.456480 0.487613 0.477906 0.247944 0.313709 0.002165 -0.162848 0.393424 0.040209 -0.131736 -0.180290 -0.069115 -0.256522 0.370423 -0.341810 -0.472453 0.321625 0.068947 0.346589 -0.485790 -0.076603 -0.165818 -0.286835 0.040205 0.187979 -0.063415 -0.378405 -0.002630 0.199734 -0.207722 0.398626 0.156215 -0.220109 0.376533 -0.095841 -0.406400 -0.121303 0.241311 0.487024 0.418906 -0.390426 -0.193266 -0.150209 -0.146948 -0.322843 0.007981 -0.119401 0.498782 -0.423072 -0.272812 -0.487008 0.000325 0.061370 -0.273843 -0.459470 -0.250650 0.162742 -0.337874 0.246719 -0.137524 -0.045597 0.145346 -0.481309 0.234294 0.021878 -0.077151 0.327894 0.400576 -0.335840 0.314918 0.319482 -0.226266 -0.378348 -0.330727 0.126786 -0.201190 0.177254 -0.492614 -0.202409 0.254182 -0.265426 -0.189417 -0.245493 0.295944 0.036740 -0.204963 -0.454706 -0.300518 -0.042837 0.292013 0.061958 0.411566 -0.062642 0.080649 0.145860 0.459237 -0.496502 -0.026246 0.359813 -0.332342 -0.211328 0.179295 -0.058608 -0.089675 0.348568 -0.431822 0.209134 0.025822 -0.424437 -0.493274 -0.219996 -0.189863 -0.182691 0.034511 -0.393919 0.354048 0.329548 -0.348625 -0.446470 -0.213289 0.443388 0.115488 -0.301723 -0.119253 -0.303863 0.344137 -0.160017 -0.300365 -0.182108 -0.300204 -0.132708 0.106564 0.379091 0.308684 -0.483111 0.227658 0.376862 0.226023 -0.246520 0.452425 0.232749 0.033485 -0.237438 -0.449943 -0.432004 -0.131357 0.404106 0.397544 0.020019 0.457636 -0.315744 -0.036593 0.073124 -0.117467 0.344153 0.269261 -0.273330 -0.315863 0.468896 0.044562 -0.116067 -0.163811 -0.348874 -0.236977 -0.355127 -0.331986 0.490682 -0.478266 0.394037 -0.255838 0.474159 0.126786 0.277647 -0.263279 0.176843 0.345643 0.105364 0.080949 0.243187 -0.374617 0.038585 0.427443 0.088789 -0.388291 -0.190025 -0.067057 0.380971 0.036646 0.117079 0.349867 -0.418793 -0.498988 -0.313944 -0.267667 -0.235965 -0.169072 -0.099653 -0.245283 -0.147338 -0.205615 -0.001121 -0.173179 0.421170 -0.223475 0.063542 0.098013 -0.377832 -0.331094 -0.321038 0.365355 -0.205711 0.217547 0.292798 0.383078 0.329256 -0.397227 -0.183979 0.210227 0.139419 0.433100 0.060094 0.220626 0.434112 0.246149 0.452959 -0.301853 -0.422923 -0.146693 -0.047136 -0.070260 0.147691 0.451742 0.256561 0.068862 -0.271732 -0.179897 -0.333125 -0.149564 -0.010990 -0.154163 -0.284209 0.283299 -0.436616 -0.491411 0.166377 0.392640 -0.388638 0.482398 0.102867 0.250781 0.415499 -0.337039 -0.028592 0.349611 0.409110 -0.075633 -0.452242 0.486187 0.277674 0.000622 -0.084073 -0.074635 -0.047636 -0.327512 0.494227 0.180632 -0.007409 -0.338898 -0.468932 0.481601 0.006939 -0.253141 0.264900 0.070323 -0.244552 -0.068723 -0.037036 -0.133190 -0.086324 -0.434169 -0.382408 -0.170826 -0.271209 0.088999 -0.321215 -0.362099 -0.486634 -0.273456 -0.375912 0.291040 0.227166 0.040015 -0.283595 -0.320470 0.212503 -0.289368 0.360162 -0.294906 -0.128266 0.391230 -0.313305 0.378673 -0.361911 0.451595 -0.051004 -0.106463 -0.117128 0.411960 0.260347 0.296548 0.477790 0.377939 -0.374278 -0.293418 -0.033062 -0.195492 -0.155517 -0.019696 0.031051 -0.031429 -0.228656 -0.241783 -0.491414 -0.012251 -0.062253 0.221089 0.198381 -0.202091 0.426183 -0.429885 -0.310861 -0.387122 0.448787 -0.172772 -0.435527 -0.102217 0.220765 -0.052655 -0.190257 -0.018888 -0.256107 -0.212467 -0.140949 -0.130385 -0.005885 0.325988 0.174123 0.338598 -0.193708 -0.294826 -0.192831 0.077637 -0.036609 -0.184245 -0.434614 0.401139 -0.463156 0.263767 -0.300952 0.463027 0.333882 -0.111813 -0.424095 0.282669 0.215415 -0.359623 -0.319548 -0.063820 0.087722 -0.009805 0.417292 0.331615 0.277728 -0.223658 -0.298770 -0.228157 -0.397669 0.375353 -0.389559 -0.091377 -0.419472 -0.082390 0.486260 0.043919 0.233366 -0.448354 -0.054942 0.270210 0.315413 0.144105 0.233237 0.149295 -0.467708 0.309142 -0.068036 0.247707 0.449519 0.112415 -0.316113 0.037241 -0.397390 -0.398821 -0.131143 0.380338 -0.122478 0.070087 -0.347820 -0.020147 -0.054560 -0.237379 0.388476 0.025967 0.180231 0.374736 -0.430113 -0.086403 0.426382 0.014944 -0.316194 0.241795 -0.340950 0.417043 -0.108910 -0.308658 0.226185 0.323053 0.439050 0.175704 -0.064531 -0.377063 -0.287054 0.038079 -0.275884 0.081802 -0.081584 0.101638 -0.348111 0.070597 -0.418509 0.097329 0.333218 0.469967 -0.376704 0.013449 0.344703 -0.306817 0.427046 0.271085 0.208127 -0.389148 0.012880 0.367177 -0.472105 0.403970 -0.441481 0.254080 0.227023 0.497568 -0.070216 -0.337508 -0.379495 0.142730 0.200571 -0.155378 -0.275468 -0.381013 0.446260 -0.123579 0.189584 -0.472249 0.473750 0.022802 0.497718 -0.402954 -0.463750 0.342421 -0.209771 0.463296 0.113506
