-0.081759 0.110741 0.084241 -0.422759 -0.277259 0.432741 -0.259759 -0.318259 0.170741 -0.140759 -0.135259 0.258741 -0.467259 0.395741 0.283741 -0.084259 0.012741 -0.202759 0.257741 0.250241 -0.361259 0.107741 0.337741 0.277741 -0.345259 -0.283759 0.274741 -0.254759 -0.151259 -0.441259 0.254741 0.084741 -0.012759 -0.343759 0.201741 0.249741 -0.372259 0.259741 0.249241 0.337741 0.437312 -0.346688 0.136312 -0.491188 0.366241 -0.263259 -0.258259 -0.303259 -0.148259 0.317741 -0.514259 0.029741 -0.035759 0.141241 -0.153759 0.158241 0.175741 -0.339759 0.443241 -0.436759 -0.463259 0.015241 -0.034259 0.063241 -0.009933 -0.514363 -0.368863 0.157637 0.284749 0.420249 -0.186751 0.260249 -0.388122 0.266749 0.086178 0.295241 0.320241 0.366741 -0.469259 -0.289259 0.223241 -0.444259 0.058241 -0.495259 0.014741 0.222741 0.202741 -0.270759 0.200741 -0.036759 -0.389680 0.277073 0.297628 0.117555 -0.340945 -0.173334 0.141319 -0.170937 0.301885 -0.034629 -0.211652 -0.346839 -0.458765 -0.285506 0.455741 0.164241 -0.452259 0.314741 -0.151259 0.396741 0.343241 0.389741 0.270241 -0.059759 0.212741 -0.175759 -0.298259 -0.045675 0.094543 0.444003 0.239591 0.026540 0.041779 -0.144423 -0.317140 0.240706 0.221272 0.361244 0.382631 0.056129 -0.362108 -0.518405 0.242474 -0.507192 -0.266759 0.014741 -0.025759 -0.400759 -0.353259 0.362241 0.313741 -0.471259 0.069741 0.123241 -0.213259 -0.178636 -0.511308 -0.189183 0.100241 -0.095384 -0.424521 -0.343795 0.469807 -0.066796 0.047618 0.462989 -0.298537 -0.207670 0.127394 -0.390344 0.156170 0.297795 0.406241 -0.285759 0.328741 -0.321759 0.046741 -0.157759 -0.404759 0.232741 -0.478259 0.448741 0.079241 -0.090186 0.114166 0.190882 0.061094 -0.070560 -0.453525 -0.302212 0.147536 0.431266 -0.337375 -0.076118 -0.112284 0.228101 -0.100846 -0.115817 0.321710 -0.443611 -0.193259 -0.206259 0.171241 -0.248259 0.047241 -0.182759 -0.030259 -0.366759 -0.022759 -0.117259 0.183741 -0.182358 -0.346245 -0.185453 0.282349 0.091455 -0.458830 -0.130722 -0.451580 0.393300 -0.128324 -0.002308 0.124372 0.048758 0.428377 -0.480930 -0.429760 -0.366611 -0.063759 0.207741 -0.493259 0.282741 -0.459759 0.217241 -0.426759 0.127241 0.352241 -0.139259 0.078241 -0.131116 0.066319 -0.186727 0.239830 0.263584 0.156022 -0.180343 -0.122080 -0.000067 0.217329 -0.269079 -0.306003 0.385480 0.239177 0.321740 -0.276760 -0.028098 0.374741 -0.390759 -0.077759 -0.371759 0.356241 -0.031759 0.450241 0.436241 -0.497259 0.341741 -0.119259 0.394453 -0.474535 -0.489058 -0.184026 -0.087589 -0.150270 0.354377 -0.300410 0.311198 -0.292841 -0.112348 -0.161635 0.226020 0.134644 0.039891 -0.100746 -0.323098 -0.325165 0.159741 -0.034759 -0.411759 0.086741 0.426741 -0.244259 -0.017759 -0.287759 -0.476259 -0.264259 -0.467190 0.188117 -0.054071 0.258829 0.032630 -0.239784 0.375223 0.469099 0.138864 0.260655 -0.298326 -0.242952 -0.505723 0.107620 -0.114331 0.009223 -0.458165 0.238241 0.446241 -0.242759 0.452241 -0.076759 0.262241 -0.420759 -0.450759 0.006241 -0.347259 0.070741 0.036810 -0.499616 0.136238 -0.099232 0.228572 -0.390501 -0.318047 -0.211984 -0.103629 -0.412059 -0.208367 0.346445 0.378297 -0.212042 -0.384344 0.161710 0.195835 -0.187259 -0.292259 0.276741 -0.410259 -0.528759 -0.426759 -0.419259 -0.065759 0.153241 -0.522259 0.022741 -0.523190 -0.325151 0.422448 -0.156079 -0.504147 0.085801 0.269382 0.249932 -0.000480 -0.516638 0.350351 0.211084 -0.401067 -0.343900 0.067538 0.264679 -0.255772 -0.007259 -0.258259 -0.521259 0.344741 -0.232259 0.073741 0.252241 -0.221759 -0.035259 0.372241 0.251741 -0.343190 0.392885 -0.396346 0.464756 0.391768 -0.445160 -0.165675 0.410365 -0.051973 0.416615 -0.024420 -0.517299 0.422254 -0.164786 -0.021410 0.307224 -0.209272 0.353741 -0.112259 -0.146759 -0.114759 0.169241 -0.128759 -0.452259 -0.524259 0.262741 0.339241 -0.428259 -0.233759 0.032546 0.151612 -0.244112 -0.247683 0.287927 -0.256297 0.440648 0.367030 -0.108994 0.168525 -0.373319 -0.174939 0.428213 -0.386981 -0.467746 -0.215566 0.118728 0.377741 -0.107259 0.011241 -0.416759 0.285241 0.214741 0.070241 -0.525759 0.080241 0.085241 0.276241 -0.259651 -0.015512 -0.402163 0.100639 -0.329728 -0.126705 0.369027 0.258947 -0.072182 0.126913 -0.063226 0.337220 -0.195787 0.068616 0.449600 -0.248566 0.208322 -0.480259 -0.146759 -0.355259 0.215241 0.063741 -0.026259 0.337741 -0.111759 -0.494259 -0.053259 -0.319512 0.129164 0.361197 -0.491264 0.194448 -0.344686 0.405109 -0.186422 -0.371368 -0.407167 -0.500566 0.418311 0.039505 -0.082785 -0.135157 -0.332839 0.237688 0.459434 -0.347259 0.306241 -0.015259 -0.509759 -0.523259 0.168741 0.245241 0.079741 0.460741 -0.099759 0.286213 -0.488540 0.177375 -0.483933 -0.040905 -0.160083 0.326269 0.457121 0.025655 0.268630 -0.195710 0.185467 0.160664 -0.402116 0.115677 -0.288190 0.030625 0.284247 -0.307015 -0.415759 0.281741 -0.115259 0.208241 -0.194759 -0.306759 0.224241 0.292241 0.256241 -0.378030 0.079270 -0.292267 0.457638 -0.097509 0.186777 0.278433 0.391978 -0.437992 0.140475 0.381171 0.118811 -0.285882 -0.512059 -0.403801 0.383009 -0.401556 0.015566 0.409485 -0.054759 -0.162259 -0.359259 0.068741 -0.341759 -0.156259 -0.184259 -0.218759 0.076241 0.358404 0.399295 -0.115364 0.308504 -0.210930 -0.105330 0.071049 0.223221 -0.385326 -0.117583 -0.074180 -0.514780 0.329601 -0.389838 -0.103174 -0.449013 -0.392556 0.018566 0.249985 -0.477759 -0.427759 0.197741 0.006741 -0.272259 0.378241 0.393241 -0.296259 -0.460759 -0.473320 -0.189290 0.167872 0.436975 -0.255005 0.354575 0.269326 -0.157769 -0.440992 -0.127046 -0.404039 -0.518921 0.060299 0.045826 -0.520251 -0.101226 0.164353 -0.318759 -0.233759 0.088741 0.238741 0.333741 0.150241 0.128741 0.070241 -0.525759 0.395741 -0.234259 0.406955 0.422151 -0.143363 -0.511974 -0.225783 0.331957 0.227774 0.045620 -0.008295 -0.195615 0.415257 0.078313 -0.019589 0.308012 0.070031 0.329163 -0.132165 -0.141759 -0.233759 0.349741 0.078741 -0.149759 -0.022759 -0.365259 -0.498759 0.445241 0.081241 0.110741 0.458741 0.018686 0.203715 0.195008 -0.233190 0.372384 -0.013996 0.061699 0.225679 -0.262058 0.413515 -0.475681 -0.155514 0.342577 0.111289 0.335241 -0.046759 -0.505759 0.203241 0.139241 -0.329759 0.287241 0.027741 0.288241 0.455241 -0.455759 0.240741 -0.504759 0.307241 -0.137155 -0.070687 0.314394 0.208127 -0.327845 -0.180480 -0.501979 -0.433220 0.332551 0.086252 0.097498 -0.410948 0.011339 0.132126 -0.271759 -0.338259 -0.441759 -0.397259 0.154741 -0.408259 0.123741 -0.167259 -0.420259 -0.271759 0.399741 0.407241 -0.277759 0.261918 0.189178 -0.461350 0.113900 0.375713 0.009175 -0.258862 0.108188 0.205195 0.086705 0.130894 0.075303 -0.064010 -0.268729 -0.531840 -0.170759 0.277241 0.137241 0.096741 0.256741 0.013241 0.017241 -0.049759 -0.077259 0.458741 0.100741 0.041741 -0.274259 0.039918 -0.232753 -0.010792 -0.376898 0.276630 0.068910 0.053247 0.183240 0.385710 0.100006 -0.182309 0.115624 -0.289328 -0.527545 -0.503430 -0.043259 -0.480259 -0.497759 0.103741 0.114741 -0.042759 -0.481759 -0.089759 0.288741 0.074741 0.178741 -0.249759 -0.148759 -0.181759 0.110241 0.116241 0.175741 0.415741 0.421741 0.334241 0.225741 0.022241 -0.303759 -0.282259 -0.282259 0.329241 -0.152259 0.369241 -0.424259 -0.363259 0.182741 -0.149759 -0.304259 0.002741 -0.506759 0.128241 0.278241 -0.449259 -0.422259 0.105741 -0.056759 0.074241 0.395241 0.333741 0.431741 -0.177259 -0.010759 0.146741 -0.222259 -0.050259 -0.201759 0.321241 0.289741 0.033741 0.356741 -0.453259 -0.319759 -0.256759 0.233741 -0.426259 -0.080259 -0.265759 -0.036259 0.154741
0.345565 -0.155935 -0.329935 0.162565 -0.065935 -0.212935 -0.192935 0.195065 0.400565 0.520565 0.068065 0.149565 -0.117935 0.375065 -0.164935 -0.022435 -0.357935 -0.048935 -0.162435 0.471065 0.303065 0.512565 0.335565 0.522565 -0.205435 -0.112935 0.414565 0.253565 0.160565 -0.082935 -0.273935 -0.245935 0.009565 -0.133935 0.387065 0.413565 -0.098435 0.442565 0.078065 -0.449935 0.203070 0.386570 0.161570 -0.444930 0.239065 0.253565 -0.210935 0.351065 -0.325935 0.097065 0.070565 0.225565 -0.142435 -0.345935 0.218065 0.122065 0.011065 -0.119435 -0.154435 0.420065 0.046065 -0.179935 -0.355935 0.525565 0.126372 0.241877 0.370877 0.489877 0.230637 -0.226363 0.365137 -0.309863 -0.362438 0.004137 -0.268868 0.086565 -0.311935 -0.056935 -0.092435 -0.388935 0.288565 0.226565 0.306565 -0.384435 0.350565 -0.227435 -0.013435 -0.389935 0.123065 0.302065 0.443748 -0.484924 0.193122 0.170506 -0.596944 -0.128949 0.054937 0.209643 -0.251506 -0.505772 0.348981 -0.530338 -0.417363 0.270043 -0.219435 -0.364935 -0.100935 -0.282435 -0.173435 0.055065 -0.201435 0.364065 -0.248935 -0.425435 0.228065 0.350565 -0.403935 -0.277495 0.329036 0.074459 0.079539 0.306293 0.261394 -0.016547 -0.104587 0.044457 0.288435 -0.410583 -0.131608 -0.388471 0.486212 -0.241043 0.367528 0.457491 0.275565 0.405565 0.317065 0.423065 -0.407435 -0.386435 -0.273435 -0.138935 0.447565 -0.052435 -0.315935 0.228295 -0.263273 -0.385933 0.072438 -0.365566 0.318054 -0.206615 0.206175 -0.135823 0.039912 -0.307328 -0.593646 0.090481 -0.293407 -0.220916 -0.080704 0.498660 -0.273435 -0.451435 0.140565 0.472065 0.424065 -0.072435 0.143565 0.486565 0.011065 0.340065 -0.182935 -0.408274 -0.602535 -0.274306 0.041477 -0.646426 -0.234729 -0.339922 0.555947 -0.159811 -0.010092 -0.176063 -0.388643 0.459288 0.216980 -0.293723 -0.098816 0.304324 -0.050435 0.233565 0.235065 0.146565 0.252565 -0.376435 -0.133435 0.146065 0.021065 0.480065 -0.118935 0.216810 -0.267139 -0.421128 -0.056882 0.183209 0.501704 0.003840 -0.053476 0.212792 -0.247712 -0.315870 -0.101972 -0.574651 -0.460610 -0.378878 -0.428691 0.334824 -0.059935 -0.116935 0.113065 0.359565 -0.413935 -0.403935 -0.245935 0.087065 -0.309935 -0.130435 0.482065 0.052264 -0.169654 -0.196789 -0.106367 0.535874 0.115592 0.497850 0.216717 -0.413876 0.148799 -0.118967 -0.120447 -0.073756 -0.377642 0.259644 0.516309 -0.261844 0.283565 -0.437935 0.342065 0.472065 -0.306435 -0.296935 0.080065 -0.250435 -0.451935 0.304065 0.085565 0.529745 -0.813075 -0.296903 -0.140003 -0.281636 0.407218 0.070354 0.445414 -0.371540 -0.749858 0.291594 0.092109 0.062331 -0.212620 0.266117 -0.093359 0.161156 -0.247270 -0.308435 0.184065 0.326565 0.502565 -0.004435 0.268565 -0.334435 -0.052935 -0.181935 -0.336435 -0.296904 0.045582 -0.167066 -0.594501 0.668855 0.054993 -0.010447 0.734000 0.103507 -0.216506 -0.229162 0.032478 -0.430651 -0.299999 0.104530 0.380871 -0.224770 -0.059435 -0.325435 0.244565 0.205065 -0.163935 -0.101935 0.001065 -0.191935 0.142065 0.518065 -0.277935 0.297596 -0.661880 -0.397855 -0.673344 -0.307267 0.074551 0.059476 0.611788 -0.297462 -0.129224 0.110577 0.030136 0.087142 -0.353117 -0.108846 -0.345961 -0.415270 -0.405435 -0.268935 -0.307935 0.005065 -0.124435 0.406565 0.458565 -0.039435 -0.446935 -0.292435 0.017065 0.124596 -0.610325 -0.342879 -0.025784 -0.372883 -0.186189 0.071661 -0.135643 -0.452072 -0.266105 -0.412728 -0.694483 0.276321 0.047604 -0.201589 -0.009585 -0.270267 0.509565 0.261065 -0.410935 -0.426435 0.240565 -0.248935 -0.172935 0.365065 0.406565 -0.466435 -0.426435 0.167596 -0.365458 -0.496601 -0.264625 -0.412737 -0.026620 0.040497 -0.103712 0.266274 0.019911 0.229831 -0.368971 0.390321 0.015690 0.074104 0.047749 0.355233 -0.109935 -0.462935 0.302065 -0.351935 0.047065 0.361565 0.470565 -0.464435 0.361065 -0.453935 0.370565 0.237065 -0.476382 -0.324995 -0.403698 0.008882 -0.401820 -0.200572 -0.590373 -0.420744 -0.019860 0.173686 -0.643011 -0.223942 -0.120839 0.223866 -0.191127 0.576158 0.090733 0.367565 0.113065 0.435565 0.153065 -0.114935 0.332065 0.448565 -0.283935 0.272065 0.454565 -0.453435 0.397256 -0.081434 -0.599269 -0.332317 -0.590142 -0.148643 0.305493 -0.197199 -0.363256 0.260509 -0.374383 0.102907 -0.354998 -0.226151 -0.229890 0.024658 -0.219102 -0.087935 -0.030935 0.352565 -0.250935 -0.447935 0.036065 0.151065 -0.314435 -0.162435 0.069065 -0.070940 -0.215371 -0.080909 -0.406503 -0.037850 -0.321527 -0.211133 -0.428173 0.487884 -0.181018 0.079800 -0.446139 -0.007080 -0.228863 -0.128110 0.048091 0.136109 0.417158 -0.044435 0.384565 0.422065 0.338065 -0.397935 0.244065 0.335565 0.403065 -0.250435 -0.043935 -0.381394 0.129455 0.079913 -0.154605 -0.287360 0.371012 -0.261428 0.510281 0.266147 -0.433365 -0.156035 -0.097348 0.042981 0.024259 0.096146 -0.225551 0.016287 0.252496 0.001465 -0.315935 -0.067435 0.447065 -0.461435 -0.175935 0.033065 0.389565 -0.461935 -0.161935 0.224033 -0.472359 -0.203586 0.523698 0.050725 -0.196566 -0.228544 0.388403 0.113823 0.172194 0.159211 0.216414 0.206748 0.093491 0.149625 -0.226089 0.406589 0.297298 -0.144035 -0.276435 0.130565 0.145065 -0.343435 -0.467435 -0.159935 0.444065 -0.394935 0.343065 0.274869 0.257742 -0.714345 0.122098 0.628084 0.247866 0.053915 0.072142 0.291303 -0.400888 0.137075 0.072399 0.176955 -0.662540 0.032829 -0.114805 0.436089 0.292298 0.104465 0.123565 0.150565 0.248065 0.317565 0.529565 -0.136935 0.444065 0.310565 0.173065 0.120043 0.156186 -0.562294 -0.025263 0.069023 -0.046481 0.588330 -0.181467 -0.129854 0.483635 -0.024697 -0.080498 -0.304004 0.102018 0.417141 0.182336 0.398522 -0.308435 0.355065 0.411065 0.499565 -0.272435 0.004065 -0.101935 0.445565 -0.208935 -0.324435 -0.443435 0.479189 0.407353 -0.164878 -0.131710 -0.429623 0.211139 0.012975 -0.005687 0.397292 0.189528 0.753371 0.150874 0.046002 -0.215698 -0.204556 -0.167874 0.291730 -0.431435 -0.389935 0.292065 -0.269935 0.435065 -0.048935 0.478065 0.411065 0.425565 -0.154435 0.326565 0.465065 0.068302 0.462438 0.357508 0.554787 -0.505088 -0.178800 0.096586 0.733210 0.600914 -0.001956 -0.046892 -0.014731 0.521025 0.232376 0.160616 0.478065 -0.423435 0.328065 0.060065 -0.384435 0.408065 -0.399935 -0.405935 0.091565 0.021565 -0.457935 -0.027935 -0.083435 0.091489 -0.215613 0.026505 -0.053030 0.087821 0.124443 -0.335414 0.047068 0.659309 0.032065 0.533687 0.211057 0.204993 -0.100217 0.349116 -0.354935 0.506065 -0.261435 0.371565 0.331065 -0.463435 -0.098935 0.195065 0.193065 -0.028435 0.259565 -0.467435 0.468953 0.420311 -0.069565 -0.379297 0.015749 -0.704862 -0.411617 -0.346395 0.258552 -0.297611 -0.221279 0.442639 0.569590 0.216960 0.478582 -0.244935 -0.392935 -0.365435 -0.435935 0.501065 0.389065 -0.448435 0.342565 0.190065 0.337065 -0.286935 -0.145435 -0.000435 -0.061047 0.439826 0.008486 -0.164019 -0.131342 0.062953 -0.263409 0.463862 0.342833 0.304603 0.474178 -0.353699 0.182870 -0.149932 0.593938 -0.141935 0.353065 0.342065 0.083065 0.208565 0.225065 -0.104435 0.179565 0.084065 -0.304435 -0.008435 -0.256435 0.502565 -0.046935 -0.153435 -0.027935 0.356565 0.458065 0.223065 0.470565 -0.190435 -0.302935 -0.317935 -0.212435 0.190065 0.091065 0.516565 0.320065 0.463565 -0.272935 0.090565 -0.430435 0.328565 -0.319435 -0.098935 0.007065 0.376065 0.266565 0.435065 -0.070435 0.432565 -0.325435 -0.078435 0.183065 0.097565 0.016565 -0.375435 -0.297935 -0.277435 0.096065 -0.357435 -0.218935 0.263065 -0.426935 -0.182935 -0.076935 0.134065 -0.196935 0.491565 -0.154435 0.000565 0.052065 -0.114935 -0.422935
0.002393 0.055893 -0.146107 -0.373607 -0.429607 -0.463107 -0.195607 -0.527607 -0.318607 -0.025607 0.125893 0.249393 0.239893 -0.001107 -0.579107 -0.568107 -0.435107 0.312393 -0.317107 0.076393 -0.645107 -0.029607 0.247893 -0.262607 0.243393 0.209393 0.052893 -0.508107 -0.269107 0.186393 -0.460607 0.181893 -0.088107 -0.158107 -0.521607 0.152893 0.049393 -0.047107 0.073893 -0.599607 -0.622867 -0.350867 0.099633 0.287133 0.317393 0.189893 -0.612607 -0.669607 -0.049607 -0.259107 -0.144607 -0.245607 0.159893 -0.226607 -0.059607 0.072893 -0.347607 -0.558107 0.013893 -0.168107 0.298393 0.223393 -0.316607 -0.119607 -0.264461 -0.387722 -0.516722 0.234778 0.014720 0.227720 0.306220 0.060720 -0.453468 -0.147280 0.014980 0.309393 -0.290107 0.071393 0.088393 0.109393 0.260893 -0.386607 0.312393 0.090393 0.056893 -0.077607 -0.388107 0.157893 0.034393 0.295893 -0.339837 0.004323 0.193076 0.018858 -0.661568 -0.618034 0.083150 -0.506134 0.065784 -0.232391 -0.612930 0.033708 -0.512510 -0.627749 -0.452607 0.166393 -0.651107 -0.293607 -0.313607 0.107393 0.264393 -0.383107 -0.609107 0.246393 -0.622607 -0.103607 -0.161607 -0.339888 -0.268033 0.331974 -0.578005 0.080092 -0.194613 0.299415 -0.448411 -0.186412 0.121169 0.068523 -0.270759 -0.175744 -0.528323 -0.462398 0.284880 -0.384720 -0.427107 0.278893 -0.550107 -0.408107 -0.566607 -0.193607 0.148393 -0.632607 -0.127607 0.209393 0.283893 -0.079012 -0.433336 -0.407565 0.066538 -0.007544 -0.605337 0.158483 -0.485785 -0.151052 -0.121762 -0.519278 0.061847 -0.623547 0.141498 -0.609263 -0.176252 0.255178 -0.415107 -0.228107 0.315893 -0.172107 -0.501107 -0.564607 -0.131607 -0.397607 -0.309107 -0.313607 -0.360107 0.014389 -0.635842 -0.590792 -0.330520 -0.354187 -0.526597 0.159320 0.048579 -0.518582 -0.293659 0.168651 -0.294514 -0.054140 -0.019665 0.324556 -0.095505 -0.255917 -0.637107 0.169393 -0.556607 -0.603607 -0.610107 -0.571107 -0.327107 -0.441107 0.313893 0.211393 -0.168107 -0.545427 -0.626309 -0.018418 0.218255 -0.570512 -0.191148 0.250054 -0.336807 -0.125773 0.005264 0.087365 -0.267086 0.072767 -0.191045 -0.026751 -0.429316 -0.608417 -0.061107 -0.084607 -0.419607 -0.249607 -0.245107 -0.306107 -0.183107 -0.185107 -0.428107 0.159893 0.043893 -0.443131 -0.156128 0.387926 -0.251924 -0.106597 -0.034050 -0.476356 -0.318317 0.370558 0.165529 -0.256742 -0.138530 -0.214719 -0.584436 -0.085094 0.180184 -0.403814 -0.471107 0.189893 -0.567607 0.137893 -0.225107 -0.317107 -0.442107 0.199893 -0.174107 -0.176607 -0.537107 -0.152265 -0.544694 0.233616 0.135537 -0.030172 -0.009427 0.228560 0.240496 -0.424917 0.174039 0.349328 0.362777 -0.021555 -0.296922 -0.429100 0.087786 -0.510814 0.128299 -0.293107 -0.248107 0.326893 -0.433607 -0.145607 0.134393 -0.210107 -0.013607 0.140893 -0.340107 0.261360 -0.347398 -0.377506 -0.166077 -0.221456 0.230227 0.330890 0.137887 -0.142715 -0.017863 -0.194101 0.073136 -0.196415 -0.229712 0.015395 0.113939 -0.159701 0.227893 -0.359107 -0.002607 0.025393 0.017893 0.197893 0.021893 0.254393 -0.278107 -0.395607 -0.286107 0.157360 -0.565960 -0.130463 0.145400 -0.454244 -0.114930 0.351488 -0.275193 -0.248511 0.327042 0.292303 0.255402 -0.046266 -0.302929 -0.097032 0.091837 -0.158201 -0.661107 -0.134107 0.129893 0.015393 0.176893 -0.424607 -0.289107 -0.357107 -0.557107 0.181393 -0.654607 -0.386140 0.251133 -0.228246 -0.507512 0.372893 0.048577 0.026999 0.319232 0.342753 0.023470 -0.530382 -0.258099 -0.030274 0.333588 -0.446588 -0.523352 -0.585709 -0.122607 0.008393 -0.296107 -0.113607 -0.455607 -0.496607 -0.649607 0.169893 -0.251107 -0.268607 0.261893 -0.137640 -0.627514 0.319316 -0.026608 0.320146 -0.490280 0.090900 0.093101 0.194953 -0.239249 -0.163466 -0.049285 0.148589 -0.155718 0.223946 -0.329798 -0.213209 -0.580607 -0.411107 -0.351107 -0.254607 0.267893 0.022893 0.080893 0.260893 -0.025107 0.101393 -0.121107 0.172393 0.293258 -0.156728 -0.464865 0.148895 -0.186870 0.123502 0.075021 -0.054715 -0.135252 -0.403561 -0.458362 -0.029573 -0.039664 0.013257 -0.327109 -0.585862 -0.345209 -0.215107 -0.352107 -0.256107 0.044393 -0.254607 -0.061607 -0.239607 -0.562107 -0.311107 -0.530607 -0.138607 0.251713 0.052566 -0.239913 0.248421 0.326497 -0.102307 -0.004012 -0.456781 -0.328526 -0.505555 0.104526 -0.111784 -0.356823 -0.035147 0.196596 -0.016862 -0.609804 -0.470607 -0.156107 -0.286107 -0.015607 0.161893 -0.093107 -0.523107 -0.422607 -0.485107 -0.314107 -0.534703 -0.326960 -0.130924 0.040349 -0.394949 0.326690 0.181190 0.245176 0.296438 -0.257429 -0.112077 -0.547483 -0.227449 -0.261117 -0.093361 0.234790 -0.249701 -0.504362 0.087393 -0.600607 -0.446107 0.065393 -0.086607 -0.283107 -0.502107 -0.476607 0.293893 -0.354607 -0.448764 -0.495287 0.048698 -0.494915 -0.165540 0.300818 0.162473 -0.142441 0.291800 -0.215484 -0.267666 -0.022572 0.117375 -0.009017 0.018664 -0.527488 0.094707 0.321739 0.139311 -0.492607 -0.516107 -0.104607 -0.644607 -0.513607 -0.591107 -0.061107 -0.126607 -0.422607 -0.087030 -0.127536 -0.055456 0.175160 -0.202177 -0.624060 0.303647 0.065849 0.119965 -0.110685 0.317535 0.021265 0.065575 -0.326917 -0.622280 -0.241249 0.022082 0.012614 -0.336189 -0.222607 0.000393 0.250393 -0.266607 -0.067107 -0.406107 -0.241107 -0.132107 -0.326607 0.148143 -0.558196 -0.024579 -0.222558 -0.262615 0.303933 0.352851 -0.036322 0.103840 0.068042 -0.580989 -0.163904 -0.421253 0.368688 0.241871 0.217919 -0.390418 0.236114 -0.588689 0.071893 -0.306607 -0.477607 -0.480607 0.142393 -0.557607 -0.077107 -0.255107 -0.293607 0.132171 0.311539 0.104609 0.004789 0.196099 -0.530077 -0.601404 0.341905 -0.593754 0.369333 -0.084293 0.122442 0.057904 -0.257511 -0.443155 -0.011707 -0.325115 0.197393 -0.355107 -0.273107 0.101393 -0.496107 -0.531107 -0.535107 -0.525107 -0.563107 0.277393 -0.412607 -0.191072 -0.511366 -0.209127 -0.320877 0.269680 0.314124 0.297826 0.084900 -0.610998 0.072929 -0.196290 0.183532 -0.157142 0.112625 -0.109059 0.248953 -0.570701 -0.141607 -0.320107 -0.228107 -0.274107 -0.005107 -0.052607 -0.503107 -0.052607 0.086393 -0.589607 0.092893 -0.028107 0.148498 0.163571 0.280441 0.346624 -0.383434 -0.426383 0.211399 0.287227 0.234474 -0.330930 0.069047 -0.298570 0.068268 -0.177499 0.109494 -0.444107 -0.644107 0.024393 -0.345107 -0.115607 -0.626107 -0.124607 0.058893 -0.182607 -0.507107 0.226393 0.213893 0.249393 0.095978 -0.003631 -0.294497 -0.053741 -0.162350 -0.369444 -0.322285 -0.180702 -0.420068 0.269545 -0.506286 -0.580424 0.298423 0.135141 -0.300506 -0.234107 -0.393107 0.256393 -0.008107 -0.588607 -0.049607 0.317393 -0.033607 -0.226607 -0.137607 -0.526607 0.039393 0.026081 -0.622330 -0.063506 -0.258425 -0.061019 -0.617881 0.095359 0.275296 -0.397241 0.114078 0.344607 -0.181944 0.289865 0.201169 -0.096185 0.324893 -0.073607 -0.303107 -0.528107 -0.638107 -0.247607 -0.602107 0.023893 -0.165607 -0.202607 -0.210607 0.249393 0.240893 0.323081 -0.604910 -0.265877 -0.188332 0.232540 0.125269 -0.002419 -0.185749 -0.076450 -0.494857 -0.503576 0.147920 0.238945 -0.537735 -0.405098 0.176893 0.105393 -0.057607 -0.050107 -0.298607 0.087893 0.092393 -0.266607 -0.489607 0.160393 -0.573107 0.014893 -0.594107 -0.334607 -0.287607 0.316893 -0.564107 -0.225107 -0.506107 -0.098107 -0.565607 0.264393 0.318893 -0.110607 -0.391107 -0.532107 -0.184107 -0.583107 -0.631607 -0.055607 -0.541607 -0.006107 -0.280607 -0.150107 -0.386607 0.090893 -0.392607 -0.624607 0.272893 -0.212107 -0.015107 0.148893 0.251393 0.060893 -0.516107 -0.366607 -0.173607 -0.410107 -0.142607 -0.231107 -0.059607 -0.038107 -0.518607 -0.071107 0.300393 -0.239607 -0.154107 -0.214107 -0.374107 -0.115607 0.178893 -0.245107 0.326893 -0.653107
0.182235 -0.261265 0.236735 -0.540765 -0.436765 0.179735 -0.303765 -0.003265 -0.001765 -0.382765 -0.272765 -0.069265 -0.300265 0.002235 0.190735 0.005735 0.219735 -0.420765 -0.362765 0.371235 -0.042765 0.386235 -0.198265 -0.527265 -0.379765 0.097735 -0.194265 -0.530765 0.301235 -0.197765 -0.513765 0.024235 0.082235 0.042735 -0.196265 0.186735 -0.458265 0.041235 -0.275765 -0.140265 -0.021582 -0.228082 0.331918 0.219418 0.093735 0.063235 -0.455765 -0.145265 -0.037265 -0.276765 -0.233265 -0.539265 0.429235 -0.111765 -0.525265 -0.409265 0.306235 -0.178265 -0.398765 -0.073265 0.165235 0.407735 0.271235 -0.433265 -0.008663 -0.383980 0.074020 0.075020 -0.022953 0.339547 -0.524453 -0.503953 0.431230 0.127547 0.035364 0.065735 -0.490265 0.120735 0.240235 0.013735 0.163735 0.326735 0.015735 0.134235 -0.243765 -0.189765 0.266235 -0.396765 0.173235 0.187235 0.071393 -0.342107 0.136178 -0.337682 -0.233026 0.447658 -0.179981 0.382781 -0.157203 0.338797 0.041307 -0.362808 0.153608 -0.209477 0.304735 -0.271265 0.175735 0.355735 0.169235 -0.043265 -0.089265 -0.125765 -0.175765 0.246235 0.328235 -0.099765 -0.402265 0.135235 0.045271 0.312749 -0.356487 0.438705 0.295952 0.104729 0.426298 0.386705 0.095099 -0.214188 0.082176 0.249041 0.436329 -0.341601 0.423404 -0.093765 -0.232765 0.268735 -0.045265 -0.516265 -0.056265 -0.334765 -0.239765 0.395735 -0.140765 0.126235 -0.038265 -0.271462 -0.431554 0.102355 0.410004 -0.059271 -0.256398 0.381916 -0.294478 -0.418945 0.021899 -0.334740 0.273413 0.415300 -0.251972 -0.121594 0.196174 -0.280068 0.075735 -0.062265 -0.054765 0.162735 -0.474265 0.441735 0.188235 0.011235 -0.352265 -0.510765 -0.273765 0.048965 -0.061954 0.234462 0.334011 -0.155897 -0.327248 0.066021 0.320418 -0.053620 -0.027539 0.327853 -0.173886 0.288822 -0.501895 -0.389875 0.223624 -0.222475 0.024735 -0.262765 -0.184765 0.420235 -0.005265 0.301735 0.124235 0.062235 0.284235 -0.368265 0.393235 0.252268 0.447662 0.454962 -0.136002 -0.059941 0.231627 -0.500236 0.305250 0.205498 -0.133340 -0.079243 -0.333954 0.127506 -0.248525 -0.004872 -0.076371 -0.446475 -0.082765 -0.536765 -0.351765 -0.517265 -0.479765 0.004735 0.223235 0.056235 -0.373765 -0.111765 0.438235 0.230507 -0.151792 0.172012 0.046167 -0.157593 0.149728 0.421602 0.298079 -0.317777 0.224750 -0.099938 0.401243 -0.396744 0.330561 -0.430486 0.235129 0.382327 -0.125265 -0.526765 -0.524765 0.333235 0.256735 -0.335265 0.135735 0.318235 -0.010265 -0.100265 -0.305765 0.157912 0.117343 -0.304997 -0.048380 -0.490941 0.159828 0.284414 -0.129173 -0.164534 0.235998 0.468192 0.035309 -0.242519 -0.114021 -0.055771 -0.133568 -0.484673 -0.176673 0.417235 0.216735 0.017235 0.432235 0.011735 -0.330265 0.229735 0.217735 0.347235 -0.132265 -0.472761 -0.425179 0.124144 0.026346 0.013097 0.109868 0.269371 -0.180598 -0.200753 0.081381 0.210603 -0.065024 -0.381236 -0.021943 -0.519273 -0.115062 0.162827 -0.265265 0.067735 0.218235 -0.122765 -0.195765 -0.245765 0.436235 -0.222765 0.307235 0.425735 0.327235 -0.154761 0.100592 -0.466752 -0.064041 0.220903 -0.044812 0.254848 -0.466789 -0.408290 0.049227 -0.123146 -0.305155 -0.347081 0.382314 0.139391 -0.440864 -0.118673 -0.069765 -0.019765 -0.416265 -0.015265 0.367735 0.121735 0.403235 -0.286765 0.417735 0.158735 -0.189765 0.266239 0.133617 0.473776 0.451062 -0.217450 -0.463949 -0.312113 -0.474021 0.012787 0.464016 -0.420682 -0.090500 0.028980 -0.257146 0.107682 -0.032370 -0.353568 -0.444265 -0.158265 0.067735 -0.194265 0.363735 -0.028765 0.331735 0.050735 -0.366265 0.276235 0.305235 0.371739 -0.017780 -0.326948 -0.023120 -0.331920 -0.318392 -0.046751 -0.253737 -0.488731 0.158475 -0.209889 0.043059 0.132477 -0.351788 0.229876 0.446157 -0.088568 -0.354265 -0.270265 -0.123765 -0.256765 0.112735 -0.515265 -0.131265 -0.204265 -0.002765 -0.258265 0.388235 -0.049265 0.345134 0.027101 -0.112012 -0.339598 0.013979 0.383092 -0.383746 -0.012905 -0.143134 -0.115463 0.019039 0.303037 0.173435 0.339070 -0.282837 0.119552 0.097932 -0.521765 0.348735 0.284235 -0.250765 -0.234265 0.347235 0.181735 -0.429765 -0.242765 0.297735 -0.112765 0.049355 0.022075 0.405033 -0.054505 0.359097 -0.200865 -0.113600 -0.115693 -0.294185 0.027616 0.394984 -0.143401 0.420837 -0.083720 -0.338307 -0.110948 -0.218975 -0.086265 -0.453265 0.196735 -0.066765 0.215735 0.022235 0.002235 0.301235 -0.089765 -0.496765 0.191975 0.222443 0.143684 -0.355491 -0.409161 -0.318231 -0.447060 -0.177629 -0.437582 -0.336418 0.238433 -0.246719 -0.109865 -0.213839 -0.340675 0.031547 -0.502719 -0.123448 0.225235 -0.076265 -0.025265 0.458735 -0.209765 -0.287265 -0.288765 0.325735 0.054735 0.033235 0.168773 0.302037 -0.117109 -0.295470 -0.166418 -0.470532 -0.148108 -0.061985 -0.479167 -0.279750 0.066707 0.389176 -0.094744 -0.392558 -0.342613 0.084116 -0.319110 -0.383925 -0.355324 -0.287265 0.030235 0.188735 0.177735 0.324735 0.188735 -0.490765 -0.421765 0.219735 0.376805 -0.025235 -0.177590 -0.110735 -0.201911 0.205366 0.097796 0.149672 0.046748 -0.516336 -0.387250 0.095122 -0.492046 -0.011429 0.001554 -0.079850 0.100281 -0.043534 -0.468324 0.314735 0.109235 -0.284265 -0.431765 -0.541265 0.446235 0.287735 0.325235 -0.045765 0.117377 0.242218 -0.256152 -0.160708 -0.260657 -0.155113 0.234011 0.056226 -0.417982 -0.358449 -0.270531 -0.067912 -0.348968 -0.348460 -0.455630 0.441187 0.139781 -0.159034 -0.109824 -0.227265 0.334235 -0.038765 -0.371765 -0.236765 -0.002765 -0.483265 -0.458265 -0.237265 0.346154 0.420203 0.061075 -0.192026 0.195882 0.311840 0.152849 0.227648 -0.316947 -0.311434 -0.194274 -0.434925 -0.140711 0.062738 0.008522 -0.214207 -0.009970 -0.152265 -0.240765 -0.335765 0.227735 0.189735 -0.021265 -0.118765 -0.529765 -0.073265 -0.035765 -0.212765 -0.015265 0.052142 0.106478 -0.324089 0.022328 -0.306046 -0.223987 -0.486570 0.301153 0.448541 0.261956 0.287934 -0.335927 0.363648 0.358152 -0.201134 -0.071173 -0.332765 0.121235 0.236235 0.056235 0.421735 0.441735 -0.396765 -0.069265 -0.260265 -0.195765 -0.057765 0.208235 0.311787 0.279548 -0.473640 -0.080970 -0.296659 -0.497431 0.235355 -0.310110 -0.204188 0.047287 -0.482480 -0.456992 -0.184899 0.082158 -0.516166 -0.306765 -0.253765 -0.178765 -0.058765 -0.045265 -0.516765 -0.281765 0.330735 0.446235 -0.520265 0.253735 -0.303765 -0.239265 -0.400001 0.183449 0.295615 0.461316 -0.214870 0.138137 -0.313703 -0.211050 0.164127 0.446086 0.001538 0.251623 -0.004212 -0.200311 0.303334 0.115235 0.415735 0.328235 0.128235 -0.518265 -0.309765 0.389235 -0.022265 -0.506265 0.427735 -0.371765 -0.519265 0.448735 0.423816 -0.280056 -0.246280 -0.430637 0.226198 0.366338 -0.438101 0.316626 0.031229 -0.447136 -0.369347 -0.288222 0.289362 -0.073193 0.265735 -0.401765 0.043735 0.109735 0.254735 -0.220765 -0.242765 -0.297765 -0.197765 -0.010765 -0.367265 0.321235 0.024235 -0.398765 0.269307 -0.174860 0.371086 0.235534 -0.133344 -0.334995 0.342896 0.406136 0.344558 0.218172 0.255146 -0.095872 0.076307 0.194307 -0.071765 -0.094265 -0.338265 -0.264765 0.045735 0.025235 0.164735 -0.158765 0.345735 -0.536765 -0.136265 -0.311265 -0.227765 0.037735 0.330235 0.116235 -0.041265 0.140235 0.260735 -0.130765 -0.085265 -0.334765 -0.150265 -0.427265 0.386735 -0.269265 0.105735 -0.041765 0.173735 -0.277265 -0.528265 0.422235 0.170235 -0.325265 -0.301765 -0.464765 0.019735 0.404235 -0.303765 -0.093265 0.408735 0.101235 0.136735 -0.278265 0.458735 -0.213765 0.157735 -0.041765 -0.532265 -0.040265 0.147235 -0.297765 0.166235 -0.461765 -0.405265 -0.127765 -0.411265 0.241735 0.371735 0.303735 0.284735 0.384735 0.266735 -0.225765
0.395824 0.301324 -0.132676 -0.264676 0.025324 0.104824 0.183324 -0.025176 -0.474176 -0.360676 0.016824 -0.474676 -0.032676 -0.284676 0.025324 -0.023676 0.216324 -0.286676 -0.001676 -0.298176 -0.428676 0.134824 -0.105676 -0.298676 -0.304176 -0.414676 0.325324 -0.478676 0.290324 -0.088676 -0.384676 -0.011176 -0.262676 -0.214176 0.248824 0.287324 0.415824 -0.043676 -0.435176 0.466324 -0.100485 -0.114985 -0.483985 0.391515 -0.096176 -0.155676 -0.329676 0.423324 -0.138676 0.193324 -0.350176 -0.042676 -0.147676 -0.152676 -0.037676 -0.148176 -0.042676 -0.188176 -0.102176 -0.228176 0.247824 -0.183176 0.064324 0.288324 0.127436 -0.162373 0.100127 -0.153873 0.097627 -0.031373 -0.384873 -0.478873 0.378155 -0.343873 0.436936 -0.194176 -0.196676 -0.368676 -0.246176 0.189324 0.127824 -0.293176 0.450324 -0.495176 0.078824 -0.063176 -0.118676 0.339324 0.051824 0.082324 0.414824 -0.175984 0.202834 0.003834 -0.362565 -0.145067 0.365978 0.040750 0.226138 -0.233068 -0.466184 0.365932 -0.188428 0.435609 0.323824 -0.228176 -0.456176 0.430324 -0.293676 -0.177676 0.144324 0.359324 -0.167676 -0.102676 0.167324 0.214324 0.137324 0.351842 0.078942 -0.285738 -0.261606 0.019275 0.064750 0.468086 -0.450639 0.007156 -0.151832 0.217880 -0.430304 0.372875 -0.495699 -0.376476 0.038322 -0.161176 0.361824 -0.113676 -0.085676 0.209324 -0.380176 -0.076176 0.334824 0.288824 -0.192676 -0.308176 -0.511176 0.277984 0.431444 0.152344 0.156721 -0.184702 0.392669 0.421115 0.360750 -0.239277 0.190291 0.210039 0.286213 0.331902 -0.058658 0.150246 0.223981 -0.253517 0.076324 -0.434676 0.109824 -0.037176 -0.245176 0.327324 -0.303676 -0.100676 -0.224176 -0.444676 -0.509176 -0.113051 -0.447944 -0.491943 0.474820 0.293595 -0.031714 0.157879 -0.366028 -0.116638 -0.123103 -0.487563 -0.061815 0.357454 0.007124 -0.265778 0.203706 0.469206 0.185824 -0.269676 -0.260676 -0.213676 -0.179676 0.152824 0.052324 0.099824 -0.217176 0.273324 -0.476176 0.083828 0.136354 -0.452850 0.283168 -0.005013 0.359576 0.278729 -0.189979 -0.152794 -0.269697 -0.045603 0.018272 -0.108793 -0.253084 0.460090 -0.243088 0.272706 -0.506176 0.263324 0.044324 0.204324 -0.482176 0.086824 -0.485176 -0.137176 -0.457676 0.092324 0.265824 -0.149515 -0.327500 0.322830 0.246186 0.113807 0.169202 0.045979 -0.372924 0.044382 -0.382723 -0.053758 0.175049 -0.370833 0.181539 -0.306447 -0.194588 0.446047 0.453824 -0.135676 0.021324 0.472324 -0.348176 -0.410176 0.200824 -0.305676 -0.020176 0.019324 -0.139676 0.047611 0.418966 -0.339789 0.432278 -0.381132 0.279567 0.194028 0.249643 -0.037091 -0.466095 0.165051 0.292983 0.435771 0.395466 -0.028714 -0.428747 -0.127953 -0.034453 -0.321176 -0.379676 -0.056176 0.068324 0.166324 -0.059676 0.244824 0.059324 0.444824 0.242824 -0.435939 -0.008396 0.414579 -0.075592 -0.283574 -0.408640 -0.127536 -0.151432 0.164602 0.357952 0.387623 -0.362702 0.401238 -0.161669 0.214898 0.344753 -0.250453 -0.292676 0.218324 0.145824 0.197324 0.200824 0.290824 0.444324 -0.206676 -0.239676 -0.312176 0.341324 0.344561 -0.339321 -0.104743 0.221960 -0.040663 -0.170974 -0.338921 0.189946 -0.287873 -0.175546 0.331583 0.390703 -0.305236 0.226277 0.313057 0.382412 -0.419953 0.048824 0.028824 -0.367676 0.280824 -0.449676 0.081324 -0.219176 0.275824 -0.324676 -0.250176 0.372324 -0.039439 -0.034217 0.246166 -0.381996 -0.064849 -0.338166 0.134350 0.186637 -0.219564 0.087274 -0.109660 0.009186 0.424358 -0.273395 -0.316557 0.403706 0.245983 -0.483676 0.087824 0.129324 0.089824 -0.358676 0.064824 -0.326676 -0.505176 -0.329176 -0.242676 0.295324 -0.128939 -0.186366 0.201053 0.145454 0.089616 -0.254314 0.278496 -0.465052 -0.303161 -0.294850 0.235928 -0.006985 0.302652 0.406683 -0.494787 0.009206 0.425483 -0.514176 -0.285176 -0.026176 -0.473176 0.327324 -0.372676 -0.080176 0.271824 0.217324 0.117824 0.291324 0.191324 0.182178 -0.101873 -0.399979 -0.471581 0.397591 0.036264 0.124273 -0.347283 -0.392720 -0.045458 -0.134669 -0.178936 0.469735 0.138209 -0.374088 0.389706 -0.060517 -0.062676 0.117324 -0.050176 0.176824 -0.384676 0.001324 -0.193176 -0.232176 0.224324 0.382324 0.288324 -0.349861 -0.013941 0.017776 0.362190 0.181954 -0.096687 0.393926 0.086552 0.452995 -0.183802 0.035434 -0.429686 0.274365 0.181076 -0.106164 0.034206 -0.164294 -0.178676 -0.274176 0.077824 0.061824 0.367824 -0.448176 -0.458676 0.286824 -0.143676 -0.348176 0.358355 -0.388941 -0.429354 0.183629 -0.212656 -0.150833 -0.513702 0.434951 -0.458620 -0.092007 0.348908 -0.074308 -0.349645 0.450537 0.465303 -0.496308 0.012742 -0.060294 -0.302176 -0.430176 0.077824 -0.177676 -0.179176 -0.320176 0.409324 -0.508676 -0.465176 0.253824 0.303635 -0.075490 0.444030 0.197537 -0.164561 -0.478620 -0.334385 0.132197 -0.114280 -0.327525 -0.136862 -0.277450 -0.130923 -0.279192 0.153461 -0.196929 0.458092 -0.088099 -0.173149 -0.007676 0.374824 0.048824 0.086824 -0.244176 0.174324 0.210824 -0.039676 0.107824 0.227905 0.031335 -0.321381 -0.154697 0.250261 -0.371232 -0.448556 -0.401834 0.446811 -0.263744 0.024849 -0.372933 -0.299214 0.401624 -0.143367 -0.148921 0.405923 -0.476768 0.173851 0.384824 -0.042176 -0.476176 -0.098676 -0.364676 -0.124176 0.291824 -0.084176 -0.425676 -0.194032 0.189433 -0.000333 -0.430201 -0.485491 0.185135 -0.075195 0.277591 0.109159 -0.228657 0.169532 0.070858 -0.199119 -0.291504 -0.016576 0.003425 -0.388077 0.352232 0.374851 0.318324 0.176824 -0.149676 0.227324 0.437824 -0.101176 0.432324 -0.402676 0.077824 0.027138 0.045092 -0.032742 0.369287 -0.467560 0.253820 0.226017 -0.441798 -0.267086 0.444791 0.129525 0.357831 -0.267694 -0.187235 -0.287459 -0.187803 0.022412 0.207824 0.115824 -0.064676 -0.138176 0.014324 -0.222176 -0.437176 0.167824 0.308824 -0.475176 0.369824 0.265397 -0.349537 -0.018861 -0.392180 0.001557 0.242318 -0.512361 -0.175834 0.009184 0.229111 -0.102961 0.037631 0.189954 -0.463435 -0.322940 0.201308 -0.145953 -0.095676 -0.463676 0.178824 0.415324 0.176824 -0.361676 -0.198676 -0.506176 -0.058676 -0.111176 0.186324 -0.447176 -0.281042 0.086057 0.129606 -0.321802 0.366070 0.250568 -0.031373 -0.102385 0.252346 0.308978 0.425980 -0.225738 -0.289135 -0.257369 0.242935 -0.462676 -0.062176 -0.253676 -0.305676 0.366824 -0.414176 0.397824 0.084824 0.287324 -0.439676 0.410824 0.084324 -0.195176 -0.396260 -0.423050 -0.112697 -0.148838 -0.034533 -0.463130 0.045501 -0.375986 0.083083 -0.468513 0.038674 -0.375989 0.343217 -0.254937 -0.318065 0.348324 0.008324 0.449324 0.188824 0.470824 -0.280176 0.407824 0.140824 -0.169676 0.329824 -0.250176 0.420824 0.193920 -0.313557 -0.190867 0.304994 -0.181731 -0.308724 -0.506007 -0.033593 0.172197 0.326709 -0.473410 0.311208 -0.080643 0.342871 -0.141875 0.056324 0.205824 0.125824 0.262824 -0.142676 0.437324 0.014824 -0.429676 0.432324 0.038324 0.281824 -0.124176 0.171824 -0.085580 0.151220 0.117897 0.412660 0.141527 0.231674 0.241971 0.259237 0.441546 0.253777 -0.257104 0.130277 0.094828 -0.216375 -0.263375 0.311324 -0.350176 -0.102676 -0.108176 0.159324 0.326324 0.457824 0.319824 0.287824 -0.002676 0.414824 0.244324 -0.440176 -0.000676 -0.355176 0.256324 0.438824 0.098824 -0.323676 0.374324 -0.237676 0.208324 -0.085176 -0.458676 0.170324 -0.311176 -0.194676 -0.399176 0.085324 -0.108176 -0.359676 -0.079176 -0.154676 0.062324 0.116324 -0.471176 -0.087176 0.098324 0.373324 -0.275176 -0.380176 0.090824 0.272824 -0.517176 -0.385176 0.220824 0.042824 0.356824 -0.156176 0.022324 0.033824 0.130824 -0.245176 0.473824 -0.024676 0.228324 0.465824 0.083824 0.354324 -0.146176 0.279324 0.297824 0.299824 -0.351176
-0.165546 -0.331546 -0.569546 0.050454 0.291454 0.328454 0.300454 0.214954 -0.278046 -0.124046 0.000954 -0.360046 -0.379046 -0.432046 0.299954 -0.010546 -0.106046 -0.141546 0.423454 0.173454 -0.365046 -0.298546 -0.295046 0.403954 0.310454 0.362454 -0.217546 0.113954 0.184454 0.385454 0.065954 -0.406546 -0.371546 0.071454 0.219454 0.273454 -0.247046 -0.127046 0.062954 0.049954 0.324607 -0.360393 0.044607 -0.479893 -0.439546 -0.081546 -0.137546 -0.192046 0.130454 -0.361046 0.335454 0.340454 -0.084546 -0.385046 0.097954 -0.421046 -0.448046 -0.545046 0.267954 0.089954 0.193954 -0.313046 0.258954 0.397454 0.333818 -0.167528 0.246472 -0.338028 0.059331 -0.336669 0.066331 -0.263669 -0.343655 -0.536669 -0.169822 -0.210046 -0.044546 0.045454 -0.048046 -0.560546 0.259454 -0.138046 0.133454 -0.250546 0.051954 -0.194046 -0.096046 -0.042546 -0.164046 -0.475046 -0.377727 0.384058 -0.432020 0.237341 0.358985 -0.521211 -0.353135 -0.038754 -0.503767 0.059846 0.196696 0.132760 0.365196 0.200801 0.165954 -0.455546 0.342954 -0.525546 0.164954 -0.130546 -0.511046 -0.001046 0.306454 0.197954 0.102454 -0.067046 0.357454 0.360362 -0.530907 -0.447226 0.248940 -0.323679 -0.478527 0.398889 -0.509151 -0.543771 -0.551559 -0.517104 -0.244175 0.281422 0.099034 0.291266 -0.245479 -0.190760 0.062454 0.272954 -0.072046 -0.020046 0.322454 -0.332046 0.424954 0.165454 0.020454 0.305954 -0.283546 -0.523249 -0.179966 -0.340577 0.208321 -0.347234 -0.204784 0.029296 -0.100546 -0.118384 -0.012724 -0.274784 -0.336527 -0.246676 -0.255255 -0.037973 -0.413640 0.183868 -0.178546 -0.308046 -0.434046 -0.541546 -0.460546 0.069454 -0.208046 -0.563046 0.090954 -0.208546 -0.044046 -0.534502 -0.319273 0.263601 0.322350 -0.127619 -0.495959 0.093862 0.083495 -0.148768 -0.328351 -0.470539 0.049877 -0.030138 -0.226088 0.240995 0.041554 -0.146016 -0.452546 -0.021046 -0.389546 -0.277546 0.245954 -0.248046 -0.465546 0.360954 0.174954 -0.098546 0.372954 -0.158740 0.279810 -0.072571 -0.307460 0.323607 -0.463874 -0.440213 -0.259582 -0.414473 0.198876 0.365590 -0.246352 0.177919 0.413420 0.099337 -0.323728 -0.484016 -0.317046 0.289954 -0.278546 -0.194546 -0.378046 -0.092546 -0.118546 -0.557546 0.012954 -0.009046 0.378454 -0.236966 0.256434 0.131056 -0.012962 0.118212 0.388708 -0.008465 -0.018065 -0.532639 0.101869 0.271313 0.374066 -0.386327 -0.059082 0.421482 0.316772 -0.319644 0.085954 0.343454 -0.230546 0.343954 -0.013546 -0.155046 -0.497046 0.183454 0.327454 -0.040546 0.200954 -0.306129 0.312317 0.178115 0.060455 0.151744 -0.142981 0.359557 -0.408548 -0.425311 -0.088670 0.130418 -0.409006 0.335085 -0.288989 0.265619 -0.526856 -0.021644 0.253070 0.361954 0.231954 -0.086546 0.279954 0.355454 -0.389546 -0.159046 -0.225046 -0.311546 -0.401046 -0.322920 0.230344 0.173544 -0.251324 0.124187 -0.098079 0.128246 -0.397642 0.094676 0.047170 -0.248539 0.219610 0.285630 0.193605 0.115416 0.147401 -0.549430 -0.053546 0.192454 0.002954 -0.226046 -0.092546 -0.411546 0.040954 -0.238046 -0.481546 0.226454 -0.043546 -0.131420 -0.503062 0.150137 -0.077232 0.089168 -0.117966 0.219885 -0.230142 0.118836 -0.091897 -0.068459 -0.453503 0.282992 -0.010068 0.069698 0.096028 -0.268930 -0.249546 -0.406546 -0.243546 0.050454 0.139954 0.112954 0.177954 -0.378046 0.276454 -0.206546 -0.040546 0.148580 -0.399803 -0.492500 -0.386828 -0.317298 -0.001731 0.090542 0.107691 0.213522 -0.349894 0.214825 -0.332257 0.098690 -0.556198 -0.265379 -0.314690 -0.016919 0.147454 0.353954 0.288954 -0.527546 0.300954 0.398954 -0.123546 0.015454 -0.134546 -0.371046 0.212954 -0.283420 0.001972 -0.457996 0.239306 -0.030317 0.394122 0.410750 -0.013623 -0.046568 -0.157339 -0.343201 -0.502297 0.021834 0.378322 -0.544731 0.423383 0.372581 -0.468046 -0.319046 -0.070046 0.254454 0.388454 -0.206046 0.080954 0.264454 -0.232546 -0.468046 -0.145546 0.207954 -0.258646 0.433594 0.299811 0.111736 -0.454573 0.093491 -0.367565 -0.502574 -0.149799 0.183808 -0.224203 -0.006183 0.344454 -0.440139 -0.459399 0.051556 -0.422419 0.315454 -0.002046 -0.315546 -0.429046 0.281954 -0.486546 0.313454 -0.349546 0.169454 0.152454 -0.228546 0.061503 0.374187 0.354946 0.169372 0.377979 -0.015985 -0.389147 0.261371 0.424529 -0.195885 0.303163 -0.201410 0.280482 0.372656 0.321201 -0.049444 -0.507303 0.212454 -0.424546 0.423954 -0.119046 0.148954 -0.317046 -0.194546 0.005454 -0.450046 -0.306546 0.010163 0.081810 0.216693 0.153269 -0.276007 0.151913 0.060703 0.228662 -0.125936 -0.384361 0.396969 -0.321046 0.347224 -0.274970 0.286842 -0.320027 0.327491 0.216056 0.349454 -0.149046 0.061454 -0.085046 0.001954 0.059954 0.370954 -0.496046 0.096454 -0.470546 -0.135997 0.231432 -0.182347 0.244615 -0.114947 -0.414883 -0.047912 -0.047931 0.087524 0.360440 -0.268858 -0.493935 0.290011 0.437436 -0.505239 0.171579 -0.517214 0.335451 0.197926 0.383454 -0.096546 -0.099546 -0.191046 0.318454 0.390454 0.164454 -0.047046 0.114454 0.022577 0.418668 0.019332 0.257490 0.215426 0.388131 0.059556 0.449058 -0.455133 0.352732 -0.051550 0.179598 0.258899 0.002210 -0.000580 0.077625 -0.022495 0.047670 -0.403574 0.032954 -0.043046 0.369454 -0.230546 0.213954 -0.155546 0.153954 0.106954 -0.412046 -0.327570 0.427706 0.079699 0.291743 0.411523 -0.349080 0.105554 -0.029091 -0.399742 -0.500456 -0.033109 -0.529067 0.402634 0.240103 -0.034162 -0.033559 -0.225995 0.296670 -0.385574 0.102954 -0.081546 -0.213546 -0.511046 0.228954 -0.491046 -0.166046 0.017454 -0.071046 0.342213 -0.507168 -0.104215 -0.385166 -0.507918 -0.472858 0.235533 0.237994 -0.487542 -0.327015 -0.244205 -0.340171 -0.502435 0.265817 -0.557633 -0.573482 0.035415 -0.259546 -0.035046 0.161454 -0.388546 -0.067046 -0.161046 -0.116546 0.072954 -0.318546 -0.313046 0.157454 0.090914 0.068332 -0.536195 0.038901 0.144185 -0.079365 -0.018259 -0.036589 -0.007608 -0.458028 -0.478328 0.049788 -0.242234 -0.186226 0.014212 -0.219051 -0.387430 -0.207546 -0.441046 0.000954 0.107954 -0.122546 -0.484546 0.072954 0.385954 -0.070546 -0.469046 -0.188046 -0.035046 -0.421211 -0.436902 -0.342430 0.018361 -0.404719 0.024149 -0.520837 0.050368 -0.456864 -0.017569 0.365627 0.402791 0.031282 -0.287067 -0.315257 0.166954 0.067454 -0.182046 0.133454 -0.565546 -0.269046 -0.291046 -0.104046 0.183454 -0.200046 0.322454 -0.077546 0.082954 0.212370 0.320724 -0.360344 0.379819 0.236694 -0.365152 -0.281679 0.147209 0.200560 -0.261199 -0.483694 0.056584 0.025208 0.405824 -0.008757 0.387454 -0.538546 0.028954 0.128954 0.103954 0.200954 -0.163046 -0.108046 0.285454 -0.100046 0.362954 0.043454 0.053734 0.263533 0.325370 -0.502525 -0.166225 -0.002793 -0.298826 -0.458235 -0.219507 -0.335780 -0.193470 0.253360 0.401392 0.078421 0.306794 -0.214046 -0.554546 0.059954 0.351954 0.407954 0.096454 -0.265546 -0.109546 -0.224546 0.288954 0.302454 0.020954 0.148954 -0.444266 -0.039787 -0.452345 0.189336 -0.420887 -0.551123 0.258990 -0.020819 -0.212470 0.300679 -0.143243 0.122192 -0.483742 0.215465 -0.290567 0.259954 -0.356046 -0.411046 -0.379546 -0.335046 0.223954 0.325954 -0.352546 -0.105046 0.413954 0.112954 0.023954 0.277454 -0.231046 -0.380046 0.000954 -0.100546 -0.067546 -0.099546 -0.563046 -0.142046 -0.084546 0.039454 0.178954 0.267454 -0.317546 -0.398546 -0.262546 -0.230546 0.390454 0.020954 0.382954 -0.391046 -0.036546 -0.422046 -0.151046 -0.238046 0.257454 -0.149546 0.010954 0.246454 -0.462046 0.388454 -0.123046 -0.339546 -0.417046 0.231954 -0.086046 -0.131046 -0.293046 -0.295546 0.302454 0.197454 0.318954 0.055954 -0.182046 0.354954 0.010954 -0.091046 -0.301046 -0.024046 0.283954 -0.565046 -0.061046
-0.109848 -0.343848 0.209652 0.006152 0.267152 -0.365348 -0.408348 0.088152 -0.473348 -0.445348 0.319152 -0.237848 0.492152 0.125652 0.251152 -0.285848 0.407652 -0.469848 0.370152 -0.041848 0.202652 0.001152 0.351652 0.132152 0.365652 -0.386348 0.184652 -0.083348 0.472652 0.194652 0.209152 -0.351848 0.136152 -0.074848 0.161152 -0.089848 0.067152 0.038152 0.283652 -0.120848 -0.121848 0.109152 0.148152 -0.344848 -0.480348 -0.315348 -0.123348 0.434152 -0.499848 -0.246848 -0.100848 0.210152 0.039652 -0.464348 -0.372848 -0.087848 0.435152 0.319152 0.114152 0.193152 -0.201348 -0.170348 0.348152 0.442152 0.040152 -0.205848 -0.362848 0.392652 0.339152 0.206152 -0.221848 -0.497848 -0.399348 0.433652 -0.335348 -0.372848 0.403652 0.048152 -0.431848 0.410652 0.086652 -0.247348 -0.094348 -0.366848 -0.204848 0.040152 -0.169348 -0.263348 -0.355848 0.451652 0.436756 -0.050244 -0.433602 0.069898 -0.323102 0.113381 0.370881 -0.400619 -0.208619 -0.005077 0.312940 0.076298 0.004298 0.420298 -0.205348 -0.045848 -0.446348 -0.295348 0.287652 0.407652 -0.377848 -0.119348 -0.333348 0.034652 -0.200848 -0.252848 0.360152 -0.084875 -0.230116 -0.488881 -0.347733 -0.286749 -0.253249 -0.496165 0.068907 -0.069593 0.124401 -0.275599 0.036901 0.422407 0.226197 -0.366008 -0.217348 -0.485348 -0.439848 0.084652 -0.245848 0.399652 0.296152 -0.451848 0.314152 0.203652 -0.285848 0.266152 -0.476348 -0.200875 -0.479653 0.391171 0.221797 -0.202767 0.187733 0.380749 -0.204679 0.441035 0.391377 0.370895 -0.122014 -0.200318 -0.399178 0.198076 -0.494848 0.111152 0.338152 -0.426348 -0.088848 0.183652 0.165152 0.172152 0.090152 -0.253848 0.227152 -0.310848 0.457152 0.448152 0.462106 0.487918 -0.245902 0.267923 0.163440 0.260940 -0.429109 -0.142444 -0.071516 -0.344058 -0.191542 -0.396138 -0.471942 -0.033967 -0.093264 0.413236 0.448152 -0.302848 0.030652 0.071652 -0.222348 0.227152 -0.238348 0.228152 -0.094348 0.137152 0.481652 -0.360848 0.111658 0.445462 0.373603 0.080955 0.217778 0.412431 -0.365457 -0.109582 0.185172 -0.283094 0.035497 -0.385616 -0.129887 0.118929 -0.280764 -0.318264 0.368652 -0.088848 0.380652 0.323652 -0.106348 -0.303848 -0.098348 -0.042848 0.430652 -0.051348 -0.308348 -0.157348 0.371652 -0.320038 -0.010403 -0.010149 0.410431 -0.352112 -0.419989 0.140154 -0.427675 -0.276999 0.313248 0.254989 -0.285844 -0.156625 0.148736 -0.131764 0.468152 0.374652 -0.164848 0.343652 -0.429348 -0.277848 -0.047848 -0.028348 -0.074348 0.139152 0.214152 -0.137348 0.373236 0.412736 -0.009160 0.251351 0.378653 0.266357 -0.248089 0.300534 0.425267 -0.163098 -0.279938 0.494989 -0.166184 -0.472209 0.029236 -0.167264 -0.343764 -0.315848 0.207652 0.409652 0.344652 -0.450348 0.038152 0.422152 -0.442848 -0.503348 -0.321348 -0.010348 -0.078848 0.178377 0.137712 -0.198191 0.098857 -0.360522 -0.435640 -0.233577 0.189323 -0.181343 -0.432444 0.114114 -0.069684 -0.438709 0.110236 0.049236 0.374652 0.424652 0.389152 -0.462848 -0.384848 -0.118348 0.454152 0.466652 -0.283348 -0.001348 0.174152 -0.218848 -0.218848 0.138391 0.056354 0.209950 -0.173342 -0.293432 0.301746 0.208281 -0.375032 0.367341 0.479320 0.316010 -0.318684 0.320791 -0.289764 -0.103264 0.389152 0.105652 0.453152 0.270152 0.036652 0.348652 0.093152 -0.062348 -0.263348 -0.167848 -0.089348 -0.039348 0.337652 0.370128 0.027670 0.405429 -0.200279 -0.404329 -0.095509 -0.096566 -0.420527 -0.293635 -0.379303 0.485384 -0.431168 0.373875 0.303236 -0.464348 -0.020848 0.298652 -0.060848 -0.125348 -0.088848 -0.101348 0.430652 0.454652 -0.467848 -0.191348 -0.101348 -0.445348 0.147652 0.095128 -0.198623 -0.226606 -0.244243 0.340525 -0.316420 0.051756 0.435260 -0.128537 0.244927 0.295547 0.073068 0.359736 0.281736 -0.072848 0.018152 -0.130348 -0.251848 -0.495848 -0.324848 0.194152 -0.335848 0.093152 0.378652 -0.398848 -0.167348 0.417652 -0.304848 0.238712 0.481537 0.355372 -0.375656 -0.211019 -0.372146 -0.123188 0.410382 -0.400539 0.218787 0.347679 -0.034408 -0.043029 -0.078264 0.323236 -0.398348 -0.290348 -0.464848 0.126652 -0.134848 -0.209848 0.137652 0.047152 0.270152 0.309152 0.425652 0.155152 0.195750 -0.234623 -0.136666 0.404098 0.292863 -0.155078 0.033035 0.414392 -0.081320 -0.049328 -0.418336 -0.168465 0.045152 0.294471 0.457736 0.295236 -0.464264 -0.335848 -0.096348 -0.355848 -0.340848 -0.054348 0.056652 0.031152 0.243152 0.479652 -0.415348 -0.201848 0.073750 0.299045 0.465834 -0.217902 -0.430421 -0.175642 0.459921 0.141379 -0.043646 -0.217373 0.068583 0.157619 0.230104 -0.076852 0.267971 -0.219764 -0.498264 0.010152 0.361152 -0.455848 0.181152 -0.228848 0.474652 0.347152 0.223652 -0.183848 -0.114848 -0.248348 -0.196819 -0.239166 -0.158763 0.386586 0.337198 -0.198165 0.444781 0.410697 -0.085251 0.194654 -0.156818 0.153763 0.474104 0.406189 -0.188988 0.208777 -0.386764 0.363652 -0.504348 -0.378348 -0.119848 0.363652 0.452152 0.346652 0.420152 0.211652 0.200652 -0.071348 -0.460444 0.377451 -0.029073 -0.153290 0.413995 0.310599 -0.486454 0.256968 -0.380110 0.468099 -0.043552 -0.181455 0.161368 0.295634 0.470777 0.138277 -0.015264 -0.433348 -0.368348 0.105152 0.437152 -0.365848 0.233652 -0.397348 0.283152 -0.029348 0.456152 -0.011541 -0.305938 -0.051814 0.430664 -0.264369 -0.396351 -0.097435 -0.135398 -0.477888 0.496091 -0.117220 0.062905 -0.380133 -0.368678 -0.482215 -0.287416 0.289777 0.092736 -0.310348 -0.287348 -0.416348 -0.236848 -0.148348 0.195652 0.485652 -0.228848 -0.285348 -0.405348 0.340459 -0.023870 -0.437247 -0.159639 0.170824 0.010303 -0.230733 0.407349 -0.105195 -0.047201 -0.447701 -0.080719 -0.049509 -0.063464 0.258305 -0.156957 -0.159264 0.274152 0.062152 0.415652 -0.126848 0.037152 -0.364848 -0.257348 0.085652 -0.227848 0.223652 0.077652 -0.171185 0.225279 0.182603 -0.321982 -0.296432 0.025033 -0.202311 0.376987 0.316389 -0.149790 0.068298 -0.283264 0.304076 0.118857 0.131479 -0.469957 0.332736 -0.330848 -0.342348 -0.320348 0.450152 0.005152 -0.398348 -0.391348 -0.451348 -0.477848 -0.363348 0.141152 -0.420348 0.367444 -0.273439 -0.083476 0.098656 0.191253 -0.123289 0.306165 -0.279835 0.182212 -0.028654 -0.453281 0.314065 -0.465763 -0.242280 -0.103848 -0.063848 0.172652 -0.067348 -0.224848 0.348652 0.097152 -0.259848 0.084152 0.388152 -0.372348 -0.021848 0.443652 -0.343348 0.121552 -0.129352 -0.477271 -0.003794 -0.118005 -0.276341 0.378627 -0.421373 0.110268 -0.025384 -0.410727 -0.427291 0.440690 -0.369865 0.387652 0.482152 -0.326848 -0.209848 -0.296848 0.131652 0.008152 -0.235848 -0.234848 0.390652 0.011152 0.134652 0.285152 0.145568 0.398068 0.235568 0.088664 0.026641 -0.387359 -0.103859 0.307641 0.000641 0.129186 0.197264 -0.130861 -0.481351 -0.332848 -0.046348 -0.406348 0.393152 -0.130848 0.266652 0.160152 -0.171848 -0.436848 0.370652 0.245152 -0.143348 -0.358848 0.295652 -0.245848 -0.062432 -0.062932 -0.454432 0.369068 -0.158293 0.067164 -0.257359 0.154141 -0.035359 0.146071 -0.029490 0.253034 -0.221475 0.444152 -0.380348 -0.199848 0.396652 -0.141348 -0.320348 0.296652 0.235152 0.453152 -0.258348 0.348652 0.302152 -0.381348 0.100152 -0.334848 -0.233348 -0.097848 -0.073848 -0.009848 0.124652 -0.242348 -0.134348 0.473652 0.331152 0.114652 -0.087848 -0.419348 -0.234348 0.386152 0.337152 -0.172348 0.115152 0.242652 -0.086848 -0.202848 0.386652 0.099652 0.379152 -0.093348 0.059652 -0.372848 -0.238348 -0.353348 -0.246848 0.368652 -0.181348 -0.194848 -0.443848 0.030652 0.302152 0.187652 0.295152 -0.325848 -0.053848 -0.088848 0.074152 0.365152 -0.001348 0.346652 0.036152 -0.378848 0.459652 0.437152 0.149152 -0.120348 -0.259348
0.011928 0.455928 -0.404072 0.425928 -0.199572 -0.270072 -0.306072 -0.046072 -0.010072 0.348428 0.058428 0.080928 0.189928 -0.404572 -0.110572 -0.116072 0.397428 -0.150572 0.115928 -0.406572 0.430428 -0.234072 -0.122072 0.062428 0.309428 -0.215572 0.028428 0.252928 0.440428 0.193428 0.278928 -0.232572 -0.035072 0.411928 -0.270072 0.080928 0.457428 -0.260072 0.350928 -0.015572 0.404041 -0.053959 0.381041 0.130541 -0.143072 -0.193072 0.329928 -0.430572 -0.028072 -0.239072 -0.300072 -0.282072 0.064428 0.114928 0.317428 -0.311072 0.214928 -0.339072 0.257428 0.191928 0.170428 0.072928 0.275428 -0.328072 0.021489 -0.457898 0.068602 0.015602 -0.402355 -0.043855 0.315645 0.317145 0.439256 0.011645 -0.237468 -0.389072 0.134428 -0.370572 -0.282572 -0.357072 -0.294072 -0.045072 -0.102072 0.307428 0.385428 -0.469572 -0.467072 0.137428 -0.492572 0.327428 -0.355399 -0.006100 -0.283845 0.457765 -0.017898 0.054051 0.317231 -0.411446 -0.391972 0.231354 0.081542 0.237509 0.083065 -0.165981 -0.215572 0.381428 -0.018072 0.455928 0.326428 0.236428 0.414428 -0.430572 -0.493572 -0.372072 0.192428 0.207928 -0.526072 0.041539 -0.116145 -0.478875 -0.090798 -0.153035 0.055871 0.166985 -0.154754 -0.423108 -0.242364 -0.525256 -0.524989 -0.327877 0.233228 0.085924 0.220324 -0.371759 0.233928 0.319928 0.325428 -0.247572 0.090928 0.188428 0.304928 0.041928 0.073428 0.348428 -0.014572 -0.418193 0.095279 0.001410 0.167082 0.298758 -0.158593 -0.385727 -0.316409 0.431890 0.090011 -0.164152 0.310433 0.145579 -0.172635 0.306349 0.123721 0.371041 -0.295072 -0.342072 -0.464572 -0.524072 0.293428 0.397928 -0.456072 -0.079072 -0.098572 0.385928 0.278928 0.291730 0.053660 -0.192054 0.422294 0.473934 0.130051 0.124580 0.084295 -0.500384 0.040929 0.067687 0.450267 0.425838 0.411682 0.052376 -0.129079 -0.452719 -0.329072 0.308428 0.232428 -0.087072 -0.496572 0.304928 -0.295572 0.333928 0.017928 -0.214072 -0.429572 0.236087 -0.505760 0.177842 -0.141633 0.089764 0.299864 -0.192492 -0.131115 -0.044897 0.231155 0.467706 -0.031466 -0.438779 0.041784 -0.296222 -0.499493 -0.019719 0.067428 -0.315072 -0.158572 0.275428 -0.469572 -0.389572 -0.496072 0.349928 0.231428 -0.254572 -0.001072 -0.435223 0.075866 0.120852 0.353688 0.108928 -0.174650 -0.490420 -0.500404 -0.352899 -0.161587 -0.115186 -0.108297 0.356494 -0.139829 0.363873 0.428507 0.204482 -0.400572 -0.536572 -0.280072 0.203928 -0.535572 -0.123072 -0.205072 -0.468072 0.024928 -0.164072 0.418928 -0.428110 0.125395 -0.030274 -0.310109 -0.480669 0.391866 0.339965 -0.071110 -0.482009 0.374266 -0.275156 0.458155 -0.496536 0.120716 -0.144197 0.370207 0.281982 -0.470331 0.333428 0.022428 -0.334072 0.112928 0.057928 0.185928 0.114428 -0.528072 0.296428 0.183428 -0.187174 -0.324893 -0.069212 -0.063635 0.117396 0.200061 0.146158 -0.063774 -0.104039 -0.211806 0.384364 -0.068160 -0.321344 0.401080 -0.322377 -0.306855 0.043169 -0.156572 -0.401572 -0.139072 -0.090072 0.247928 0.198928 -0.108072 -0.102572 -0.206072 0.393428 0.327428 -0.196674 0.232681 -0.161068 -0.053524 0.447120 0.073096 0.403960 -0.133038 -0.201302 -0.148282 0.326300 -0.005422 0.157766 0.000316 0.214281 0.126444 -0.076831 0.422428 0.354928 0.281428 -0.419072 0.268928 0.458428 0.028428 -0.168072 0.193928 0.235928 0.044928 0.303826 0.171437 -0.078950 -0.342240 -0.054377 0.287933 -0.093387 -0.304009 -0.337063 -0.165901 -0.136737 -0.015752 -0.019610 -0.525024 0.264124 0.426859 -0.224272 0.007928 0.087928 0.013928 -0.033072 -0.242072 -0.167572 0.085428 0.342428 -0.394072 0.429428 -0.288572 0.337326 0.206923 0.305856 0.192327 -0.077339 -0.464065 0.152965 0.167210 0.124512 -0.416800 0.163296 0.308380 -0.291754 -0.471521 -0.425447 -0.024911 -0.475772 0.367928 -0.063072 -0.385072 -0.087572 -0.438572 0.165928 0.194928 -0.365072 -0.465072 -0.404572 -0.485572 -0.322072 0.345996 -0.447284 0.348193 0.097655 0.389097 -0.160053 0.315152 0.224010 0.296345 0.005746 -0.131876 0.389422 0.449297 0.457133 0.384174 -0.501489 -0.440272 -0.105572 0.337928 -0.536072 0.147428 -0.510572 -0.308072 0.024428 0.192428 0.202428 0.196928 0.043428 0.342359 0.038538 0.053694 0.229936 0.121044 -0.303286 -0.377670 -0.190717 0.061980 0.461597 -0.447906 -0.129952 -0.248023 -0.296502 -0.453735 -0.278989 -0.312031 0.243928 -0.466072 -0.216072 0.454428 0.187428 -0.436572 0.138428 0.213928 -0.429072 -0.300572 -0.277397 0.318896 0.227062 0.097031 -0.023072 -0.210208 -0.330873 -0.493462 0.214279 -0.105144 -0.349225 -0.457543 0.247414 0.401855 0.383738 0.407762 0.450908 -0.387489 -0.513072 -0.292572 -0.385072 0.267928 -0.443072 -0.064072 0.037428 0.281928 -0.185072 -0.287572 -0.188088 -0.287351 -0.254572 -0.135146 -0.436430 -0.511564 -0.520356 -0.157255 -0.414596 -0.322514 -0.132648 0.316910 -0.137486 -0.189254 0.371386 0.401747 -0.270127 0.057720 0.340484 -0.285072 0.205428 0.142428 -0.262072 0.357428 -0.274572 -0.389572 -0.391572 0.300428 0.208568 -0.246502 -0.432321 -0.427479 -0.007638 -0.171314 -0.043420 -0.140323 -0.375529 -0.038586 0.219023 -0.272347 -0.065503 0.385437 -0.441967 0.085687 -0.511822 0.231525 0.017484 -0.470072 -0.176572 -0.328072 -0.439572 0.344928 0.351428 -0.164572 0.017428 0.392928 -0.237418 -0.045739 0.247946 -0.475706 0.013259 0.110392 -0.384381 -0.470874 0.242795 -0.126902 -0.316016 0.384839 0.133241 0.424495 -0.373873 0.354433 0.098178 -0.515475 -0.029016 0.119928 0.029428 0.302928 0.186928 0.168928 0.290928 0.284928 0.050428 -0.042572 0.436271 0.392939 -0.097057 -0.247140 -0.341329 0.448442 -0.427870 0.190776 0.081131 -0.514057 0.237658 -0.157181 -0.118169 0.442199 -0.260977 0.299827 0.153554 -0.334072 0.186928 -0.435572 -0.313572 -0.527572 -0.000072 0.253428 0.312928 -0.276572 -0.262572 -0.081072 0.324077 0.329935 0.426208 0.094527 0.044220 -0.141902 0.366492 0.220878 -0.177754 0.236112 -0.070415 0.204438 0.245163 0.461083 -0.445038 0.411569 0.415169 -0.402572 0.246428 -0.117072 -0.199572 -0.251572 -0.237072 -0.197072 -0.241572 0.299928 0.371928 0.386928 -0.440072 -0.350675 -0.148616 0.212784 -0.474132 -0.409511 -0.169944 -0.136140 -0.259650 -0.508519 -0.396471 -0.134292 0.246762 0.040849 -0.426694 -0.224787 -0.200572 -0.343572 -0.278072 -0.249072 -0.430572 0.283928 -0.050572 -0.092572 -0.430572 0.249428 0.247428 -0.356572 0.085928 0.158196 -0.427941 -0.030337 0.350939 -0.260607 -0.286544 0.177415 -0.152371 0.063766 -0.437832 -0.112948 0.067847 0.451738 0.259676 -0.395287 -0.205072 0.362928 -0.083572 0.131928 0.334928 -0.045572 0.198428 0.220428 -0.225072 -0.315072 -0.335572 -0.340072 0.250044 0.449582 -0.158215 -0.123415 -0.073589 -0.269225 0.158058 -0.417769 -0.007156 0.395363 0.280718 0.140308 -0.247213 0.134120 0.322748 0.122428 -0.105572 0.115428 0.264428 0.226928 -0.206572 -0.504072 -0.326072 0.444428 -0.012572 0.409428 0.201428 0.299928 0.410044 0.403309 -0.502641 0.198419 0.169009 -0.343820 0.389117 0.406963 -0.082995 0.076495 -0.482782 0.216817 -0.224332 0.101874 -0.336806 0.058928 -0.450072 -0.478072 -0.503572 -0.018072 -0.047072 0.297928 -0.476072 0.283428 0.109928 -0.265072 0.042928 -0.366072 0.459928 -0.219072 0.249428 0.406928 -0.501072 0.061928 -0.081072 -0.018572 0.251928 -0.380572 -0.079572 -0.520072 0.007428 -0.251072 0.230928 0.317928 0.165928 0.209428 -0.308072 0.253428 0.268428 -0.274572 -0.449572 -0.242072 0.339428 -0.388572 0.357428 -0.235572 -0.338072 -0.063072 -0.064572 0.437428 0.033928 -0.278072 0.159428 0.069928 0.099428 -0.385072 0.367428 -0.112072 -0.450072 -0.397072 -0.095072 0.094428 -0.110572 0.451928 -0.272572 0.370928 0.197928 -0.043572 0.160928
-0.197794 0.018206 0.268706 -0.124294 -0.327294 0.195706 -0.230294 -0.025794 0.173206 0.244206 0.225206 0.147706 -0.185294 0.262706 -0.156294 0.200206 -0.101294 -0.225294 0.104206 0.102206 -0.138294 0.023206 -0.455794 -0.506794 0.449706 0.311706 -0.463794 0.357206 -0.175294 -0.191294 -0.166294 0.143706 0.343706 0.397706 0.315206 0.311706 -0.111294 -0.398794 -0.419294 -0.421794 0.140706 0.322706 0.242706 0.250706 -0.119294 0.382206 -0.253794 0.296206 -0.326794 0.145706 -0.084794 0.051706 -0.314794 -0.245294 -0.159794 0.430206 0.361706 -0.327794 0.082706 -0.297294 -0.002294 0.433206 0.142206 -0.363794 0.125688 -0.026312 0.464688 -0.469312 -0.129720 0.340780 -0.373720 0.306780 -0.041593 0.164280 0.073780 0.355706 0.062706 0.336706 -0.052794 0.031206 -0.222294 0.379206 0.378706 -0.020294 0.429206 -0.264794 -0.073294 0.307206 -0.297294 0.304706 -0.473800 0.217083 0.254126 -0.036216 0.370893 -0.102232 0.236234 0.133144 -0.273615 -0.376298 -0.012529 -0.134091 0.443184 0.462116 0.325206 -0.188294 0.112706 -0.095294 0.444206 -0.423794 0.231206 -0.261794 0.250706 0.126206 0.234706 0.196206 0.157206 0.456847 0.019983 0.376893 0.278332 -0.156040 0.113244 -0.168378 0.105249 0.001522 0.023498 -0.145267 -0.353921 0.258931 -0.013269 -0.074035 0.419355 -0.275239 -0.317294 0.260706 0.053206 0.312706 0.460706 0.013706 0.405706 0.208706 0.047206 -0.048294 -0.148794 -0.422562 -0.332868 0.306806 -0.444459 -0.014467 0.204989 0.131400 0.124765 -0.166834 0.254367 -0.256366 0.122959 -0.214798 0.103343 0.058122 0.334754 0.382668 -0.501794 0.269706 0.402706 -0.302294 -0.174294 -0.027294 0.305706 -0.418794 0.281706 0.006706 0.306706 -0.154099 0.480008 0.460446 -0.051820 -0.332727 0.063126 -0.202183 -0.056100 -0.222457 0.215449 -0.426022 -0.107043 -0.025386 -0.399791 -0.476440 0.043357 -0.010725 -0.130294 -0.106294 -0.332794 -0.115294 0.458706 -0.413794 -0.121794 -0.420794 -0.145794 -0.299794 -0.322294 -0.347165 0.228324 0.287432 -0.194400 0.224855 0.039443 0.039865 0.176870 -0.394190 0.117507 -0.377011 -0.113859 -0.162464 0.481302 0.286951 0.315141 -0.416725 0.096206 -0.348794 -0.132294 0.482706 0.061706 0.051706 -0.337294 -0.184294 0.155206 0.057706 -0.088294 -0.474293 0.055972 -0.107038 0.482225 -0.420265 -0.311157 -0.430188 0.307900 0.228802 -0.110826 -0.230266 0.343508 -0.479509 -0.316986 -0.481717 -0.138859 0.444367 0.314206 0.468706 -0.456294 -0.294794 -0.363794 -0.293294 -0.295794 -0.006294 0.275706 -0.337794 0.104706 -0.052756 0.238454 -0.461738 -0.223907 -0.408139 -0.280272 -0.459346 -0.322980 -0.086402 0.397167 0.277481 0.436585 -0.193147 -0.436478 0.292367 -0.390767 -0.473133 0.100312 -0.015794 -0.512794 -0.290794 -0.252294 0.326706 -0.068794 -0.099294 -0.450294 -0.069294 0.189706 0.342125 0.110822 -0.184758 -0.410865 -0.353552 -0.356815 -0.350977 -0.253895 -0.129424 0.482164 -0.060312 0.301001 0.179676 -0.267722 0.248819 -0.510364 -0.423188 -0.169294 0.392206 -0.379794 0.226206 -0.107294 0.403206 0.452206 0.157206 0.246206 -0.100294 0.353706 0.091125 0.126589 0.062646 -0.044038 -0.241356 0.168903 -0.169365 -0.307157 0.324771 -0.223207 -0.042826 -0.287293 -0.442798 0.185011 0.301883 0.240543 0.422812 -0.158794 0.023706 0.294706 0.189206 -0.067294 0.210206 -0.068294 0.120706 0.129706 -0.320794 -0.426794 -0.329375 0.095076 0.444631 0.283739 -0.257609 -0.199315 -0.473294 -0.210072 0.485416 -0.343809 0.003128 0.326159 -0.052923 0.243117 0.323660 0.006260 -0.063887 0.139206 -0.459294 -0.345794 -0.502794 0.081706 0.465706 -0.018294 -0.469294 0.192706 0.208706 0.168206 -0.382875 0.403849 0.258954 -0.191751 0.019339 -0.001679 0.382886 0.056602 0.319400 0.429310 0.142997 0.095278 0.370088 0.423645 -0.296938 -0.178703 0.176613 -0.457794 0.123206 -0.370794 0.198706 0.180706 -0.199794 0.212706 -0.221294 -0.438794 -0.289294 -0.395294 0.049206 0.435707 0.290998 0.184003 0.358127 -0.155957 0.285752 -0.324241 0.143365 -0.031537 0.026205 -0.028484 -0.100727 0.445121 0.348244 -0.221920 0.381311 -0.432887 -0.106294 0.074206 0.405706 0.312206 -0.000794 0.120706 0.009706 0.094706 -0.371794 0.083706 0.172706 -0.365389 0.207560 -0.261135 0.366005 -0.209259 0.219102 0.022855 0.158943 -0.196153 -0.007167 -0.191480 0.274296 0.296010 0.062840 0.462390 0.254811 -0.294781 -0.466294 0.152706 -0.432294 -0.055294 -0.478294 -0.510294 -0.226794 -0.183794 -0.094294 0.078206 0.429133 -0.168710 -0.320071 0.116770 -0.020185 0.399925 0.152352 -0.352219 -0.283011 -0.105255 0.185916 0.157519 -0.023119 -0.321868 0.253401 -0.235655 -0.511714 -0.390189 -0.258294 0.037206 -0.168294 -0.207794 -0.515294 -0.304794 0.032206 -0.476294 0.480706 0.322706 -0.142477 -0.317634 -0.082877 -0.420432 0.027271 -0.108244 0.216860 0.312339 -0.180115 -0.329780 0.469173 -0.186644 0.062179 -0.065770 0.263051 0.333717 -0.094952 0.031017 -0.387529 -0.313294 -0.063794 -0.128794 0.241206 0.063706 -0.041294 0.242706 0.275706 -0.492294 0.061857 0.272185 0.125351 0.435100 0.470535 0.338223 0.314244 -0.195216 -0.244219 0.049817 -0.379585 -0.149626 0.217504 0.371322 -0.041135 -0.424588 -0.400485 -0.263515 0.424471 0.020206 0.063206 0.332706 0.223706 -0.484294 -0.501294 -0.018794 -0.125294 -0.025794 -0.480672 -0.333872 -0.002190 0.096521 0.234263 0.419424 -0.167169 0.010793 0.282444 -0.337226 0.094775 0.316039 -0.008861 -0.000590 -0.317151 -0.493641 -0.111485 0.157485 -0.403029 -0.217794 0.189706 0.317206 0.319206 -0.230794 0.166206 -0.162294 -0.419294 0.181706 0.114636 -0.029200 0.452128 0.150551 -0.064250 -0.251054 -0.226736 0.474421 -0.310414 -0.106176 -0.234808 0.251688 0.060907 0.368916 -0.137160 -0.429602 -0.113497 0.062206 0.371206 0.069206 -0.484794 -0.514794 0.368206 0.000206 0.097706 0.203706 0.286706 -0.440794 -0.442294 0.162578 0.037467 0.192830 0.433672 0.013262 -0.354414 -0.329113 0.055256 -0.299664 -0.354551 0.025084 0.103624 -0.297603 -0.207040 0.457688 -0.416188 0.169706 0.322206 -0.235294 -0.473294 0.210206 0.350706 0.337706 0.212206 0.235206 -0.145294 -0.395294 -0.266294 0.437466 0.460508 -0.408536 0.120712 0.022925 0.081164 0.072272 0.319841 0.227540 0.021097 -0.345326 0.438301 -0.040988 0.194166 0.052587 0.169206 -0.502294 -0.195294 0.269706 -0.037294 -0.356794 -0.448794 0.006706 0.370206 0.197206 -0.139294 -0.122794 -0.272294 0.011928 0.000379 -0.018451 -0.028837 -0.237659 -0.130103 -0.395398 0.290192 0.452880 -0.043147 -0.106272 -0.027072 -0.509387 0.061869 -0.079913 -0.041294 -0.232294 0.268206 0.423706 -0.439294 -0.410794 0.209706 0.040706 -0.250794 0.056206 0.342706 0.415206 -0.451187 -0.500274 -0.189104 -0.205268 0.030851 0.106984 0.070371 0.288527 0.376275 0.444800 0.398857 -0.046854 0.188957 -0.352764 0.360236 -0.326294 0.430206 -0.285294 -0.110794 -0.316294 -0.222294 0.452706 -0.376294 -0.144794 -0.441794 0.129206 0.191206 -0.397294 0.480813 -0.170812 0.314195 -0.450796 -0.371901 -0.356099 -0.139077 -0.051338 0.261331 0.442151 -0.252890 0.149513 0.179566 0.439928 -0.381419 -0.115294 -0.397794 0.273206 0.075206 0.327706 -0.495794 0.259706 0.307206 -0.422794 0.228706 0.447706 -0.271794 0.303706 -0.128294 0.214706 0.201706 -0.130794 -0.439794 0.031706 -0.068294 0.478706 -0.034294 0.083206 -0.060794 -0.259294 -0.182294 0.201706 0.407206 0.292206 0.157706 0.320706 -0.306794 0.055206 0.110206 0.063706 -0.321794 -0.089794 -0.160294 -0.498294 0.004206 -0.415294 0.244706 0.249206 0.183706 -0.366794 -0.019294 -0.319794 0.019206 -0.163794 0.007206 0.246206 -0.168794 -0.510794 -0.375794 0.287206 -0.474294 -0.041294 -0.216294 0.449706 -0.232794 0.236706 0.065206 -0.244294 -0.191294
-0.300418 0.344082 -0.209918 0.126582 0.479082 -0.412918 0.426582 -0.419918 0.348582 0.192082 0.059082 -0.501918 0.468082 0.256582 0.034082 -0.179418 -0.441418 -0.424418 0.168582 -0.434918 -0.283418 -0.249418 -0.392418 -0.028918 0.051582 0.352582 0.255082 -0.195418 -0.287418 0.306582 -0.091418 -0.078918 0.159082 0.207582 0.335582 -0.074418 0.303582 0.270582 0.014582 -0.060418 -0.250418 0.361582 -0.053418 -0.273418 -0.094918 0.268582 -0.165418 -0.027418 0.353082 -0.487918 0.046582 0.357082 -0.449918 -0.058418 -0.163418 0.110582 -0.418918 -0.399418 0.424582 -0.197418 0.416082 -0.379918 0.011582 -0.137918 0.115582 -0.365918 0.296582 -0.072418 0.413582 -0.401418 0.154582 0.450582 0.247582 -0.389918 0.464582 -0.338918 0.387582 -0.191918 0.142582 0.027582 -0.392418 0.477082 -0.106918 -0.333418 -0.294418 0.239082 0.286582 -0.203918 0.127082 -0.001918 -0.113918 -0.169918 0.127082 0.406582 -0.019338 -0.245115 0.331822 -0.432678 -0.029678 0.253917 -0.328823 -0.370418 -0.011918 0.206082 -0.472918 -0.038918 0.376082 0.202082 0.278082 0.027082 -0.261918 0.394582 0.012582 -0.080918 -0.429918 0.227582 0.445582 0.144073 0.311130 0.081130 0.429630 -0.290452 0.202615 -0.152352 0.404144 -0.309392 -0.113297 0.240505 -0.236977 0.358056 -0.225875 -0.282375 0.275125 0.271145 0.211082 0.090082 -0.480918 0.095582 -0.199418 0.306582 -0.368418 -0.173418 -0.011918 -0.068418 0.254582 -0.154358 -0.332021 0.208979 -0.497432 0.270660 -0.418124 0.438083 0.261009 0.063948 -0.431006 0.173012 0.040891 -0.036812 -0.308273 0.083975 -0.174280 -0.246855 0.088582 0.388082 0.311582 -0.191418 -0.234918 0.340082 0.413082 0.075082 -0.066418 0.332082 0.410582 0.430650 -0.226576 -0.042864 -0.208712 -0.265834 0.452098 -0.424960 -0.492701 0.315976 0.299007 0.273850 -0.111096 0.376359 -0.269531 0.429397 -0.160760 -0.294855 0.020582 -0.047918 -0.253918 0.397082 -0.372918 -0.433918 -0.285918 -0.098418 0.193582 -0.364418 0.485582 -0.364350 0.478526 0.190163 0.361917 -0.459372 -0.352203 -0.348181 -0.222559 -0.395161 -0.490329 -0.211210 0.203573 0.315750 0.347858 -0.408172 -0.031711 0.356645 0.307082 0.094582 -0.429418 -0.384918 -0.444918 -0.174418 -0.479418 -0.308418 -0.320918 -0.256418 -0.119418 0.382097 -0.329210 -0.339922 -0.466499 0.434359 0.347588 0.169557 0.478013 0.277960 0.104382 -0.459909 0.167381 0.125254 -0.385078 -0.127835 -0.285711 0.461645 -0.249918 0.191582 0.326582 -0.434418 -0.205418 0.184582 -0.310418 -0.362418 0.297582 -0.502418 -0.383418 0.486082 -0.466934 0.013415 0.162007 0.485761 -0.051446 -0.030106 0.424220 -0.198764 -0.353339 0.188712 0.367009 0.264250 0.018045 0.038896 -0.117211 0.129645 0.194582 -0.115418 0.099582 0.453582 0.363582 -0.286418 -0.472418 -0.333418 0.185582 -0.494918 -0.408418 -0.007918 -0.486949 -0.276381 -0.229097 0.330155 0.011666 0.429264 0.320817 0.245000 -0.093012 0.032655 -0.443909 0.067670 -0.488380 0.207746 -0.174179 0.025082 -0.473418 -0.004418 -0.336418 0.230082 0.389082 0.272082 -0.029418 0.261082 0.273082 -0.213918 0.215582 -0.032418 -0.197712 0.100878 0.252699 -0.395370 0.100459 0.299864 0.215417 0.398167 0.237701 0.046186 0.157826 0.438325 -0.409734 -0.007063 -0.000179 -0.402918 -0.295418 0.112582 0.131582 -0.259918 0.395582 0.304082 0.258082 0.072082 -0.136918 -0.262918 -0.379918 0.424082 0.033924 0.350376 -0.315931 0.125143 -0.268599 0.434948 0.228722 0.335880 0.243761 -0.042607 0.248002 -0.225743 0.290362 -0.098132 -0.294228 0.376082 0.401582 -0.007418 0.260582 0.393582 0.392582 -0.320918 -0.357918 0.297082 0.270582 0.409082 -0.122418 -0.357418 -0.343571 0.008653 0.359745 -0.019676 -0.356376 -0.454381 -0.392103 -0.121001 0.268461 0.124747 -0.496463 -0.200113 -0.415645 0.025827 -0.153292 0.149582 0.434582 0.061082 0.034082 0.123082 -0.437418 -0.417918 0.025082 0.242582 -0.229918 -0.045418 0.048082 -0.450418 -0.347917 0.214972 0.481752 -0.404567 -0.487593 0.347232 0.082151 -0.339989 0.177029 0.196027 -0.176213 -0.272171 -0.182246 -0.399123 0.022758 -0.317418 0.133082 0.378082 0.341082 -0.145418 -0.273918 -0.337418 0.486582 -0.423918 -0.246418 -0.201418 0.328082 -0.188918 0.041566 -0.335409 -0.128817 0.202959 0.387717 -0.361839 0.304748 0.403571 0.268784 -0.324467 0.351271 -0.048106 0.146051 0.448313 -0.045242 0.248082 0.334082 0.486082 0.218082 -0.024418 0.151082 0.068082 0.339582 0.165082 0.018082 0.113082 0.250082 0.059082 0.421373 -0.133938 0.380379 -0.249195 0.039564 -0.461701 0.460908 -0.287443 -0.310547 0.057605 0.405408 0.237849 0.006021 0.030369 0.469758 -0.342369 -0.236418 -0.066918 0.193582 -0.393918 -0.072418 -0.079918 0.090582 0.366582 -0.503418 -0.282918 -0.181418 -0.197918 0.339967 0.356751 0.370732 0.048772 -0.268444 0.259778 0.308101 0.062726 0.089562 0.058464 0.054362 0.051987 0.389974 -0.039219 -0.204742 -0.098369 0.277082 -0.226418 -0.152918 -0.450918 0.215582 -0.450918 0.443082 0.430582 -0.021918 -0.179418 0.084082 -0.237418 0.047423 0.411851 0.073913 -0.325765 0.277715 -0.045493 0.015672 -0.477533 -0.495362 -0.393054 -0.141047 0.089487 0.162841 0.419707 -0.352869 0.058631 -0.333918 -0.048418 0.247582 0.230582 0.012582 -0.396918 0.067082 -0.263418 -0.338918 0.018582 0.454582 0.148582 0.126660 0.048187 0.198617 0.461849 -0.031171 -0.216992 -0.349878 -0.240611 0.247392 -0.059267 -0.443322 0.249920 0.050239 -0.078283 -0.376369 -0.280869 -0.372418 -0.441418 0.065082 -0.418918 -0.202418 -0.178418 0.099082 0.319082 -0.287918 -0.325418 0.343082 -0.338918 -0.019566 0.306623 0.097568 -0.382793 -0.135883 -0.189187 -0.407350 0.344823 0.094852 -0.481752 -0.398363 -0.154050 -0.034216 0.443635 0.380631 -0.477369 -0.126418 0.292082 -0.470918 -0.210918 0.359582 0.103582 -0.342418 -0.334418 0.212582 0.266082 -0.506918 0.212082 0.228081 0.345434 0.383319 -0.280202 -0.054808 -0.004805 -0.372565 0.315590 0.302420 -0.282835 -0.062896 -0.095621 -0.480291 0.044563 0.035147 -0.006418 -0.224918 -0.297418 -0.196418 -0.063418 0.282082 -0.158418 0.234582 0.150082 0.232582 0.179582 0.103082 -0.046418 -0.045664 -0.116039 0.454913 -0.306165 -0.477117 0.350191 -0.297568 -0.034922 -0.157865 -0.172489 -0.217511 0.429660 -0.170946 0.225740 -0.159903 -0.141918 -0.442918 0.162582 0.360582 -0.158418 0.153082 0.451582 0.287082 -0.056418 -0.198418 -0.191418 -0.397418 -0.456918 -0.502813 -0.005481 -0.214093 -0.254327 0.392666 -0.247427 -0.279743 0.412961 0.379896 -0.076618 -0.116525 -0.494108 0.036012 -0.049310 0.443097 0.373582 0.463582 -0.429418 -0.259918 -0.470418 0.242082 0.388082 -0.341418 -0.096418 0.126582 0.233082 0.356582 0.437684 0.330494 0.248456 0.270266 0.116639 -0.248722 -0.436387 0.363151 -0.355277 -0.403436 0.366340 0.341989 0.482659 -0.424958 -0.267458 -0.504418 0.118582 0.191582 0.226082 0.001082 -0.057918 0.305582 0.028582 -0.240918 0.056582 -0.295918 -0.073418 0.247582 0.339684 0.448167 -0.107181 0.066574 0.066467 -0.350643 -0.156143 -0.311972 -0.316005 -0.309352 0.334570 -0.386390 -0.205890 0.208507 0.463064 -0.438918 0.068582 0.481582 0.344582 -0.303918 -0.039918 -0.142418 -0.015418 0.411082 -0.327918 0.300582 -0.320918 0.016082 0.292082 -0.106918 -0.227918 -0.080918 -0.372418 -0.048918 -0.508418 0.199582 -0.115418 -0.158418 0.172082 0.075582 -0.181918 0.014082 -0.024418 -0.101918 -0.491918 -0.275418 -0.253418 0.085582 -0.285418 -0.400418 0.290582 0.183582 -0.255418 -0.437918 -0.117918 -0.074418 0.372082 0.070082 0.450582 0.172582 0.250582 -0.489918 -0.399918 0.387082 -0.029918 0.380082 -0.125918 0.363582 -0.491418 -0.445418 -0.273418 -0.164418 0.077582 0.211082 0.242582 0.094582 0.444582 -0.502418 0.468082

-0.081759
0.180065
-0.046607
-0.424765
-0.262676
0.396954
-0.227348
-0.316072
0.193206
-0.110418

-0.025710 0.571643 0.674222 -0.236318 -0.200518 0.458888 -0.207681 -0.264694 0.197844 -0.062577
-0.084701 -0.000159 0.719281 0.508433 0.304406 0.001354 0.054511 -0.156676 0.307741 0.296784
-0.197067 0.000099 -1.526707 0.117248 -0.174875 0.179568 0.311048 0.036244 0.012728 -0.387249
0.035056 0.000715 1.195696 -0.183229 -0.007390 -0.584276 -0.339066 -0.192584 -0.000724 0.337924
0.533278 0.000323 -0.465510 -0.472001 0.472368 0.033107 -0.214713 -0.103715 -0.027528 0.357336
-0.494890 -0.000964 -0.025647 0.161767 -0.136053 0.086413 0.212644 -0.345835 0.432338 -0.398194
-0.279137 0.000633 -0.581476 0.049167 0.149409 -0.012897 -0.317639 0.422003 0.445495 0.467120
-0.256934 0.000675 1.171235 0.412244 -0.015624 -0.071643 0.349913 0.147962 -0.529039 -0.244786
0.171236 -0.000867 0.293915 -0.406053 -0.009699 -0.035127 0.236798 -0.365014 0.144395 -0.015502
-0.333645 0.000619 -0.858766 0.033463 -0.273320 -0.090680 0.177358 -0.094530 0.325240 -0.005514

1.496427
0.001291
-0.000806
-0.005821
-0.002629
0.007850
-0.005153
-0.005492
0.007055
-0.005044
