0.051499 -0.071535 -0.330693 0.327330 -0.024436 0.043888 0.392306 -0.503563 -0.432910 0.401708 -0.468101 -0.484492 -0.475273 0.027554 -0.356318 -0.381110 -0.171157 0.327217 0.066629 0.152574 0.182272 0.340039 -0.249595 0.277122 0.124296 -0.293979 -0.387257 -0.066071 0.064286 -0.494602 0.200414 -0.374827 -0.056749 0.379108 0.461891 0.428203 -0.067616 0.363585 0.434028 0.008862 0.274681 0.475315 0.033758 0.308796 0.012258 0.186827 0.437074 0.350488 0.023432 0.013090 0.012450 -0.284907 -0.137483 0.272242 -0.498398 -0.503799 0.487651 -0.376267 -0.060482 0.061325 -0.361481 -0.350680 0.195886 0.091157 -0.462184 0.167165 0.028748 -0.020412 0.040138 -0.027836 -0.502162 -0.175794 -0.043133 0.040984 -0.357610 0.478513 -0.262801 -0.411149 0.338388 0.270019 0.111330 -0.139774 -0.505500 0.483235 -0.358144 -0.494511 0.488824 -0.361105 -0.361390 -0.062270 0.209608 -0.213484 0.096438 -0.085118 0.387062 0.143642 -0.408565 -0.074802 -0.367382 0.140960 0.406749 -0.360156 0.474555 -0.126996 0.190216 -0.373667 -0.139095 0.436802 -0.275428 -0.291319 0.216209 0.345289 0.078295 0.220096 0.337912 0.229539 0.234974 0.336124 0.377822 0.382971 -0.216758 0.096818 -0.321124 0.389067 -0.478911 -0.424675 0.042097 -0.378089 0.009910 0.184103 0.272260 -0.073952 0.333334 0.256202 0.308440 0.032938 0.391922 -0.321268 -0.020872 -0.374118 -0.103199 -0.295276 0.480559 0.484484 0.434209 0.327859 0.223411 0.178570 0.173370 0.110621 0.070929 0.465999 -0.283173 0.259193 0.364454 -0.252696 0.343906 -0.084061 -0.121397 -0.136796 -0.390571 -0.339750 0.298639 0.452151 0.425840 0.116467 -0.005523 0.327150 0.304587 0.482992 0.462420 -0.289224 -0.302896 0.452366 -0.295352 -0.359299 0.289613 0.437446 0.328326 -0.027963 0.057122 -0.089722 -0.051205 0.283073 -0.322776 -0.178734 -0.459971 -0.469150 0.246926 -0.071648 -0.096558 0.365743 0.097990 -0.288531 0.327282 0.033218 0.337323 -0.168853 -0.130244 0.151298 -0.176473 -0.158437 0.371461 0.030019 -0.196683 -0.414503 0.187973 -0.390080 -0.460067 0.026118 0.092040 0.100546 0.437529 -0.459736 -0.108101 -0.376537 -0.127791 -0.058018 -0.336299 -0.371477 0.379722 0.076531 -0.496347 -0.012900 0.297388 0.340323 -0.470294 0.144099 -0.319142 -0.091150 -0.195216 0.013772 0.266392 -0.304006 -0.437297 -0.418705 -0.210600 0.252777 -0.305343 -0.176328 -0.227728 0.276514 0.429930 -0.284149 0.328285 -0.167581 -0.151027 -0.290118 0.283789 0.022063 -0.152208 0.172898 -0.392018 -0.139167 -0.330614 0.414757 -0.289456 -0.291520 0.068243 -0.099210 0.133309 0.392776 0.426618 -0.101221 -0.420913 0.489267 -0.019450 -0.131296 0.239609 0.172166 0.198794 -0.481818 -0.041537 0.139155 -0.256308 -0.203864 0.480962 0.102054 0.015405 0.274138 -0.366496 0.372585 -0.043576 -0.249127 -0.257194 0.135198 -0.324982 -0.030670 0.361292 0.254284 0.373313 -0.008986 0.145260 0.308730 0.397226 0.231620 0.302378 -0.117646 -0.391538 0.050123 -0.437561 0.316365 0.077693 0.030289 -0.035093 0.330773 0.335812 -0.044743 -0.057785 -0.139395 -0.261218 0.085106 -0.257422 0.204594 0.345368 0.001363 -0.142594 -0.468592 0.466537 -0.288185 0.292974 0.352970 0.211218 -0.056074 0.163790 0.115527 -0.312958 -0.023612 -0.494917 -0.196287 -0.464101 -0.423090 -0.370534 0.122979 0.116586 0.103761 -0.036860 -0.038214 -0.431595 0.414743 0.331779 -0.183425 0.009237 -0.409664 -0.467809 -0.127782 0.095770 -0.103218 -0.090776 0.072190 0.113916 -0.296811 -0.079595 -0.168521 0.160035 -0.402991 0.453156 0.355095 0.082784 0.467627 -0.331804 0.128070 -0.446076 -0.192950 -0.239562 0.179898 0.420198 0.232966 -0.348927 -0.502009 0.163688 -0.501169 -0.167820 -0.316053 -0.406762 -0.136670 0.053125 0.190515 0.271299 0.461727 -0.243948 -0.116673 -0.324619 0.188408 0.221053 0.344160 0.294804 0.183596 0.208643 -0.113024 0.160611 0.386227 -0.475565 0.223923 -0.297335 -0.205740 -0.086791 -0.367749 -0.456795 0.080261 -0.352144 0.204732 0.076932 -0.027501 0.386383 0.171544 0.355960 -0.043950 -0.137562 0.119520 -0.082900 0.127738 -0.490618 0.102493 -0.174466 0.239823 -0.043959 -0.370274 -0.067193 -0.325928 0.026090 -0.397194 -0.430313 0.059913 0.336116 -0.218261 0.363560 -0.234695 -0.068396 0.411197 0.341506 0.072130 0.120695 -0.073174 -0.436654 0.024879 -0.394228 0.411428 0.474883 -0.022867 0.037837 -0.097165 -0.385477 0.056607 -0.485283 -0.050555 -0.194182 -0.019854 0.088559 0.248012 0.163605 -0.375963 0.360206 0.242680 0.193337 0.212301 -0.457967 0.067921 0.473546 -0.033692 -0.014822 0.327627 -0.442672 -0.376396 -0.239288 -0.386473 0.144831 -0.124164 -0.467720 0.130810 0.362886 0.079505 -0.456967 0.486797 -0.354500 -0.432863 -0.054371 -0.039295 0.056670 -0.456424 -0.281895 -0.270337 -0.322999 -0.405710 0.488323 0.381361 0.302164 -0.474677 -0.043629 0.287609 0.009635 0.455632 0.121215 0.059661 -0.424427 0.390288 0.180513 0.231166 -0.223960 0.222181 -0.128636 -0.351686 -0.188926 -0.076216 -0.355502 -0.034039 0.000309 0.099515 0.436055 -0.433634 0.152479 -0.329861 -0.187991 0.340502 -0.238372 -0.202713 0.228096 -0.426891 -0.162136 -0.300759 0.369064 0.340257 -0.348329 -0.002060 -0.090858 -0.262354 -0.102120 -0.400958 0.478200 0.183308 0.330611 -0.141049 0.341010 -0.348928 0.292123 -0.505105 0.126421 -0.198181 0.103798 0.071864 -0.115835 -0.227744 0.247817 0.195436 -0.384386 -0.475861 -0.491243 0.353003 -0.401616 -0.161612 -0.446718 0.474617 -0.310946 -0.284990 -0.018055 0.107583 -0.037957 0.389213 0.216013 -0.050369 0.081909 0.056012 0.317970 -0.067694 0.216472 0.119481 -0.063410 -0.147719 0.430688 -0.443633 0.444362 -0.169308 -0.162857 0.199771 -0.474676 -0.047320 0.216229 -0.468312 -0.188713 0.318344 -0.124964 -0.128357 0.302349 0.073478 0.096041 -0.206318 -0.309551 -0.432528 -0.307717 0.415851 0.026491 0.283579 -0.018750 -0.146152 -0.274726 -0.292891 0.482717 0.171251 0.071348 0.425705 0.232879 0.014163 -0.247258 -0.432458 -0.288283 -0.218426 0.023167 0.430121 -0.184872 0.340352 0.257853 0.199553 -0.278617 0.069590 -0.217581 0.326811 0.372660 -0.017744 0.403671 -0.425670 -0.092506 -0.060451 0.367297 0.398132 0.302785 -0.398042 -0.385371 0.294890 0.282597 0.192559 0.227071 0.022399 -0.286120 0.486288 0.096416 -0.067927 -0.225690 -0.372043 -0.128418 0.098826 0.477696 -0.361177 -0.192234 -0.291533 0.217801 0.099573 -0.455334 0.099848 -0.408784 0.457724 0.183566 0.008098 -0.093339 0.060251 -0.084382 -0.281166 0.171597 0.039635 -0.476888 -0.036418 -0.258183 0.259570 -0.504631 -0.034915 0.255246 0.101173 0.406546 -0.461057 0.238518 -0.212485 0.147157 0.225602 -0.064274 0.464311 0.443457 -0.337086 0.073272 -0.502490 0.272151 0.173876 0.464622 -0.034895 -0.308639 -0.119329 -0.465256 0.116367 0.108893 0.215729 -0.334611 0.141392 -0.311301 -0.083406 -0.089650 -0.306544 0.391067 -0.325016 0.304017 0.307001 -0.276685 0.051922 -0.396096 0.379860 -0.213088 0.049018 0.353559 -0.260243 0.221320 -0.063781 -0.253345 0.002858 -0.380518 -0.279335 0.477351 -0.179769 0.110724 -0.478518 0.445985 -0.270995 0.246599 -0.379238 0.379785 0.444686 0.046745 -0.200477 -0.352471 -0.052800 -0.016106 0.460934 -0.236411 0.216597 0.022244 -0.123120 0.105845 0.318544 0.435286 -0.031208 -0.432311 0.165993 0.414399 -0.176268 -0.321760 -0.456732 0.053785 -0.335022 -0.127113 -0.326103 -0.304152 -0.171740 -0.087711 0.451835 -0.041590 -0.198538 0.405908 -0.485457 0.110372 -0.437175 -0.028870 -0.396346 -0.466853 0.244107 0.329639 0.064779 -0.369625 -0.055128 -0.107289 -0.424952 0.423052 -0.030213 0.250429 0.346838 0.302907 0.438057 0.399494 -0.133921 -0.387577 -0.218231 0.049364 -0.182342 0.119417 0.471041 -0.221119 -0.412785 -0.218110 -0.305823
-0.391537 0.398967 -0.236293 0.088981 -0.487991 -0.193759 -0.157525 0.351036 0.380407 -0.017763 -0.194704 -0.217494 0.066673 -0.262265 0.261681 -0.173509 -0.406038 0.073976 -0.226065 -0.497156 0.449443 -0.104254 -0.206000 0.008194 0.222792 0.422805 -0.011377 -0.488939 -0.480592 0.279901 -0.285375 -0.360059 0.190939 -0.009598 0.240993 0.215018 0.308714 -0.404461 0.078125 0.201192 0.089847 0.395491 -0.504231 -0.331409 -0.354703 0.269521 0.007152 -0.248671 -0.144433 0.293158 -0.233756 -0.182920 -0.299025 0.072315 0.337346 0.435837 0.007191 -0.161961 0.458968 0.038670 -0.369989 -0.314336 0.190682 0.333020 0.188138 -0.056255 0.060109 0.008923 0.051355 -0.349695 -0.277814 -0.346728 -0.442134 -0.269974 -0.166066 -0.284766 -0.488383 0.353157 -0.021366 -0.120745 0.158386 0.256949 0.208406 0.371431 -0.158666 0.057822 0.319339 0.360596 0.407932 0.290378 -0.088664 -0.449986 -0.511887 -0.385911 0.395105 0.188322 0.069905 -0.032715 -0.290685 -0.366670 0.129660 -0.056428 -0.201327 0.199597 0.185668 0.144678 0.426902 0.209356 0.009906 -0.082393 -0.399319 -0.319637 -0.313374 0.321157 -0.436136 0.040031 -0.108950 0.395274 -0.087302 -0.188947 0.197723 0.336105 -0.126863 0.197907 0.462264 -0.219687 -0.101700 0.044239 0.259668 0.119686 0.189640 -0.098601 -0.424672 -0.499616 -0.386934 0.273067 0.157133 -0.447961 -0.005507 -0.320890 -0.018284 0.107245 -0.128457 0.180413 -0.059527 -0.052522 -0.267485 0.343533 -0.145237 0.156039 -0.333393 -0.435493 0.005350 0.050763 0.274618 -0.020124 0.344308 -0.315034 -0.463896 0.116047 0.316722 0.237815 -0.470484 0.404121 0.250270 -0.345347 0.189258 -0.080526 -0.281237 -0.304179 0.110654 0.212550 0.315137 -0.505732 -0.094966 -0.232320 -0.045535 0.149083 -0.378090 0.320734 -0.181700 -0.196054 0.399884 0.335675 0.365373 0.183309 -0.172528 0.222507 0.381101 -0.123456 -0.149375 0.209894 -0.373570 -0.107788 0.126085 0.388771 0.058936 -0.172586 -0.179684 0.289769 0.035306 0.443041 0.014390 -0.136839 0.450028 0.432416 0.149144 -0.078092 0.098466 0.283768 -0.243352 0.430979 -0.402323 -0.341226 0.271728 0.470081 0.353653 -0.386754 0.204659 0.246825 0.001861 -0.432646 -0.031211 0.140362 -0.028363 -0.393055 0.041203 -0.457356 -0.053570 0.373590 0.344484 -0.505059 0.332523 -0.125226 -0.125773 0.302266 -0.177791 -0.467247 -0.271683 0.431536 0.324510 -0.015762 0.355127 0.416163 0.147198 0.140944 0.398580 0.012922 0.266260 0.115309 -0.228183 -0.219808 0.194734 0.252677 0.432624 -0.321558 0.371693 -0.014101 -0.265708 -0.168672 -0.125755 -0.406460 -0.162148 -0.279503 -0.017264 0.220990 -0.481059 0.306020 0.260996 -0.250015 0.232152 0.075873 0.233793 0.099280 0.004372 -0.106939 -0.247705 -0.084977 0.418054 -0.469374 -0.457597 -0.298059 -0.177112 0.249208 0.466689 -0.232416 0.440856 0.353774 0.270548 -0.310913 -0.302114 -0.337414 -0.205553 0.037834 -0.129591 0.271100 -0.227063 -0.096339 0.084723 -0.467143 0.156392 -0.173883 0.120801 -0.097744 0.437468 -0.362756 0.307388 -0.298167 0.064337 0.237512 -0.255470 0.118811 0.451525 0.079489 -0.118776 0.433606 0.365273 -0.164203 0.298821 0.149856 0.037244 -0.502186 0.295951 0.321950 0.047010 -0.315274 0.113382 0.332056 0.095953 -0.293729 0.376984 -0.235584 0.044458 0.009856 0.178743 -0.006003 0.159171 -0.001798 0.207901 -0.264422 -0.252215 0.464502 0.367595 -0.285299 0.060005 -0.236303 -0.336243 -0.054552 0.113799 0.462985 -0.422953 -0.356829 0.467364 0.388865 0.483043 0.030879 -0.418052 0.106678 -0.124995 0.189972 0.325020 -0.235940 0.466459 -0.118451 0.285987 0.157273 0.387617 -0.042772 -0.332455 0.107589 0.208199 -0.069278 0.089238 0.088485 0.162917 -0.334295 0.363733 0.331276 0.105294 -0.016732 0.304065 0.183452 0.123891 0.267697 0.078095 0.119734 -0.189354 0.172114 -0.261517 0.197722 -0.125844 -0.424427 0.473853 -0.147314 -0.030807 0.271911 -0.477970 -0.131119 -0.255469 -0.295033 -0.506383 0.460631 0.147107 0.094035 0.063979 -0.190816 0.255476 -0.073479 -0.351884 -0.128812 0.404500 0.432183 -0.455263 0.037038 0.211951 0.134902 -0.331158 -0.465332 -0.180914 -0.080604 0.244461 0.205314 0.007040 0.230384 -0.429929 -0.511696 0.015501 -0.392507 -0.126093 0.270229 -0.179828 -0.126531 0.237833 0.468206 0.462716 -0.197750 -0.208540 0.248854 0.248507 -0.067428 -0.407170 0.148145 -0.123720 -0.350363 -0.302746 -0.399698 0.296610 -0.121833 -0.352960 -0.372233 0.309633 0.403571 0.345152 -0.171256 0.147162 0.430614 -0.166230 -0.326213 -0.454181 0.214157 0.450137 -0.130277 -0.411109 0.201193 -0.141676 -0.407552 -0.464308 0.156445 0.311145 0.265309 -0.400004 0.416046 -0.074476 -0.011653 -0.422246 0.134849 0.100719 0.386435 -0.474914 0.259830 -0.473726 0.346791 0.175472 0.386817 -0.309073 -0.166292 0.330920 0.036644 0.015151 0.374920 -0.251073 -0.018904 -0.231245 -0.125023 -0.288444 0.133147 -0.061008 -0.273598 -0.199287 -0.237792 -0.496218 -0.087220 -0.309675 -0.058623 0.413197 -0.219849 -0.411704 0.025987 -0.321343 -0.374547 -0.202112 -0.280813 0.487636 0.487788 -0.376501 -0.305836 -0.166446 0.443251 0.220818 0.364157 0.341411 -0.494935 -0.133061 -0.385028 -0.143931 0.064291 0.258952 0.307132 0.302764 -0.428264 -0.418589 0.318617 -0.003413 -0.216193 -0.227936 -0.078145 0.076028 -0.127568 0.459913 0.266269 0.011655 -0.227294 -0.501652 0.018928 -0.220392 -0.375520 0.205795 0.114888 -0.407693 -0.045577 -0.008012 0.430143 -0.060362 0.351568 -0.443648 0.307777 -0.072070 0.327375 0.126980 -0.257235 0.411182 0.220462 -0.426547 -0.080160 -0.483660 -0.142412 0.353766 0.104439 0.242781 0.328279 -0.112281 -0.232593 -0.386528 -0.102228 0.287925 -0.109531 0.032601 -0.000936 -0.487639 0.115809 0.448403 0.005620 0.058023 -0.099889 -0.130742 0.126446 -0.280041 0.309259 -0.034108 0.359010 -0.435905 -0.110855 0.091542 -0.350382 0.321055 0.119953 0.019968 0.187235 -0.259103 -0.222742 0.027929 0.139851 0.058129 0.152923 -0.460463 -0.152778 -0.457760 0.070806 0.353296 -0.434526 -0.301314 0.313769 0.083164 0.268779 -0.274049 0.464494 -0.092705 -0.042019 0.285823 0.385258 -0.170939 0.361989 -0.213527 0.432674 -0.476323 -0.380401 0.064697 0.055025 0.318562 0.319590 0.340532 -0.144655 -0.042900 -0.097772 -0.488109 0.004204 0.258522 -0.432356 -0.412919 0.123888 -0.354811 -0.202163 -0.050271 0.240424 -0.421313 0.187751 0.216988 -0.001947 -0.342198 0.014882 -0.104618 -0.001066 -0.111058 0.193925 -0.056321 -0.075310 0.325595 -0.479553 -0.508215 0.156227 0.345748 0.344389 -0.476357 -0.185082 -0.241313 -0.452395 0.331193 -0.470721 -0.372680 0.430345 0.165239 -0.215420 -0.259747 -0.372962 -0.462925 -0.168990 0.326859 0.266134 0.341134 -0.503268 -0.206913 -0.251413 0.007736 0.194099 0.454583 0.463486 -0.369140 0.292248 -0.503997 -0.365284 -0.039453 0.353821 -0.508824 -0.003740 -0.319190 -0.238067 0.055936 -0.475926 -0.196717 0.195327 0.466489 0.480593 -0.508023 -0.281187 -0.380299 -0.458877 0.061894 0.458631 0.319327 -0.084901 0.467434 -0.375516 0.175756 -0.012759 0.330654 0.142409 -0.037202 0.473585 -0.053271 -0.029129 -0.379628 0.419346 -0.163236 -0.376381 -0.072323 0.029645 -0.102377 -0.504317 0.065789 0.212977 0.203081 0.044349 0.205641 0.207129 0.275233 0.337413 0.260322 -0.150803 0.308115 0.091720 0.276367 0.287620 0.228275 -0.035806 -0.213068 0.071000 -0.381326 0.261800 0.056656 0.077473 -0.255258 0.189099 0.008890 0.093577 0.324789 0.448637 -0.364708 -0.265517 0.456392 0.213152 0.459531 0.171543 -0.230428 0.177242 -0.109257 -0.443125 0.026726 -0.336864 -0.081857 -0.153088 0.266926 -0.293419 -0.353398 0.007272 0.182845 -0.054396 -0.409657 0.313590 -0.280525 0.159070 -0.096866 -0.023712 -0.139760 0.424094
-0.404272 -0.289108 0.398595 -0.256910 -0.042555 0.367057 0.468312 -0.070953 0.050671 -0.250045 -0.381640 0.453484 -0.181100 0.157157 -0.371309 0.249114 -0.483860 0.407688 0.467765 -0.325188 -0.072970 0.162681 0.132488 0.029444 -0.011658 0.364034 -0.299416 0.403546 -0.147608 0.072895 0.339711 -0.053602 0.282065 0.236585 0.187767 -0.262211 0.101920 0.154358 0.165114 -0.349130 0.402591 0.281753 -0.397367 -0.280229 -0.062811 -0.270398 0.467163 -0.048393 -0.364431 0.433207 0.124698 0.060878 0.094167 -0.244536 -0.411400 -0.419213 -0.382223 -0.212537 0.482612 -0.031552 0.358636 0.320602 0.413125 0.138979 0.055465 0.099170 0.375046 -0.344337 -0.248193 0.038439 -0.195188 -0.347323 -0.181529 -0.094277 -0.129274 0.253939 0.133603 -0.163832 -0.296176 0.267451 -0.232346 0.326801 -0.173393 0.360099 -0.419456 -0.086515 0.439164 -0.303400 0.199226 0.420055 0.163326 0.056140 0.238935 0.074729 -0.306602 -0.207322 -0.327822 -0.433277 -0.053380 -0.077736 0.103441 0.249710 0.073219 0.420190 -0.346288 0.442224 0.172408 0.285594 -0.223329 0.374511 0.051323 0.042603 0.199590 0.376208 -0.099019 0.278413 -0.212028 -0.161576 0.473291 0.485477 -0.243243 0.134896 0.039896 0.493970 -0.292097 0.231572 -0.215073 -0.121640 0.296574 0.229826 0.298902 -0.101707 -0.022185 -0.129600 -0.183238 0.129805 -0.189097 0.487449 -0.086323 0.085852 0.360238 0.463279 -0.373266 0.058107 0.337765 0.025993 -0.165201 -0.375984 0.362696 -0.195353 -0.393950 -0.383990 0.437822 0.144224 -0.391741 -0.354275 -0.124204 -0.106814 0.022363 -0.329351 -0.378709 -0.180456 0.067220 0.097384 0.188223 0.382261 -0.274532 0.497404 0.367988 0.137424 0.081535 0.226505 0.098981 0.206548 -0.217110 -0.064974 -0.270902 0.114246 0.057320 -0.408206 0.420615 0.163370 -0.293918 0.356715 -0.192406 -0.183938 -0.497560 0.181668 0.207527 0.023082 0.350596 0.327096 0.340905 -0.083905 -0.077241 0.027406 -0.203366 0.146505 0.023089 -0.337099 -0.217792 -0.397097 0.387684 0.379468 0.306008 -0.332868 -0.187228 -0.463172 0.283099 0.368371 -0.373100 0.200272 0.030019 -0.167018 0.058708 0.335891 0.147323 0.059427 0.015838 -0.146872 -0.419212 -0.135288 -0.321497 0.419972 0.279085 0.099540 -0.054343 -0.426002 -0.255676 0.467025 -0.264822 0.023090 -0.433515 -0.378859 -0.097442 0.374214 -0.211727 0.213609 0.409320 -0.432070 0.078537 -0.465501 0.269922 -0.391444 -0.134241 -0.173091 0.442725 -0.488639 0.384615 -0.043158 -0.137233 0.463682 0.319833 0.039549 0.381933 0.097197 -0.362633 -0.174132 0.169474 -0.121751 -0.210550 0.402931 0.403060 -0.142343 -0.477650 -0.196104 -0.269850 -0.192820 -0.485938 -0.362252 -0.123169 0.094320 -0.329474 -0.354968 0.201154 0.034564 -0.029780 0.142158 0.044203 -0.146886 -0.402721 0.405249 -0.184925 0.415390 -0.056924 -0.304714 0.010866 0.078722 0.017712 -0.323103 0.456971 0.308883 -0.420172 0.358309 -0.335181 -0.401265 -0.341238 -0.106753 -0.092363 -0.325454 0.029274 0.282747 0.267144 0.198078 0.426058 -0.033424 -0.269079 -0.105443 -0.392987 0.273402 0.245950 -0.297430 0.176930 -0.440697 -0.383761 -0.381715 -0.248854 0.123663 0.195285 0.270579 0.302281 0.150535 0.076020 0.378666 0.005401 0.240838 0.479122 0.165885 -0.367636 -0.114962 0.338709 0.159916 -0.333937 0.104132 -0.143727 -0.409600 -0.431013 0.085472 -0.016764 -0.325722 -0.142847 -0.272536 -0.124873 -0.467639 -0.214954 -0.012076 -0.352797 0.034471 -0.388414 0.340766 -0.196672 0.412146 -0.010420 0.381070 0.292533 0.496702 0.120187 0.269934 0.160866 0.250829 -0.346750 -0.002146 -0.090977 -0.182408 -0.399736 0.263575 -0.093729 -0.332471 -0.152675 0.387785 -0.159914 0.202756 -0.386472 0.213492 0.231674 -0.104869 -0.300306 0.380598 0.431323 -0.188720 0.219643 -0.265349 -0.274852 -0.289055 -0.386001 -0.484041 -0.294074 0.232464 0.284172 0.365070 -0.018428 0.435701 -0.138797 0.388874 -0.248428 -0.040255 0.150727 0.156122 0.125553 0.496331 0.042186 0.463918 0.197366 0.153992 0.175688 -0.070960 -0.450877 0.373661 -0.193804 0.478724 -0.313338 -0.472439 -0.288347 -0.089911 -0.263216 -0.176069 -0.075673 -0.059011 -0.445326 -0.293223 -0.195662 0.034524 -0.359243 0.163819 -0.078323 -0.109392 -0.378157 -0.429318 -0.454992 0.245674 -0.434708 0.085473 0.207870 0.260937 -0.263978 -0.119885 -0.311744 -0.214855 -0.244503 -0.005548 -0.237853 -0.059562 0.020291 -0.027921 0.348806 0.255354 0.294288 -0.228589 -0.305379 0.347241 -0.023533 -0.002762 -0.119956 0.115503 -0.340665 0.299999 -0.495611 -0.220544 0.368960 -0.452324 -0.476591 0.430809 0.129706 0.227836 0.191746 0.367450 -0.390327 0.378280 -0.349127 -0.136551 -0.128990 -0.088701 0.302165 0.389580 0.381656 0.149250 0.143213 0.174223 0.418939 0.336113 0.019743 -0.106315 -0.168371 0.398065 -0.494255 -0.012478 0.194622 -0.491587 0.265256 0.061861 -0.445632 0.288665 -0.005609 0.185796 0.016501 -0.315584 0.051524 0.124453 -0.439025 0.200676 0.486180 -0.069736 -0.389747 0.286624 -0.181877 0.490188 -0.065848 0.459614 0.162690 -0.148630 0.294006 -0.319288 0.243333 -0.377807 -0.424666 0.247357 0.109714 0.271677 0.257491 -0.123308 -0.166462 0.311859 -0.336364 0.326208 -0.004067 0.178415 -0.491098 -0.454264 -0.198853 -0.431845 0.244691 -0.214395 -0.003302 0.353223 -0.429493 0.313099 0.341690 0.002938 0.270992 0.002658 0.352586 0.063277 0.181649 0.094198 0.185470 0.256983 -0.158445 -0.204816 0.026939 -0.402675 0.170155 0.358755 0.407462 0.332069 0.183242 -0.098326 0.008763 0.190423 -0.054311 0.308188 0.256857 -0.311341 -0.407928 -0.248167 -0.459840 -0.339142 -0.436789 0.380128 0.162074 0.332481 -0.118935 0.012939 -0.105963 -0.439008 -0.394585 -0.422215 0.316254 -0.054751 -0.128752 -0.158529 0.040852 -0.460319 -0.301495 -0.053407 0.370029 0.380026 0.346546 -0.122929 0.068727 -0.209487 -0.316462 -0.176138 -0.022549 -0.226112 0.073974 0.015889 -0.066976 0.135463 -0.105704 -0.406623 -0.033777 0.273640 0.104594 0.358538 0.332911 0.208288 0.434602 0.147443 -0.348184 -0.195872 0.487194 0.190946 -0.157912 -0.316022 -0.364182 -0.289604 -0.437718 0.480642 0.085745 0.129288 -0.230566 0.267562 0.451429 0.245163 -0.460272 0.023681 -0.240669 -0.028969 -0.342577 0.151906 0.062687 0.121925 -0.076176 -0.334440 -0.021258 -0.244986 0.372126 -0.088378 0.400736 -0.477779 0.214029 0.386208 0.211446 -0.445605 -0.431536 0.345542 -0.236930 -0.370975 0.324463 0.347094 0.256591 -0.407824 0.112934 0.206298 0.335618 0.150941 -0.271741 -0.406772 -0.379749 -0.116040 0.243412 0.181216 -0.495836 -0.334485 0.345054 -0.018816 -0.081193 0.215459 0.391085 -0.182179 0.235959 0.103392 -0.297692 -0.054317 0.156066 -0.230950 -0.210496 0.417414 -0.103647 -0.387755 0.262786 -0.348777 -0.297300 -0.126001 0.355800 -0.463404 -0.476782 -0.417663 -0.371898 -0.358253 -0.035424 0.369793 0.321242 -0.032982 -0.466414 0.164575 0.446481 -0.049328 -0.121687 0.335844 0.266771 -0.387450 -0.062485 0.467358 0.056512 -0.408141 -0.265313 0.344294 -0.492448 0.129319 0.454818 0.268616 0.278820 -0.344204 -0.359106 0.132899 -0.309329 -0.337610 0.213514 -0.182948 -0.197584 -0.323631 -0.314877 -0.378064 0.141666 -0.283012 0.284789 0.086426 0.165938 -0.338619 -0.079451 -0.069012 -0.227791 0.356342 -0.103376 0.326999 0.446479 0.129589 0.169572 0.452309 -0.242814 0.122668 0.219204 -0.465715 0.276743 0.358377 0.165462 0.465693 -0.480955 -0.122745 -0.218977 -0.180260 0.051903 -0.035575 -0.060046 -0.308152 0.179691 -0.276977 0.276552 -0.156092 -0.117318 -0.304621 0.273174 0.153169 -0.450000 -0.331923 -0.021553 0.494758 0.295945 -0.353703 0.445346 -0.448590 0.267244 0.162829 -0.416027 0.042266 0.019484 0.247714 0.006237 0.036808 -0.376752 0.285539 0.354826 0.173430
-0.267435 -0.222620 0.347877 0.410535 -0.001318 0.122708 -0.247279 0.379642 0.316366 -0.475826 0.031090 0.364645 -0.309471 -0.492185 0.357681 0.484753 -0.347609 0.301306 -0.465559 0.417914 -0.037587 -0.383307 -0.041542 0.480176 0.362685 0.462974 0.015262 0.484212 0.246792 -0.131633 0.155920 -0.506686 0.159704 0.017755 0.417806 -0.327657 -0.345580 -0.315516 -0.434058 0.484744 -0.277385 0.110989 0.363346 -0.072898 0.132762 0.234984 -0.074188 0.299110 0.050247 -0.025790 0.230981 -0.473383 0.104860 -0.296604 -0.479250 -0.018497 -0.319673 0.049969 -0.020328 0.441077 0.432293 -0.350451 0.448348 0.105955 0.181261 0.380111 0.292255 0.349639 -0.421447 0.372155 0.348340 -0.184874 -0.002899 0.225643 0.256185 -0.356180 -0.025416 -0.304046 0.456887 -0.461211 0.184122 0.201825 -0.420637 -0.197061 0.419178 -0.385929 0.298399 -0.386537 0.177997 -0.207972 -0.431503 0.124248 -0.044466 -0.469198 -0.255840 -0.349247 0.424871 -0.449628 -0.485652 -0.482619 0.436485 0.376645 -0.153536 -0.052457 0.116245 -0.383394 0.105320 -0.395213 -0.173483 0.076164 -0.342467 -0.475404 -0.208054 -0.249147 -0.158507 -0.274918 -0.121119 -0.346151 -0.147498 -0.429165 -0.040166 -0.065044 0.209040 0.429325 -0.020285 0.467157 -0.405965 -0.081457 -0.468513 -0.377659 -0.050119 0.481929 -0.487057 0.310302 -0.056571 0.143146 0.440865 -0.437293 0.261890 -0.218660 0.152828 0.433380 -0.180106 0.458732 -0.301809 0.175344 -0.302229 0.091129 0.343250 0.063028 0.174011 -0.185702 -0.489296 -0.102720 -0.240449 0.007106 -0.120066 -0.131784 0.439315 -0.074622 0.004514 -0.096846 -0.078735 0.031415 -0.272587 0.378651 -0.311482 -0.317764 0.455315 0.464365 -0.022467 0.122100 0.411703 0.311384 0.094994 -0.375944 -0.001616 0.303979 0.227158 -0.141942 -0.115268 -0.080829 0.190105 -0.085449 0.332060 0.463539 0.432576 -0.274716 -0.154955 0.385848 0.164620 0.363516 -0.197041 -0.400158 -0.091112 0.044329 -0.507550 0.111364 0.240522 0.461722 0.089686 -0.267987 0.097985 0.014943 -0.444947 -0.294067 0.154204 0.075558 -0.470397 -0.098869 0.449140 -0.068424 0.333264 0.147791 0.351424 0.173873 0.123224 0.297957 0.413115 0.482226 0.197763 0.091692 0.359700 -0.485321 0.205491 -0.217455 0.072966 0.211898 0.407866 -0.172554 0.187783 0.010246 0.072198 -0.196561 -0.450535 0.154934 0.032181 0.217134 -0.259427 0.068205 -0.371908 -0.305422 -0.497709 0.460313 0.348737 0.365759 0.148144 -0.014082 0.177673 0.075216 -0.017899 -0.110607 -0.319135 -0.144242 -0.081970 0.400313 0.152261 -0.495047 0.125765 0.072821 -0.154253 -0.168172 -0.390297 0.445087 0.147719 -0.340903 0.098677 -0.323529 0.386095 0.349578 0.253934 -0.492005 -0.460605 0.263781 0.482265 0.402089 0.143497 0.144366 -0.098036 -0.164873 -0.266461 0.398023 0.238478 -0.071639 -0.232262 -0.329535 -0.157773 0.433803 -0.311027 0.484551 0.029639 0.052958 -0.178103 0.137229 0.001238 0.479100 0.313599 -0.382470 -0.320497 0.193949 0.454755 0.431442 0.215901 -0.491893 0.209180 0.212124 0.424153 -0.133366 -0.129553 -0.159925 0.215718 0.117944 -0.247945 -0.031847 -0.440347 0.033597 0.151769 -0.084120 -0.016745 0.356305 -0.086078 -0.481612 -0.076214 0.250805 0.167749 0.444354 0.256709 -0.015174 -0.451415 0.427240 -0.307268 -0.482703 0.372639 0.422591 -0.460639 0.095777 0.148672 0.477471 0.476367 -0.466923 -0.168497 0.206043 0.164369 0.097157 -0.312044 0.239290 -0.355327 0.355674 -0.328585 0.148337 0.230578 0.098372 0.174713 -0.329093 -0.131073 -0.146540 -0.397103 -0.377380 0.352244 -0.334560 -0.436183 -0.441067 -0.303306 0.450414 -0.504519 -0.249988 0.060147 0.158111 -0.258559 0.050472 0.204787 0.086543 -0.228779 -0.115172 -0.301517 -0.027019 -0.360880 -0.132796 -0.148721 -0.170634 -0.476909 -0.411566 0.432652 0.198731 -0.248258 -0.189951 -0.433852 -0.131403 -0.053374 0.432349 0.047994 0.024400 -0.494760 0.258645 -0.011229 -0.485322 -0.477386 -0.437125 0.186388 -0.222346 0.128054 -0.091946 0.382975 0.415318 0.310456 -0.402377 -0.095577 0.459719 -0.022293 0.260531 -0.208927 -0.010978 0.347138 -0.263144 -0.298289 -0.387162 0.060862 -0.218184 -0.004608 -0.478555 -0.271878 -0.442657 0.059803 -0.252681 0.329945 -0.437469 -0.224653 0.366159 -0.360252 0.479313 -0.337395 0.284338 -0.097977 -0.440755 0.210431 -0.280229 -0.330700 -0.367031 -0.311675 0.135722 0.385956 -0.012480 -0.363880 0.247051 0.238333 -0.148212 0.373847 -0.186848 0.147562 -0.116804 -0.151445 0.389641 -0.045504 0.422315 -0.349690 -0.201755 -0.500812 -0.056390 -0.317220 -0.345324 -0.067678 -0.149584 0.446371 0.342069 -0.077086 0.181329 -0.418728 0.089598 0.299481 -0.232576 -0.265886 0.199394 0.268901 -0.115808 -0.039597 0.021191 0.249937 -0.151793 0.348301 -0.088544 0.245360 -0.289187 -0.184945 -0.286340 -0.353928 -0.019016 0.033289 -0.334545 0.433517 0.220694 -0.171871 -0.117508 -0.411197 -0.201440 -0.252234 0.016730 0.467523 -0.179969 -0.384210 0.280961 0.101413 -0.136139 -0.005688 -0.115729 0.262010 0.468672 0.419420 0.025905 -0.169164 0.281678 0.451318 -0.409596 -0.494743 -0.219626 -0.179190 -0.327783 0.275353 0.357062 -0.158155 0.222950 0.093420 0.193884 -0.372037 0.189376 0.481720 -0.133127 -0.281991 0.463200 0.200861 -0.152245 0.258118 -0.183769 0.225574 -0.233612 0.214460 0.001541 -0.250983 0.147837 -0.458597 0.093811 -0.057111 -0.494513 0.199062 -0.029424 -0.193075 -0.464376 0.151901 -0.406190 0.410567 -0.487860 0.333670 0.006773 0.195708 0.456920 -0.290034 0.191385 -0.162250 -0.058069 0.168542 -0.447431 0.303644 -0.059383 -0.117243 0.043175 0.220962 -0.388826 -0.441327 0.483936 0.272968 -0.385644 0.098881 -0.267158 -0.360686 -0.189198 0.216501 -0.041951 -0.142070 -0.126848 0.050860 -0.236892 -0.117953 -0.107361 0.283838 -0.408287 -0.136484 -0.492239 0.297054 0.215223 -0.036350 -0.020447 0.281749 -0.218749 0.434127 -0.321537 0.338383 0.169046 -0.196405 0.411086 0.173127 -0.403910 -0.456726 -0.223082 -0.159581 -0.306827 0.095778 -0.442948 0.150561 0.451439 -0.061464 -0.282174 -0.271496 0.334541 0.124422 -0.473700 0.440211 -0.498105 -0.451982 0.251223 0.231076 0.025625 -0.255267 0.026782 0.320833 -0.307182 0.219203 0.173174 0.375821 -0.463245 0.098145 0.060874 -0.358767 0.151106 0.343277 -0.009935 0.352693 -0.052626 0.061087 0.017829 -0.087230 -0.486420 0.249612 0.155231 0.362078 -0.112009 0.195488 0.316246 -0.096156 0.257463 0.081426 -0.351123 -0.202954 0.340117 0.189616 -0.368164 -0.453108 -0.077224 0.318967 0.436670 -0.026512 -0.068930 0.007346 0.128678 -0.403867 -0.135420 -0.367300 0.462783 0.325911 0.207744 -0.005430 -0.247362 0.235281 -0.241861 0.421827 0.111317 0.160087 0.131272 -0.058480 -0.422112 -0.097307 -0.463096 -0.259278 0.213696 0.390978 0.444295 0.359489 0.451827 -0.118971 0.192414 0.402454 0.368474 -0.362559 -0.076243 0.011109 -0.252469 0.302294 0.157766 -0.275728 0.142162 -0.120533 0.232799 0.408758 -0.371295 -0.495105 0.344542 0.253979 0.178939 -0.010228 -0.290544 0.270785 0.406422 -0.239683 -0.474536 0.134075 -0.334748 0.483717 0.007522 -0.368964 -0.121297 -0.286107 -0.452553 -0.238866 -0.134709 -0.014838 0.286200 0.126780 -0.198587 -0.042077 0.365009 0.457533 0.351347 0.111765 0.380248 -0.505991 0.130617 0.238747 0.261945 -0.176486 -0.257524 0.485358 -0.391744 -0.337145 -0.240367 -0.352323 0.310887 -0.061157 -0.354649 -0.167634 0.083836 0.038011 0.060217 0.145240 0.313102 0.439465 -0.355640 0.113259 0.080202 -0.040270 -0.414861 -0.040831 -0.068780 0.450443 -0.415109 -0.174575 0.458409 0.229466 -0.421871 0.234311 -0.433063 -0.165437 0.233626 -0.310850 0.011375 -0.492784 -0.149216 -0.163780 -0.039984 0.010093 0.182543 -0.442191 -0.437939 -0.243283 0.217007 0.389120 -0.289861
0.405819 0.046832 0.334794 -0.120494 0.145928 -0.192080 0.324684 0.110328 -0.093231 -0.335934 0.082693 -0.349808 -0.243848 -0.169039 -0.268914 0.104672 -0.421456 -0.065807 -0.369996 -0.400282 0.298934 -0.019819 0.073691 -0.177016 -0.323318 0.145458 -0.100998 -0.052644 -0.123578 -0.197920 0.171452 -0.234297 0.332373 -0.010291 0.128671 -0.038237 0.281091 -0.063184 -0.444448 -0.328679 0.084344 0.121708 -0.195025 0.323958 0.436131 0.019522 -0.087907 0.498137 0.437177 0.025559 -0.418683 0.219573 0.489202 0.138470 -0.473981 -0.350655 -0.232610 -0.091517 0.080163 0.127273 0.194025 -0.264923 0.376438 0.009860 0.208248 -0.011429 0.455085 -0.027200 0.408849 0.494099 0.127583 -0.023345 0.099269 0.416020 -0.215925 0.018861 -0.080996 0.179630 0.000460 -0.160357 -0.311350 0.065239 -0.457322 -0.338686 -0.312829 -0.447841 -0.205879 -0.061978 -0.055896 0.357746 -0.451243 -0.378409 -0.423715 0.408657 0.114913 0.267994 -0.119310 0.053460 -0.275744 -0.226999 0.031021 0.335301 0.233118 -0.386249 0.234783 0.500655 0.116075 -0.362751 0.163747 -0.400003 -0.039647 0.335860 0.148697 -0.013507 0.480636 0.319330 0.022114 -0.241782 -0.259186 0.449679 -0.400574 -0.226967 -0.445268 -0.340827 -0.334847 0.153107 0.410629 0.029305 -0.309971 -0.381653 0.285768 0.204512 0.437110 0.002348 0.301725 0.155355 -0.013535 -0.098739 0.276065 -0.366326 -0.015280 -0.280120 0.452996 -0.383121 0.189835 0.417093 0.419671 -0.013167 -0.036775 -0.216562 -0.354390 -0.329578 -0.071773 -0.119129 -0.151912 0.112963 0.303315 -0.221613 -0.438177 0.476806 -0.119804 0.331053 0.164779 -0.199232 -0.183137 -0.050034 0.439585 0.286790 0.334689 0.199112 0.403926 -0.197129 0.402455 0.340384 0.002236 0.461593 0.142958 -0.338847 0.032108 0.290953 -0.311094 0.036281 -0.795319 0.268042 -0.534898 -0.075689 -0.232845 0.303623 0.237904 -0.104539 0.263891 -0.398438 -0.290024 -0.087868 -0.114207 0.010300 0.345560 -0.191160 -0.219448 0.163710 0.491414 -0.332060 0.549068 0.759183 0.393805 -0.191208 0.006724 0.296272 -0.122200 -0.586594 -0.309714 -0.538754 -0.648513 0.231719 0.201168 -0.474961 -0.365902 -0.321506 0.312124 0.355464 0.057416 0.059476 0.440489 0.250854 0.455070 -0.190257 -0.255384 0.284091 0.102044 0.008630 0.030288 0.321603 -0.110834 -0.361870 -0.115156 -0.091183 -0.214984 -0.049091 -0.398607 -0.534003 -0.143440 0.053549 -0.727467 -0.741168 0.059253 -0.349550 -0.467497 0.176813 -0.187595 0.328089 0.015739 0.353284 -0.128973 -0.060310 0.087599 -0.190441 0.232895 0.315677 -0.446297 0.063084 -0.066876 0.038986 0.385186 1.024699 0.177885 -0.680961 -0.083950 -0.356095 -0.789727 0.296048 0.001800 -0.359589 0.273064 -0.407536 -0.352125 -0.184221 -0.273624 -0.336159 0.476054 0.022243 0.475391 -0.024745 -0.141011 -0.170119 0.398407 0.430050 0.099492 0.267148 0.436154 0.694468 0.900783 -0.101548 -0.425570 0.555511 0.421270 0.134447 -0.721059 -0.517776 -0.069648 -0.313108 -0.119538 -0.255422 -0.189236 -0.363012 -0.179496 -0.057898 -0.063772 0.030342 0.089404 -0.104256 -0.463953 0.048258 0.354461 -0.121502 0.239166 0.101898 -0.311250 -0.114606 -0.226662 0.437933 -0.043322 -0.248837 1.043046 -0.458803 -0.690719 0.265766 -0.035816 -0.457267 -0.060781 0.200612 -0.286913 0.303143 0.428652 0.007313 0.423593 -0.267382 0.432877 -0.156717 0.246423 0.005743 0.222489 0.265932 -0.584972 -0.173045 -0.332591 0.478634 -0.513232 0.039684 -0.210567 0.119663 -0.269962 -1.103072 -0.066325 0.108319 0.278750 0.296772 -0.185897 0.439279 0.322967 0.236785 0.123354 -0.480484 0.023390 0.035468 0.010291 -0.069556 0.251548 -0.073370 0.257189 -0.018567 0.182378 -0.257287 -0.253364 0.439539 0.290136 0.089307 0.423744 0.208734 0.314572 -0.381869 -0.007079 -0.208713 -0.132976 0.152158 -0.029089 -0.247695 -0.067608 0.268476 -0.324954 -0.261179 -0.011277 0.281861 -0.258202 0.495574 -0.199209 0.235552 -0.090520 -0.464199 -0.574784 -0.570296 0.003475 -0.444808 -0.261871 0.018008 0.079080 0.418511 -0.128598 0.322328 0.059682 0.331882 0.427079 0.177181 0.340513 -0.105619 -0.187199 -0.205114 0.130148 0.228655 -0.453176 0.288655 0.450937 0.019008 0.053979 -0.323802 -0.001956 0.338232 0.285807 0.170559 0.079421 -0.481591 -0.752316 -0.124500 -0.917155 -0.129145 -0.909551 1.419105 0.112352 0.324754 0.542589 0.390799 0.300743 0.074626 0.160905 0.124718 0.452468 0.457168 0.403066 0.066078 0.169285 0.433351 -0.161805 0.103684 -0.064179 0.375636 0.140909 0.295924 -0.067715 -0.009653 -0.086133 -0.066851 -0.224167 -0.175960 0.006012 0.556901 0.306956 1.500090 0.491350 -0.062502 0.434609 -0.109581 0.030684 0.218814 0.448507 -0.324949 -0.173006 0.384437 -0.384320 -0.286478 -0.066023 0.268427 -0.369665 0.255634 0.129359 0.202001 0.248391 -0.317684 0.305259 0.145073 -0.194261 -1.031507 0.008076 0.881669 1.100170 0.436205 -0.277895 -0.260303 0.034555 0.184796 0.410858 -0.047374 -0.441322 -0.074996 -0.345098 0.490646 0.083516 -0.034642 0.358546 0.182659 0.162341 -0.224016 -0.065453 0.438901 0.480142 0.259298 -0.019432 0.377711 0.618368 -0.302668 0.167046 0.440988 0.780947 0.711329 0.813944 0.341674 -0.159415 0.429329 -0.191530 0.358602 0.097587 -0.297211 -0.205310 0.139726 0.111255 -0.066946 0.113835 -0.321767 0.381874 -0.044158 0.344354 0.146123 0.134414 -0.440946 -0.340820 -0.012473 -0.847857 -0.337091 -0.403467 0.382382 -0.136167 -0.036037 0.057842 -0.257844 0.362739 -0.184732 -0.329810 -0.313214 -0.271942 -0.037878 -0.471150 0.309107 0.148373 -0.192998 -0.067705 -0.256910 0.223518 -0.470408 -0.095215 0.088853 0.155532 -0.161474 -0.101931 -0.745545 -0.571335 -0.724139 0.083715 0.253893 0.633613 -0.279428 -0.189953 -0.275886 -0.171284 0.226999 -0.050268 -0.325083 -0.474271 0.103384 -0.154835 -0.262751 -0.451033 -0.142522 -0.470183 0.180802 0.147942 -0.054426 0.407354 -0.145078 0.145264 0.012549 0.583270 0.518873 0.195947 0.449632 -0.573959 0.322111 -0.128725 0.410933 -0.084607 -0.217505 -0.447077 0.248818 -0.009929 -0.134899 -0.040721 0.423264 0.023480 -0.031530 0.010109 0.352107 0.189181 0.042539 -0.306953 0.202460 -0.293197 0.324450 -0.368504 -0.402381 -0.337166 0.073585 -0.123317 -0.264014 -0.031967 0.371809 -0.432314 0.013588 0.328824 -0.083969 -0.092456 -0.249404 0.181988 -0.056071 0.482876 -0.344480 0.292492 -0.074383 -0.437754 -0.200567 0.377549 0.055817 -0.364998 0.050191 -0.418182 -0.188489 -0.263887 -0.227917 -0.380577 -0.148930 -0.146836 -0.234281 0.408118 0.213308 -0.177287 -0.140388 0.068579 -0.126139 0.356662 -0.119135 0.273354 -0.252332 0.114923 -0.061196 0.175059 0.081260 0.077786 -0.048987 0.490339 0.123494 0.233908 0.351350 -0.337227 0.352372 -0.114997 -0.271947 -0.352655 0.104577 -0.016403 -0.249771 0.439109 0.320223 -0.000590 0.330689 0.016993 0.305586 -0.326237 -0.430966 -0.337091 0.513887 -0.066639 0.419725 -0.254983 -0.468254 -0.158009 0.403538 0.096468 0.403239 -0.161988 0.070269 0.010195 -0.444618 -0.094919 0.156430 0.391216 0.273545 0.367944 -0.477978 -0.138416 -0.164997 -0.244286 -0.215845 -0.361312 0.238586 -0.401694 0.139143 0.027633 -0.244469 0.191638 0.174004 -0.247120 -0.391538 0.077190 -0.018641 -0.376331 0.402643 -0.131641 0.203600 0.289343 0.189833 -0.242669 -0.217000 0.228677 0.145873 0.422891 0.103354 -0.097120 0.274297 0.108839 0.247926 -0.407237 0.348014 0.515543 -0.285087 0.070062 -0.402689 0.337517 -0.418843 -0.163696 0.012617 0.238623 0.072646 0.104541 -0.200725 -0.462533 0.211672 -0.314621 -0.110712 -0.101266 0.458185 -0.437418 0.139526 -0.275354 0.274721 -0.231139 -0.369000 -0.138463 0.155203 0.388759 0.453837 -0.113409 0.464984 0.285314 -0.114404 -0.336642 -0.161163 -0.033630 0.484337
-0.116449 0.266231 -0.039489 -0.394364 -0.177661 -0.451486 -0.111628 -0.156732 0.243648 0.057213 0.216018 -0.374157 -0.001140 0.262062 0.248832 0.206968 0.020244 -0.498845 0.321430 0.365243 0.139820 0.193650 0.302542 -0.490127 0.142096 0.071318 -0.121069 0.288916 0.393617 0.328763 0.256715 -0.219465 0.098360 -0.279407 -0.110462 0.424067 -0.227526 0.281277 -0.229298 -0.480511 -0.158142 0.490087 -0.351301 0.344085 0.255516 0.400898 0.054421 -0.220873 0.405420 -0.120783 -0.352262 0.048607 -0.423765 0.453647 0.061847 0.221698 0.028332 0.444145 0.013981 -0.074683 0.276275 -0.225937 0.209220 -0.121997 -0.001977 -0.397875 -0.194564 0.273863 0.386770 0.079506 0.296719 -0.268005 0.072960 0.448785 -0.420553 -0.168158 0.353050 0.137235 0.114337 0.261837 -0.480180 0.265442 -0.186189 -0.400578 0.222456 0.379025 0.324487 -0.245844 0.326538 -0.158165 0.182840 0.106180 0.119265 -0.104573 0.487549 -0.379345 0.000919 -0.203647 0.397885 -0.108945 0.379226 0.197972 0.126417 -0.044448 0.150124 0.209232 0.290762 0.006542 -0.150166 -0.091534 -0.228254 -0.126980 -0.322725 0.088925 -0.024191 0.403098 -0.028683 -0.196336 -0.339379 -0.198778 0.148866 0.346828 0.410769 -0.228502 -0.254378 0.401685 -0.104480 0.249908 -0.298594 -0.203227 -0.355670 -0.416002 -0.501888 0.274115 0.042918 0.151603 -0.013286 -0.162953 -0.338488 0.339915 0.248881 -0.063374 -0.283698 0.429523 -0.471083 0.195479 0.335988 0.003602 -0.497491 -0.500023 0.308191 0.152972 0.348403 0.222153 0.431205 -0.399241 0.127379 -0.171504 0.352437 0.332152 0.128636 -0.499865 0.419517 0.130115 0.277617 -0.034197 -0.214914 -0.232302 0.306217 -0.050035 -0.389020 0.058465 0.389958 -0.169351 -0.008645 0.422242 -0.472275 -0.171060 -0.072559 -0.466399 -0.167715 -0.255923 0.194746 -0.313025 0.466463 0.126456 -0.209876 0.097209 0.458319 -0.354072 -0.067272 0.090322 -0.350570 -0.144388 -0.276196 0.430414 0.324782 0.012257 -0.298521 0.134366 0.465589 -0.184174 -0.303802 0.358915 0.148072 0.189150 0.288005 0.185484 -0.470573 -0.278520 0.222453 -0.134973 -0.035981 -0.082156 0.053382 -0.068932 -0.451886 0.346872 -0.468356 -0.490200 0.496168 -0.032261 0.103489 -0.351035 0.326718 0.330660 -0.417254 0.154868 -0.153715 -0.212408 -0.207399 -0.184759 0.106785 -0.004300 -0.319199 -0.235577 -0.312598 0.465466 0.447714 -0.284848 -0.311951 0.170485 0.080161 0.150489 -0.407467 -0.362644 -0.415076 -0.355986 0.487596 -0.380064 -0.342819 0.487130 0.091042 0.264036 -0.360538 -0.078873 0.098064 -0.274425 -0.420638 0.447716 0.016535 -0.121136 -0.230844 -0.372417 0.370865 -0.052786 -0.107595 -0.438726 -0.085321 -0.161219 -0.221572 0.105246 -0.486276 0.362849 -0.240898 -0.390376 -0.496428 -0.152606 -0.242995 0.494535 -0.029303 -0.082447 0.485033 -0.434894 -0.315044 -0.372138 -0.010400 0.286387 -0.139663 0.075608 0.238366 0.377857 0.451027 -0.492839 -0.492531 0.325536 -0.043522 -0.100525 0.388868 0.377105 0.243025 -0.328444 -0.014282 0.260116 -0.462228 0.248188 0.373107 -0.455289 -0.401051 -0.366521 -0.457387 0.073013 0.054399 -0.468987 0.141486 0.242722 -0.334225 -0.360418 0.033818 0.021968 0.213185 -0.222807 -0.098973 0.164820 -0.215653 -0.088086 -0.007275 0.244951 0.316158 -0.114148 0.125424 0.062550 0.060775 -0.385491 -0.173968 0.101913 0.366064 -0.297493 0.149992 0.468381 -0.160647 0.195972 0.044761 0.397118 0.233885 -0.305257 0.146434 0.399188 -0.169133 -0.318975 -0.075396 -0.455739 -0.044209 0.326896 0.208861 0.242941 -0.256422 -0.294601 -0.008740 -0.436897 0.094618 -0.379950 0.129020 -0.341240 -0.262073 0.458419 0.264041 -0.392642 -0.335707 -0.082600 -0.420894 0.007013 -0.378132 0.132363 -0.089020 0.350203 0.318452 -0.448087 0.248912 -0.344158 -0.259713 -0.325499 -0.304668 0.195591 -0.494140 0.407561 -0.058101 -0.247195 -0.383673 0.436525 -0.180725 0.214313 -0.440057 0.451662 0.376440 -0.198763 0.413448 0.143848 -0.088038 -0.418891 -0.430255 -0.000435 0.096312 -0.313675 -0.375527 -0.498073 -0.460112 0.453891 -0.434621 0.296383 -0.397446 -0.200346 0.469962 -0.198300 -0.501388 0.479189 -0.287372 -0.056122 -0.264639 -0.167678 -0.116230 0.058003 -0.449998 -0.052919 0.013032 0.429809 0.251685 -0.070152 0.080506 -0.329708 0.014073 0.143296 0.163098 -0.390768 0.333147 0.295266 -0.381111 0.378286 0.244759 -0.322382 0.170074 0.351573 -0.018914 0.143404 -0.343360 -0.016935 0.125960 -0.127365 0.430310 0.364688 0.208324 -0.182552 -0.073941 0.261693 0.267895 0.442458 0.198351 0.026572 -0.126038 -0.226593 0.193380 0.393416 0.423636 -0.136493 -0.489847 0.263325 -0.342601 -0.376265 0.138473 0.406672 -0.194387 -0.188085 0.261612 0.290066 0.458686 0.421619 -0.223502 0.088013 -0.202380 -0.289825 -0.043932 -0.490689 0.030990 0.385494 0.274372 -0.195893 0.329557 -0.027129 0.329275 -0.288932 0.251946 0.027619 -0.388667 0.182175 0.390149 -0.384076 -0.058294 -0.448392 -0.256081 -0.416454 0.461647 0.052898 -0.101172 0.226626 -0.153669 -0.139119 0.151612 0.126197 0.452261 0.452599 0.339739 -0.088304 0.463508 -0.124447 -0.198433 0.240801 0.177499 -0.366527 -0.282777 0.015407 -0.148559 0.472896 -0.460422 -0.040571 0.155205 0.433788 0.079166 -0.399722 0.488763 0.326452 -0.312809 0.453778 -0.117283 0.089386 0.183771 0.232416 0.453634 -0.161250 -0.138020 0.409262 -0.207053 -0.296684 -0.174218 -0.235628 0.083814 0.129514 -0.488937 -0.232654 0.268579 -0.268595 0.280202 -0.380803 -0.290930 0.324295 0.081993 0.367642 0.261450 -0.335474 0.471287 0.253581 0.494345 -0.338155 0.210726 -0.119570 0.254598 -0.102136 -0.383787 0.211599 0.239981 -0.018389 0.124025 -0.458657 0.192845 0.454753 -0.192374 -0.224323 0.083545 -0.182093 0.044928 -0.146236 0.053380 -0.171057 -0.023671 0.265817 -0.343395 -0.438311 0.136827 0.421422 -0.270418 0.111481 0.178370 -0.272706 0.276694 -0.107537 0.111091 0.034659 0.293693 0.230723 -0.250323 0.037093 -0.284350 0.377273 0.078473 0.408978 0.332509 0.386634 -0.311726 -0.080586 -0.292092 0.236569 0.276545 0.264655 -0.431121 -0.243759 0.033840 -0.271149 -0.178703 -0.325966 -0.346359 0.054246 0.288882 0.335378 0.284907 0.068943 -0.268793 -0.100635 -0.393030 -0.471732 -0.366597 -0.140037 0.068677 -0.147631 -0.259449 -0.349483 -0.235286 -0.423572 -0.459481 -0.043645 -0.000791 -0.248206 -0.303710 -0.220879 -0.480183 -0.231463 0.038730 0.057023 0.000755 0.363394 0.234424 0.157763 -0.078993 0.026674 -0.003493 -0.290719 -0.401016 0.231082 0.112014 -0.290679 0.262717 0.248784 0.072651 -0.165239 -0.395480 0.316569 -0.011354 -0.127399 0.396364 0.032532 0.332323 -0.101059 0.287693 -0.468019 0.181429 0.310877 -0.196116 -0.276474 -0.128733 0.308006 -0.409713 -0.390941 -0.030864 0.014661 0.139100 0.469011 0.227309 0.241451 0.203460 -0.157310 0.454140 -0.030456 -0.405159 0.030158 0.307672 -0.297272 -0.149906 -0.200315 0.078697 -0.250174 0.335584 -0.085613 0.152134 0.126644 -0.050266 -0.163070 -0.059112 0.256986 0.063824 0.315522 0.068359 0.157478 0.427948 -0.459137 -0.324494 0.070415 -0.486759 0.406182 -0.184766 0.220068 -0.247761 -0.227259 -0.307021 -0.149552 0.306266 -0.495982 0.056544 -0.340273 -0.192929 -0.361393 -0.087080 -0.353978 0.056361 -0.431579 0.276033 -0.490537 -0.091281 -0.279712 0.269816 0.475909 -0.460823 -0.158458 0.136754 0.470492 -0.114228 0.315627 0.044275 -0.097620 0.225177 0.362875 -0.374185 0.480783 -0.361017 -0.177839 -0.165402 0.448616 -0.170453 0.394509 -0.388290 0.139985 -0.463516 0.027998 0.289374 0.096212 0.099786 0.068774 0.109042 -0.488128 0.292429 -0.117775 0.491149 0.334973 0.227134 0.131270 0.308833 -0.383726 -0.049735 -0.143525 0.022021 -0.321191 -0.277283 0.151204 -0.337040 -0.134932 0.476732 0.000925
-0.179582 -0.186987 -0.097831 -0.064505 0.456365 -0.057980 0.466860 0.249106 -0.458401 0.070014 -0.178753 0.154008 0.085253 -0.382956 -0.460400 0.079769 0.455384 0.270101 -0.285593 0.267584 0.389742 0.168039 -0.372574 -0.084870 0.350216 -0.146489 -0.430299 -0.483457 0.221946 -0.450200 0.020835 -0.457636 -0.137187 0.423004 -0.022141 -0.180821 -0.134976 -0.055281 -0.431715 -0.093377 -0.485267 -0.110467 -0.439370 0.099987 0.006576 -0.399770 -0.320244 -0.038039 0.370331 -0.105837 -0.270455 0.260073 -0.437798 -0.143029 -0.324797 0.412418 0.210482 -0.255096 0.428960 -0.067572 -0.205296 -0.050205 -0.025209 0.157518 -0.127201 0.452651 0.476697 0.237823 -0.102630 -0.455018 -0.355554 -0.087897 -0.065486 -0.294924 -0.487910 0.441090 -0.194694 -0.308154 -0.096949 -0.324364 0.086009 0.132596 0.435709 0.148211 0.489567 -0.389088 0.060628 0.200049 -0.144184 -0.010411 -0.367523 0.150521 0.439384 0.107268 -0.191962 -0.187817 0.059919 -0.215265 -0.449993 0.457289 -0.170284 -0.305548 -0.130608 0.264230 -0.100472 -0.118518 0.205321 0.204834 0.073328 -0.391628 0.380470 -0.340663 0.240968 0.316179 0.307548 0.230535 0.427091 -0.131824 -0.069416 -0.217092 0.357765 0.063060 0.433428 0.297149 -0.329671 -0.258534 -0.390668 0.230247 0.026201 -0.340661 0.187536 0.355918 -0.146209 -0.443071 0.120148 0.253319 -0.061589 -0.174531 -0.041847 -0.488261 -0.066159 -0.161377 -0.328924 -0.325192 -0.345198 0.478624 0.405343 -0.418106 -0.153200 -0.164073 -0.135198 -0.295435 0.398987 -0.201770 -0.498287 -0.430685 0.039696 -0.388955 0.299563 -0.434103 -0.229616 -0.012901 0.421815 0.124175 0.044028 0.041963 -0.122506 0.482439 0.367432 0.335647 0.494179 -0.198727 -0.325730 -0.334745 -0.023919 -0.170928 -0.356121 -0.118576 -0.089034 -0.009321 0.217351 0.275768 0.195244 0.116337 -0.426002 0.196957 0.185653 0.113694 0.308002 -0.014784 0.179591 -0.421613 0.472315 0.101406 0.202562 0.016343 -0.356631 -0.419944 -0.001218 -0.489199 0.415703 -0.007039 -0.187926 -0.410027 0.158216 0.288155 -0.080954 0.302095 -0.330421 0.330012 -0.207226 0.386929 0.105780 0.488018 0.003267 0.179777 0.184975 -0.311081 -0.206529 -0.007023 0.174135 0.473062 0.071364 0.146450 0.074468 -0.226075 -0.337207 0.217838 -0.146019 0.161575 0.228639 -0.230316 -0.345464 -0.459288 -0.140342 0.312752 0.328867 0.278703 0.114847 0.498446 0.108715 0.407621 0.385375 -0.285505 0.395639 -0.111359 0.394272 0.080613 0.077561 -0.312257 -0.426409 -0.248304 -0.339195 0.144954 0.398146 0.235273 0.418880 -0.439061 -0.046889 -0.227139 0.222514 -0.318251 0.042546 0.377050 -0.277538 0.402203 0.189802 -0.448671 0.180906 -0.195351 -0.450225 -0.210378 -0.287730 0.435150 0.004116 -0.392091 -0.176209 -0.101612 0.188522 0.401352 0.086131 0.262113 -0.346952 0.246936 -0.092933 -0.448806 -0.017791 -0.174053 -0.387867 0.435320 0.098808 0.334646 -0.382930 -0.358647 0.211696 -0.160468 -0.456443 -0.098502 -0.109139 0.224463 0.206147 -0.059365 -0.485915 0.418417 -0.124215 0.018201 -0.473674 0.199576 0.416590 0.214849 0.100928 0.002721 -0.023038 0.253975 -0.250343 0.384029 0.305169 0.231867 -0.290024 0.417301 0.167187 0.308784 0.251948 0.284257 0.450137 -0.036356 -0.376212 0.493694 0.365143 0.014649 0.218157 0.071290 0.455284 0.232242 -0.010293 -0.168931 -0.249557 0.016034 -0.469355 -0.332967 -0.269117 0.131573 0.169754 0.207844 -0.114452 0.419411 0.091873 -0.309283 0.151277 0.301849 -0.391982 -0.181536 0.110633 0.359966 -0.397279 0.060770 -0.176390 -0.273491 0.054464 -0.311247 0.241158 -0.227379 0.260043 0.196442 -0.495137 -0.250250 -0.472488 -0.244694 0.265784 -0.441843 -0.077661 0.496666 0.189730 -0.407908 0.204511 -0.424722 -0.488497 -0.203616 -0.234006 0.162780 -0.401767 -0.125987 0.481245 0.208866 -0.266021 -0.416034 -0.230364 0.057589 -0.189525 0.324099 0.246342 -0.448367 -0.403280 0.006384 0.248075 -0.398417 0.256134 0.275587 -0.143111 0.021918 0.333743 0.279227 0.018584 0.023473 0.371320 -0.276905 0.098751 0.382823 0.019478 0.364745 0.045603 0.117711 -0.261242 0.026848 -0.173423 -0.027264 0.110813 0.096213 -0.469675 0.421288 -0.079688 0.276667 0.472921 0.017032 -0.216949 0.220996 0.118616 -0.460815 -0.003417 0.475504 0.061103 -0.169674 0.254732 -0.420313 0.353799 0.126052 -0.197218 -0.047450 0.008874 0.322260 -0.182705 -0.445523 -0.060028 0.056053 0.081325 0.266549 -0.471211 -0.307862 -0.137239 -0.440885 -0.386574 0.283074 0.335782 -0.413653 -0.199894 -0.381167 0.307343 0.418721 -0.341982 -0.196074 0.394226 0.219121 0.134252 0.148958 0.298809 -0.011949 -0.224990 -0.398409 0.440601 0.283884 0.423851 -0.242104 0.338361 -0.136177 0.313949 -0.080315 -0.369628 0.342739 0.111823 -0.006867 0.401853 0.225249 -0.223793 0.237635 0.311596 0.076312 0.356468 0.118939 -0.004966 -0.485514 0.422865 -0.110740 0.233607 0.057116 -0.461782 0.032415 -0.454833 -0.186773 0.134006 0.485768 -0.402889 0.057857 -0.256336 0.435472 0.421680 -0.442386 -0.144843 -0.447949 0.400352 0.466980 0.045184 0.302205 0.192229 0.321391 0.039840 0.003826 -0.102296 -0.103692 -0.377235 0.392737 -0.089206 -0.454371 -0.218003 -0.355600 0.102746 -0.179785 0.176816 0.147913 0.133443 -0.189178 0.133682 0.230554 0.368679 0.377346 0.166025 0.290358 0.434960 -0.478818 0.342410 0.335312 0.488162 -0.112406 0.137517 0.180392 -0.291015 -0.322642 -0.315783 0.106689 0.073666 -0.193018 -0.000574 0.484459 -0.147389 0.281424 -0.371140 0.455357 -0.398361 0.305676 0.103271 0.235082 -0.383503 -0.263048 -0.034365 0.485176 -0.385701 -0.368339 0.275535 -0.450742 -0.347157 0.117945 0.384570 -0.358995 -0.494461 0.022088 0.321397 -0.285476 0.199445 -0.494386 0.321213 -0.226889 -0.187404 -0.179361 -0.242429 0.165207 -0.397937 -0.113569 0.120564 -0.296298 -0.307894 -0.276165 0.438784 -0.191396 -0.039213 -0.095581 -0.206220 0.075086 0.036080 -0.430685 0.124344 0.188923 0.187259 0.008914 0.329928 0.192798 -0.468998 0.151325 0.407322 0.230447 0.156939 0.228535 -0.496442 0.469535 -0.450825 -0.238871 0.134742 -0.348762 0.147559 -0.244693 -0.145060 0.339666 -0.020858 -0.206276 -0.351731 0.439929 0.198144 -0.057951 0.015015 -0.265776 0.011364 -0.360641 0.423146 -0.301377 0.148274 0.253074 0.391421 0.179275 -0.095601 0.298743 -0.090277 -0.438662 0.027278 -0.086719 -0.469127 0.076453 0.174410 0.165615 0.227691 -0.178031 0.420922 -0.417368 -0.338365 -0.099936 -0.123644 -0.190095 -0.160007 -0.425501 0.251954 0.355008 -0.191277 -0.236682 0.494367 -0.268131 -0.038059 0.142640 0.484943 -0.146638 -0.178084 -0.110658 -0.347895 0.231639 -0.049320 0.179384 -0.355080 -0.018447 -0.244163 0.319330 -0.352832 0.483528 -0.358701 -0.431910 -0.433840 -0.197066 -0.031846 -0.057484 0.112839 0.308147 0.017015 -0.135207 0.163155 0.325738 0.128111 0.157521 -0.442393 -0.409948 -0.199838 -0.457449 -0.056586 0.122078 -0.068107 0.095519 -0.146283 0.382573 -0.225097 -0.001364 -0.135874 0.030740 -0.182034 0.011294 0.014268 -0.040734 0.079385 0.080427 0.262200 -0.452462 -0.477057 -0.124961 0.355685 0.039958 0.239832 0.018840 -0.134304 -0.132057 -0.323639 -0.076697 -0.042005 -0.023477 -0.034146 0.401409 -0.401399 0.397747 -0.003072 -0.047682 0.280320 0.271830 0.450954 -0.355554 -0.197430 -0.231080 0.155740 0.316838 0.228186 -0.264875 -0.102735 -0.009614 -0.217337 -0.079792 0.365425 -0.361652 0.460166 0.105257 0.157188 -0.174138 0.473200 0.333549 0.249166 -0.068805 -0.189928 -0.284980 -0.167397 -0.091327 -0.387233 0.329531 0.360991 0.393087 0.101361 0.311945 -0.462467 0.403931 -0.419135 0.193273 0.220769 0.309051 0.428398 -0.381966 -0.200563 -0.288938 0.038242 -0.335138 -0.150590 -0.001592 0.270119 -0.493402 0.324271 0.243319
0.336518 0.069808 -0.329115 -0.353409 0.284827 0.003488 0.055264 0.397594 -0.166981 -0.083745 0.290681 0.434381 -0.271800 0.328213 0.338312 -0.190935 0.021487 0.059081 -0.381883 -0.050115 0.177114 -0.082446 0.160946 -0.284644 0.082416 -0.489644 0.213764 -0.147465 -0.483046 0.038035 -0.404146 0.357102 -0.388528 -0.229632 -0.492679 0.399928 0.277485 0.066214 0.301151 -0.385866 0.486098 0.095461 -0.447857 -0.282073 -0.072697 0.394084 0.030621 0.452419 -0.043206 0.152367 -0.094067 -0.362463 -0.426450 -0.429492 -0.143477 0.159596 -0.415507 -0.426084 -0.484240 -0.394923 0.115581 -0.384757 0.465807 0.230681 -0.110760 0.476757 0.134239 -0.329645 0.046600 -0.060981 -0.211883 0.036327 -0.461891 -0.156110 0.257883 -0.030959 -0.258397 -0.207866 -0.074911 0.202026 0.448130 0.334651 0.343193 -0.474690 0.408788 -0.296656 0.188535 -0.503090 -0.219110 0.207924 -0.394384 0.400099 0.326796 -0.424948 0.134410 -0.280335 -0.444562 -0.227723 -0.106351 0.105668 0.214925 0.185395 -0.354376 0.256663 -0.467086 0.407137 -0.270666 -0.221854 -0.297100 0.158052 0.483801 -0.345341 -0.003668 0.330622 -0.316402 -0.091251 -0.462404 0.375761 -0.090711 -0.177885 0.087314 0.018534 -0.274157 -0.082261 0.097215 0.363882 0.141033 0.156282 -0.360212 -0.461689 -0.234421 0.358343 0.227335 -0.085168 0.118635 0.263878 -0.174402 0.351598 -0.454347 0.032126 0.013279 -0.466917 0.190414 -0.486760 0.367334 0.377641 -0.074382 0.408559 0.257032 0.338536 -0.265697 -0.152025 -0.139301 -0.036225 0.269343 0.461542 -0.168714 -0.085994 0.121454 -0.025297 -0.044054 0.390662 -0.163325 -0.313090 -0.190877 0.458939 0.454417 0.138350 0.314166 -0.496301 -0.325895 -0.168926 -0.459589 0.368149 -0.152057 0.411374 0.249419 0.277191 0.323562 0.010351 0.119626 -0.438235 0.361955 0.483954 0.028898 0.134656 0.448854 0.363813 -0.447709 0.073937 -0.157855 0.011866 -0.031772 0.182449 0.202405 0.280980 0.145018 0.160451 -0.077042 -0.037187 0.167780 0.100693 0.297517 0.211820 -0.027529 -0.350640 0.127094 -0.274210 0.429909 -0.045985 0.239499 0.053164 0.019409 0.104541 0.040205 -0.448335 -0.257174 -0.007311 0.419107 -0.201254 -0.429745 -0.235119 0.314240 0.042111 0.450959 0.020274 -0.173280 0.099607 -0.315645 0.253308 -0.433951 0.355764 -0.142371 0.366664 0.070682 0.332927 -0.478985 -0.297232 -0.436021 0.455355 0.161485 0.306004 0.009973 -0.317924 -0.086097 -0.446193 -0.262630 0.160358 0.050125 -0.339894 0.462733 0.124009 -0.071384 0.280603 -0.330251 -0.116795 -0.195494 0.000098 0.486440 -0.007510 -0.242965 -0.444413 -0.148649 0.119396 0.428847 0.425922 -0.045151 0.450484 -0.365806 0.024333 0.407564 0.294957 -0.168480 -0.078835 0.480663 0.249053 -0.021398 -0.278338 -0.086960 -0.467645 -0.114603 -0.120598 0.159993 0.317642 -0.336366 0.333371 -0.295524 -0.028231 -0.162901 -0.305184 0.470063 0.099667 -0.245728 -0.177423 -0.279393 -0.313413 -0.244231 0.181141 -0.359119 -0.110599 -0.295248 -0.449831 -0.312012 0.039901 -0.025036 -0.327720 -0.207417 0.457194 -0.102429 0.209252 0.493179 0.286597 -0.407717 0.156801 0.107868 -0.240454 -0.006198 0.315973 0.235215 0.334800 -0.485853 0.205659 -0.062605 -0.227128 -0.466260 0.161140 -0.037534 -0.209128 -0.158170 0.103167 0.183902 0.050211 0.156965 0.375519 -0.406258 -0.364442 -0.448573 -0.110046 -0.403618 -0.047373 -0.397165 -0.406810 -0.257147 -0.301253 0.253620 0.354351 -0.038078 -0.248678 0.174224 -0.297759 -0.409577 0.192533 0.410565 0.030664 0.467428 0.447704 -0.308376 -0.068382 -0.257795 0.037083 -0.461586 0.429736 -0.409077 0.199009 0.308884 -0.311706 0.338196 0.363941 0.081876 0.438207 -0.179803 0.188340 -0.464974 0.066680 0.390987 0.292546 -0.074537 -0.142258 -0.451832 -0.393326 0.062567 -0.358303 0.297601 -0.025393 0.172181 0.268658 -0.074060 0.367434 -0.296094 0.171775 -0.091854 -0.254051 0.105140 0.002698 0.448587 -0.082347 0.194620 0.290412 -0.214777 -0.219875 0.232248 0.109320 0.472365 0.270903 -0.320110 0.365637 0.067888 0.110083 -0.269744 0.119566 0.213518 0.290357 0.260813 0.014749 -0.231408 -0.063377 -0.212964 0.198162 -0.192314 -0.005429 -0.126434 0.219461 0.244150 0.482335 -0.274213 0.196366 -0.096383 0.424037 -0.009593 0.192740 -0.292209 -0.273184 -0.194321 -0.317308 -0.499454 -0.011333 -0.444402 0.075172 -0.398685 -0.216453 -0.307728 0.316558 -0.422467 0.456714 -0.165064 -0.150245 -0.103034 0.125601 -0.448454 0.208281 -0.376198 -0.071260 -0.068629 0.371580 -0.085296 0.160787 0.071575 0.322221 0.088453 -0.434388 0.018027 0.299582 -0.204766 0.327357 0.489012 -0.196109 -0.179507 -0.455771 0.374852 -0.078372 -0.168595 -0.429247 -0.258184 -0.087433 -0.468904 0.080381 0.265951 -0.068309 -0.290389 0.321126 -0.356399 -0.162958 -0.246505 0.078600 -0.287749 0.172099 -0.254808 0.289360 -0.002593 0.336020 0.357618 -0.478660 0.140616 -0.341974 0.351443 0.129247 -0.040550 -0.328244 0.177104 -0.162069 0.097014 -0.487861 -0.087686 0.342458 -0.071665 -0.052961 -0.073532 -0.302085 0.382358 0.139708 -0.477330 -0.470412 0.480379 -0.219934 0.113993 -0.301566 0.455252 0.357661 0.486542 -0.043441 0.197461 0.349844 -0.019094 -0.160580 -0.492851 -0.167831 0.472296 -0.029772 0.007554 0.153029 0.311788 -0.391803 0.168797 -0.272269 0.454284 -0.399239 0.178399 -0.115619 -0.197695 0.064386 -0.472282 -0.171395 0.097874 -0.486099 0.114204 -0.287481 -0.288917 0.071180 -0.422683 -0.295509 -0.467269 0.275962 -0.446115 0.013458 -0.380989 -0.435338 0.349256 -0.405064 0.038519 -0.139560 0.251594 -0.146063 -0.027734 -0.075980 0.085297 -0.069821 0.028410 -0.232676 0.318189 0.334344 0.334538 0.348734 -0.332320 -0.062325 0.365993 0.283338 0.154354 -0.420668 -0.143226 0.232022 -0.213650 -0.108770 0.011613 -0.156136 0.408317 0.134253 -0.087845 0.261202 0.232818 0.454303 -0.374729 -0.011960 -0.188131 0.101166 0.415689 0.400795 -0.465026 -0.052272 -0.329054 0.355990 -0.215101 -0.490085 0.209155 -0.044894 -0.049884 0.077675 -0.258227 -0.392201 0.162240 0.102176 0.343450 0.452219 -0.502965 -0.141308 -0.200288 0.408981 -0.503426 0.215496 0.173812 0.233021 0.173428 0.302712 -0.275309 0.488926 -0.092493 -0.355991 0.393350 -0.053891 0.095366 -0.431273 -0.193470 0.384696 -0.416926 -0.479884 -0.155767 0.037621 0.102222 0.089635 0.149049 -0.231908 -0.304561 -0.003872 -0.276060 -0.303897 0.358449 0.027280 -0.391287 0.358653 -0.253595 0.286155 0.095303 0.423462 0.092496 0.323623 0.416017 -0.496369 0.471261 0.312996 -0.046631 0.070255 0.385353 0.263528 -0.041420 0.472056 0.287274 0.306442 0.013306 -0.106875 -0.100294 -0.334017 0.164845 0.098774 0.165741 0.392414 0.298507 0.027819 -0.076677 0.410849 -0.109899 0.173357 0.200633 0.489033 0.100448 -0.203242 0.316285 0.020094 -0.195982 0.291174 -0.163280 0.261016 -0.134941 -0.274298 0.028174 0.327268 -0.298613 -0.180924 0.137340 0.218321 0.215830 -0.459325 0.387934 -0.115695 0.143078 0.057303 -0.219652 -0.054786 -0.411249 0.207300 -0.140308 -0.017519 -0.115714 -0.436046 -0.024857 0.488364 -0.135659 -0.204943 0.012087 0.171987 -0.410140 0.352436 -0.063367 -0.041452 -0.418233 0.468435 -0.210555 -0.213217 -0.208859 0.430414 -0.491267 -0.489400 0.474718 0.400296 -0.101467 0.121425 -0.038771 0.182510 -0.429732 0.053609 -0.106561 -0.066411 -0.460280 0.281355 0.001172 0.018492 0.273347 0.369141 0.317178 -0.210936 0.044758 0.410668 -0.354871 0.485020 -0.127155 -0.269475 0.457084 0.165919 0.020937 -0.248146 0.099963 0.033299 -0.233918 0.078309 -0.062775 0.168245 -0.296637 0.402082 -0.145616 -0.222740 -0.040679 0.251452 0.214477 0.002670 0.036436 -0.280722 -0.475209 -0.186588 -0.407951 0.345598 0.106105 0.140436 0.259895 0.254863 0.129084 -0.363631
0.478068 0.078849 0.294969 0.002634 0.334331 -0.101440 -0.460437 -0.395957 0.480499 -0.019584 0.275917 -0.312509 -0.113872 -0.366070 -0.031621 0.349078 0.389011 -0.313514 -0.144624 -0.070924 -0.090607 -0.116204 0.246118 0.005071 -0.266976 -0.144148 -0.350864 -0.503453 -0.385656 0.281849 -0.363455 -0.393011 -0.124725 0.446091 0.124201 -0.275816 -0.140771 0.178341 -0.157196 -0.145695 -0.326665 -0.366702 0.056374 0.074041 -0.218195 -0.460669 -0.062304 -0.314606 -0.259606 0.307650 0.129048 0.164365 -0.293977 -0.110257 -0.315987 -0.046375 0.260172 -0.152274 -0.035250 0.389093 -0.355847 0.115872 -0.489340 0.034005 0.076541 0.149439 0.272766 0.450348 -0.157642 -0.369852 -0.180769 0.030270 -0.221976 0.390182 -0.381111 0.074406 0.444090 0.071162 0.274378 -0.300938 -0.106611 -0.081997 0.378004 0.113990 0.322323 -0.423405 -0.417808 0.097072 -0.061102 0.061519 0.000743 0.097628 -0.308031 0.025980 -0.353789 0.283088 -0.310004 0.433555 0.248013 0.046931 -0.421720 -0.418178 -0.408221 -0.129119 -0.513419 -0.274755 0.459865 0.445249 0.310984 0.248821 -0.341112 -0.281049 -0.318599 -0.448530 0.347518 -0.481699 -0.357358 0.444288 0.129951 0.096118 0.020384 -0.354729 -0.291676 0.226931 0.185829 -0.130888 0.024596 0.390402 -0.182755 -0.212814 -0.048089 -0.089898 -0.116415 0.058267 0.295561 -0.115256 0.298089 0.270004 -0.155430 0.123651 0.033402 0.018036 0.357179 0.229381 0.084083 0.219275 0.262260 0.307202 0.298095 -0.205245 -0.264388 -0.314008 0.076089 0.093861 0.538000 -0.227798 0.458588 -0.006217 -0.327977 -0.209590 0.295547 0.138511 0.215090 -0.306290 -0.288645 0.025229 0.093031 -0.475978 -0.190189 0.452179 0.162250 0.357791 -0.015208 0.034007 0.138311 -0.353913 -0.084953 -0.190564 0.209433 0.546253 0.236048 -0.258956 -0.024257 0.030225 0.309599 -0.328339 0.177004 0.268547 0.165805 0.349387 -0.426465 -0.024071 0.002475 0.303202 0.184217 0.228407 -0.156991 -0.208175 0.267007 0.167397 -0.241419 -0.056165 0.076327 0.303532 -0.360394 -0.251540 0.306081 -0.254783 -0.155551 0.076955 -0.033530 0.023285 0.419940 -0.006760 0.280655 0.240333 0.124868 -0.063109 0.023458 -0.194750 -0.199145 0.111570 0.295757 0.317908 -0.070650 -0.005449 0.060892 0.286936 0.300954 -0.157523 0.005473 -0.346694 0.477195 -0.469780 0.365395 0.399774 -0.345493 0.125293 -0.329449 0.659921 0.231675 -0.067257 -0.264034 -0.019072 0.329332 0.410219 -0.358474 -0.031223 -0.138312 0.179561 0.288604 0.177120 -0.194291 0.098939 0.009605 0.249636 -0.391932 -0.414925 0.083360 0.502793 0.094805 -0.486378 -0.456630 -0.193952 -0.532302 0.163704 -0.362023 0.141926 0.449986 -0.176336 -0.367444 -0.438475 0.068443 -0.296012 -0.037281 -0.087648 -0.371215 0.118822 0.395706 0.005050 -0.187039 0.198888 -0.303252 0.133247 -0.187595 0.220931 -0.070328 -0.049018 0.363154 0.547346 -0.137217 -0.387156 -0.498785 -0.222225 0.202814 0.149633 0.149171 0.377690 0.075854 0.408037 0.350635 -0.037135 0.484140 -0.066345 0.181431 -0.038564 0.360585 0.324793 -0.405164 0.270868 -0.155579 -0.077625 -0.015666 0.055746 -0.434152 0.301175 -0.160038 0.095949 -0.198653 -0.322213 0.154104 0.058484 0.067222 -0.022649 -0.060997 0.676977 0.187560 -0.133828 0.141005 -0.489424 -0.211214 0.006218 -0.011982 -0.212496 0.454451 -0.315974 0.263517 0.329613 -0.476603 0.372931 0.115058 -0.117605 -0.194469 -0.432734 0.576922 0.006934 0.405440 -0.250007 0.583117 -0.896560 -0.512296 -0.290848 1.212464 0.432745 0.434954 0.456703 0.329309 -0.016797 -0.162548 -0.015108 0.008356 0.140816 -0.494312 -0.489048 0.442897 0.474716 -0.290444 0.220992 0.318906 -0.252470 0.061797 -0.044106 0.199303 0.433706 0.078052 0.109030 -0.495347 -0.554506 0.192844 -0.267803 0.745442 -0.113632 0.128885 0.154775 -0.353970 0.011080 0.126055 -0.510083 -0.491140 0.478085 -0.010613 0.031794 0.133478 0.009652 0.057323 0.090953 -0.001055 0.281457 -0.166125 -0.160219 -0.455690 0.476544 0.308714 0.181844 0.008502 -0.289708 0.195586 -0.520529 0.697692 -0.242718 -0.038352 0.209387 0.042149 -0.339794 -0.121260 0.202757 0.185863 -0.480627 0.207252 0.209300 -0.487964 -0.288784 -0.244329 0.160091 0.235446 0.327572 -0.184674 -0.243680 0.081254 0.128506 0.139924 0.045250 -0.379810 0.166815 0.214833 -0.132221 0.584086 0.341945 0.185589 0.240201 -0.514332 -0.217568 -0.020246 0.042394 -0.042785 0.373071 -0.240271 -0.342345 0.407022 0.481558 0.381533 0.433635 -0.292648 -0.348218 0.103952 0.501289 -0.494365 0.437434 -0.147134 0.250930 0.080098 0.185839 -0.422955 -1.031568 -0.027306 0.392021 0.026956 -0.440969 -0.000869 -0.141834 0.344985 -0.000623 0.155175 -0.160684 -0.443651 -0.373032 -0.273035 -0.169345 -0.200799 -0.351436 -0.173210 -0.304688 -0.431206 0.064651 -0.101486 0.225073 -0.061389 -0.343925 0.147821 0.607549 -0.250615 -0.524422 0.071745 -0.199712 -0.310217 0.353360 -0.383545 0.364037 0.458143 0.130163 -0.263219 0.317706 -0.355882 0.406534 -0.328401 -0.284956 -0.451920 -0.086859 0.060277 -0.138142 0.076283 0.331311 0.140392 0.096210 -0.160016 0.301512 0.362812 -0.108025 -0.156607 -0.699835 0.203976 -0.172469 -0.343639 -0.148112 0.238671 -0.007552 -0.228739 0.369703 -0.128937 -0.256019 0.014444 0.122422 -0.423735 0.173140 0.043533 -0.237559 0.402762 0.106190 0.190160 -0.035086 0.516847 -0.189109 -0.019104 0.298044 0.712759 0.345810 -0.045459 0.011453 0.453676 0.316138 -0.029622 0.173643 -0.242365 0.228923 -0.424044 -0.489116 -0.264051 -0.138206 0.395165 0.121589 0.120353 -0.075813 -0.241412 0.211195 -0.388096 0.316699 -0.511786 -0.470756 -0.047142 0.188538 -0.123242 -0.116648 -0.599877 0.308721 -0.586067 -0.719839 0.072311 -0.158675 -0.181837 0.220493 -0.042270 0.428662 -0.091286 0.229943 0.172162 -0.000753 0.255405 0.422688 0.375619 0.165148 0.058855 0.010549 -0.396088 0.332020 -0.263678 -0.269606 0.178689 -0.222948 -0.115936 -0.321670 0.395554 0.223293 -0.078860 0.300088 0.111213 -0.010237 0.471190 0.087027 -0.323762 -0.114082 -0.177902 0.148546 -0.170843 0.245389 -0.106933 -0.484103 -0.240786 -0.336950 0.453162 -0.350590 0.342775 0.026594 0.174537 0.461264 -0.126808 0.425437 -0.293764 -0.448934 -0.320872 -0.012541 -0.319015 -0.359652 -0.180164 0.260150 -0.395304 -0.410925 -0.127910 -0.430014 0.190679 0.062906 -0.029519 -0.472645 -0.273971 0.314216 0.287322 0.133674 0.344691 -0.438887 0.311301 0.312430 -0.274899 0.168653 -0.146398 0.414216 0.144495 0.241372 0.354230 0.365309 0.307016 -0.452064 -0.125085 -0.497422 -0.297138 0.209329 0.277305 -0.177864 0.312981 -0.336028 -0.093301 0.018238 0.241455 0.391758 0.060170 0.482062 0.220552 -0.137930 0.130313 0.079820 -0.062239 -0.043808 -0.093172 0.177439 -0.360577 0.275007 0.106233 0.298495 0.030957 -0.024960 0.178381 -0.147450 0.037554 -0.432126 -0.130295 0.254993 0.291780 -0.338412 -0.408294 0.119338 -0.159862 0.012983 -0.347846 -0.403830 -0.080682 0.226901 -0.407190 -0.345553 -0.396451 0.237701 0.248844 0.055887 -0.291530 -0.329750 -0.252096 -0.137529 0.459834 0.368714 -0.324457 0.005369 -0.141668 0.368502 0.372496 0.410463 0.450954 -0.243221 0.180034 0.257312 -0.067056 0.286317 -0.108773 0.287659 -0.186123 0.057959 0.398407 0.247773 -0.200562 -0.494205 0.416797 -0.082436 0.258073 0.180219 -0.511972 0.481121 0.365047 -0.249490 -0.141831 0.339458 -0.366199 0.048290 -0.140596 0.006711 -0.068630 -0.253522 -0.068248 -0.103099 0.017834 -0.373637 -0.331210 0.465356 0.427257 0.074595 0.267593 -0.244288 -0.352869 0.180577 -0.481938 -0.038854 0.200950 0.449437 0.393288 -0.026400 0.144234 0.395894 -0.030701 0.023858 -0.339019 0.342045 -0.122106 -0.190640 -0.095087 0.251876 0.330648 0.350860 -0.487069 -0.223023
-0.226626 0.056378 -0.071048 -0.043259 0.036312 -0.129213 -0.454086 -0.181518 0.141077 -0.292378 -0.486363 0.173716 0.183346 0.229164 0.137731 0.091211 -0.282658 -0.203457 0.001682 0.201218 0.334978 0.177241 0.057841 -0.272550 -0.498822 0.477331 0.493903 0.346403 0.342769 -0.478588 -0.362042 -0.380315 0.081333 0.070453 0.079968 -0.378813 0.444782 0.129424 -0.056788 0.089401 0.340589 -0.039609 -0.233340 0.027477 -0.306902 0.407934 -0.377769 -0.086018 -0.291981 0.127455 -0.381258 -0.453461 -0.191762 0.180125 -0.222469 -0.187041 0.160999 -0.225023 -0.337095 0.007310 -0.200069 -0.195595 0.130537 0.384807 0.378400 -0.285952 -0.490464 0.326725 0.347015 -0.043710 -0.080331 0.191146 0.420224 0.189872 -0.277834 -0.383136 0.101348 -0.152061 0.034389 0.312909 0.478937 0.156673 0.362990 -0.209282 -0.159659 -0.355936 0.107219 -0.495117 -0.077417 0.273666 0.015735 0.226057 -0.418387 -0.350185 0.114406 0.463556 -0.132595 0.127485 0.293824 -0.282038 -0.412682 -0.282965 0.412651 -0.488916 0.410449 -0.361641 -0.368509 0.015339 -0.010160 0.169422 -0.168210 -0.027681 -0.170362 -0.301677 0.266579 0.173522 -0.154071 -0.122660 0.181947 0.272055 -0.345452 -0.298775 0.001654 -0.260296 -0.145418 -0.380397 -0.293197 0.225530 0.250630 -0.495831 0.447035 0.341490 -0.275254 0.363228 0.356117 -0.361262 -0.494871 0.491150 0.157619 -0.001488 0.164115 0.492952 0.474373 -0.502705 -0.305183 0.244495 0.174360 0.044289 -0.374622 -0.143252 -0.182816 -0.219233 0.061914 0.321982 0.023614 0.422741 0.448228 0.237060 0.151813 0.202400 0.244771 0.102391 0.047433 0.473060 -0.030839 -0.092908 -0.384660 -0.022168 -0.098215 0.276501 0.479887 -0.430558 0.272995 0.457802 -0.429720 0.471355 0.203138 0.245480 0.019585 0.335159 -0.388027 0.343014 -0.380931 0.176631 0.171239 0.152029 0.106015 0.123010 -0.107368 -0.238629 -0.171047 -0.359055 0.367304 0.379928 -0.382452 -0.159993 -0.209438 -0.263570 0.321382 0.195889 -0.483527 0.304811 0.268874 0.293411 0.263454 0.339995 0.267909 -0.024462 0.094421 -0.209363 -0.185760 0.206436 -0.363206 -0.060846 -0.107189 0.311576 -0.405275 -0.497631 -0.061872 -0.009101 -0.232718 0.270623 0.135387 -0.361872 0.154093 0.256477 -0.018322 0.448198 0.496450 -0.193397 0.147630 -0.486236 -0.387745 -0.070153 0.322820 0.395567 -0.222802 0.095383 -0.125352 0.362259 0.376661 0.182230 0.077328 -0.481014 -0.376185 0.473681 0.334105 -0.277917 0.479592 -0.224225 0.216525 -0.249583 -0.450059 -0.144546 -0.107913 0.207577 -0.384526 0.377308 0.159717 -0.387236 -0.315648 -0.179710 -0.354725 -0.183135 0.235190 0.462948 -0.294938 -0.498083 0.038059 0.062540 0.371698 -0.077759 -0.253911 -0.047432 -0.055230 -0.126554 -0.070208 -0.217582 0.099071 -0.087074 0.061735 -0.180862 0.166886 0.115219 0.178135 -0.437484 -0.173262 0.297551 0.440265 0.486097 0.416560 -0.364127 -0.196096 -0.435461 -0.049873 -0.465779 -0.492346 0.141549 -0.451699 0.054346 -0.293481 0.423541 0.480130 -0.043849 -0.120349 -0.071557 0.333139 0.312985 0.214403 -0.064247 -0.270546 -0.220319 0.258434 0.399882 0.398842 -0.059490 0.463239 -0.274379 -0.258796 0.414360 -0.278330 -0.332384 -0.443685 0.020506 -0.287405 -0.001847 0.072231 -0.266476 -0.356756 0.124075 0.291413 -0.146694 0.051158 0.275085 0.312999 0.434352 -0.292930 0.149681 0.250880 0.425015 -0.411024 0.483876 -0.291362 0.351351 0.387701 -0.392878 -0.208496 0.354795 -0.161944 0.044009 0.280275 0.062456 0.195234 0.327472 -0.401926 0.425772 -0.170833 0.173848 -0.337161 -0.024046 -0.198534 0.457794 0.332803 0.356166 0.236421 0.149344 0.294060 0.447034 -0.197432 0.048482 0.375991 -0.104515 0.035901 -0.412627 -0.253521 -0.075244 -0.302895 0.058135 -0.201616 0.044341 -0.415995 -0.436210 -0.382993 0.296770 0.394805 -0.281376 0.226084 -0.272485 0.396014 0.392466 0.207011 -0.298978 0.353802 0.043356 -0.439269 0.093766 -0.303757 0.358334 0.044742 0.002752 -0.089641 -0.076523 0.400981 0.450914 0.014366 -0.335889 -0.109942 0.214391 0.201343 0.171816 -0.230616 0.299142 0.238037 -0.110067 0.099454 0.136385 0.112099 -0.170919 0.367442 0.011656 -0.274911 0.077996 0.216221 -0.417566 -0.375106 0.280495 0.180142 -0.174921 0.142371 -0.272373 0.330575 -0.443728 0.153509 0.243323 -0.486609 -0.331259 0.390703 -0.105639 0.396308 0.101664 -0.432504 -0.331877 -0.095652 0.309076 0.061599 -0.492655 -0.050996 -0.322759 -0.160032 -0.180012 0.192439 0.068600 0.401526 -0.087797 0.154975 -0.469638 -0.303760 -0.162139 -0.141815 0.342153 0.068592 -0.303224 0.408628 -0.276787 0.428462 0.416238 -0.095546 0.327232 -0.188082 -0.197919 -0.067562 -0.117043 -0.026253 0.340329 -0.304424 -0.461112 0.351216 0.148122 -0.280329 -0.305273 0.471652 0.415653 0.266869 0.377120 -0.171304 -0.078113 0.407125 0.028079 0.260198 -0.224478 -0.119556 -0.164799 -0.034389 -0.216503 0.070837 -0.097717 -0.298946 0.476611 -0.266943 0.016515 -0.217766 0.169037 0.403014 0.259524 0.012908 -0.397867 0.301954 -0.132333 0.253797 -0.474832 0.065936 0.228991 0.444763 -0.166354 0.106553 -0.223398 0.261038 0.032085 0.322689 0.033673 0.298518 -0.304444 0.378429 -0.230143 -0.019628 -0.049415 0.175683 0.184969 -0.069262 0.412282 -0.294973 0.216515 0.084862 -0.388417 -0.020419 -0.398687 -0.282742 -0.214922 -0.027478 0.474598 -0.186212 -0.457600 0.207531 -0.237907 -0.117709 -0.170271 0.054340 -0.349689 0.346493 -0.136780 0.189777 0.148554 0.060095 0.069524 0.421954 -0.455990 -0.476348 0.101179 0.232522 -0.042068 0.017004 0.441091 -0.322011 -0.394592 -0.443783 0.161112 -0.289737 -0.222983 0.449732 0.186328 -0.233930 -0.223137 0.241672 0.475632 0.042099 -0.372894 -0.199786 -0.408707 -0.227729 -0.360662 -0.053968 0.463366 0.291434 -0.490331 0.036433 0.216930 -0.442778 0.063627 -0.178349 0.293286 -0.474899 0.342197 0.237919 -0.293368 0.451148 0.297678 0.371287 -0.335046 -0.410850 0.335474 0.365737 -0.152150 -0.393921 0.101151 -0.182776 0.141920 0.211086 0.099156 0.214931 0.485787 0.242036 -0.335496 0.452696 0.037012 -0.322284 -0.007328 -0.242516 -0.261519 -0.440159 0.082678 -0.464691 -0.411515 -0.071583 0.276771 -0.201340 -0.116892 0.077992 -0.326511 0.051604 0.160884 -0.498407 -0.090029 -0.499748 -0.399698 -0.496249 -0.189894 0.234852 0.218380 0.412804 -0.046675 0.207710 0.158382 0.121372 0.163948 -0.301063 0.302631 -0.339837 -0.040037 -0.455346 -0.276454 -0.453817 -0.416494 -0.184427 -0.021857 0.363819 0.117776 0.364794 -0.054647 0.294807 -0.080060 -0.391332 0.299943 0.333453 -0.387538 0.403788 0.340747 -0.073889 0.142182 0.062669 -0.157543 -0.400950 -0.226079 -0.495618 0.223965 0.441412 -0.293139 0.030138 -0.394883 0.170367 0.078334 -0.167794 0.220093 0.165383 0.151322 -0.298222 0.032744 -0.227360 -0.429885 0.481640 -0.429010 -0.006403 -0.406150 0.374476 -0.169408 -0.290145 0.281806 -0.325118 0.139508 -0.072469 0.241093 0.485507 0.030123 -0.481443 0.493432 -0.242370 0.463512 -0.296165 0.291311 -0.427828 0.377744 -0.126812 -0.092079 0.101379 -0.457887 -0.437215 0.306700 0.078399 -0.161032 0.380357 0.063582 -0.086500 -0.122503 0.160974 -0.208482 0.211632 0.374371 -0.423134 0.390056 0.017421 0.007940 0.134691 0.006471 -0.458395 0.156791 0.003445 -0.197222 0.123846 0.210823 -0.402369 0.199560 0.092110 -0.025639 -0.388977 -0.302968 0.020016 -0.322649 -0.492725 -0.398042 0.019861 0.391175 0.169082 0.436904 -0.227786 -0.166402 -0.268036 0.487388 -0.288488 -0.187627 0.380986 0.232475 0.323855 0.019220 -0.257511 0.369003 -0.320446 0.249477 -0.324676 0.306942 -0.036158 -0.223503 0.010045 -0.440505 0.254401 0.124611 -0.239931 -0.222041 0.305504 -0.229113 -0.116540 -0.171092 -0.334396 -0.443916 -0.230646 -0.058640
-0.106133 0.005502 -0.067067 0.108921 0.321418 -0.182539 -0.155061 0.148815 0.340224 0.090970 0.021361 -0.476680 -0.156011 0.200227 0.333805 0.311374 0.480267 -0.152607 0.374411 0.238210 0.475546 -0.361977 -0.480289 0.284592 -0.087548 -0.093287 -0.382958 0.081598 -0.033660 -0.110062 -0.473499 0.363107 0.398341 -0.037665 -0.025071 0.222660 0.282697 0.322769 -0.125624 0.125822 -0.083360 0.398638 0.152043 0.263530 0.101766 -0.011251 0.077805 0.084933 0.339042 -0.044883 -0.173956 0.317489 0.096041 -0.151344 0.104982 -0.488606 0.258270 0.224926 0.095893 -0.272489 -0.382235 0.125295 -0.406481 -0.480993 -0.409469 0.071349 0.244568 0.376128 -0.102981 -0.378155 0.004851 0.316559 -0.476616 -0.340205 0.082990 0.128051 0.151444 -0.336304 -0.284115 -0.006612 0.121714 0.044830 -0.186222 -0.279344 0.396387 0.421661 -0.265049 0.157558 0.149487 0.333746 0.387970 0.270153 -0.038058 0.484390 0.292061 0.055374 0.058640 0.039530 -0.065597 0.458560 0.164275 0.442155 0.278020 0.190560 -0.395150 -0.136089 -0.178488 0.259195 0.030508 0.040298 -0.244516 -0.344877 -0.411971 0.072162 -0.121320 0.487317 -0.003276 0.116532 0.147775 -0.350888 -0.046822 0.038646 0.422166 0.418021 0.025937 0.217128 -0.023704 -0.412521 -0.240442 0.413599 -0.451061 0.426735 0.358655 0.329860 0.120196 0.466406 -0.303328 0.444608 0.228502 0.230081 -0.012193 0.486887 0.388105 0.078737 0.061950 -0.230314 0.068955 -0.435524 0.392019 -0.277468 -0.283511 -0.151901 0.264079 -0.358445 -0.230979 -0.209983 0.358683 0.245316 -0.119604 -0.378858 0.161817 -0.067764 -0.449222 0.023372 -0.235002 0.173874 -0.007321 -0.035429 0.121384 -0.275917 -0.302447 -0.387908 -0.286130 -0.411442 0.193730 0.278721 -0.138855 -0.234415 0.343197 -0.246836 -0.011883 -0.437413 0.104164 -0.247804 -0.298759 0.370283 0.045113 -0.437174 0.118501 0.428410 -0.313131 -0.216782 -0.136453 -0.259453 0.309491 0.131446 0.417322 -0.194928 -0.401082 0.041607 0.032055 -0.200629 0.156599 0.248826 -0.109169 -0.146770 0.030449 0.254877 0.121716 -0.120552 -0.486157 -0.387266 -0.060866 0.115105 -0.132169 0.143276 -0.011710 0.415845 0.209003 -0.390309 0.347156 0.398772 -0.104190 -0.286396 -0.357780 -0.291797 0.347951 -0.437557 0.016175 0.449770 0.106951 -0.448869 -0.247958 -0.233549 0.302858 0.145773 0.125483 -0.160891 -0.096449 -0.252801 0.215656 -0.082607 -0.137166 -0.342309 -0.464600 0.233565 0.303868 0.026590 0.152311 0.015771 0.139182 0.002368 -0.082556 -0.462106 0.218873 0.062566 -0.251003 0.069725 0.127910 0.268073 0.022395 -0.262238 0.322105 0.277338 0.010015 0.130765 -0.073988 -0.367403 0.466973 0.332464 -0.117303 0.185530 -0.247242 0.248432 0.346122 -0.208941 -0.015102 0.152891 0.320550 -0.359891 -0.328437 -0.037367 0.145378 0.091908 0.003427 -0.132848 -0.342625 0.255325 0.439777 0.288186 0.026299 -0.034927 -0.468251 -0.148695 -0.254688 0.038863 0.482070 0.174225 0.174361 0.451944 0.009590 -0.440041 0.140376 0.265249 0.311292 -0.010601 -0.440792 -0.200909 -0.354810 0.382659 -0.057899 -0.180346 -0.151807 -0.409620 0.414463 0.354521 -0.039568 -0.425261 0.112747 -0.093989 0.368726 -0.358053 0.371084 0.397575 -0.003847 -0.380703 -0.060661 -0.018876 0.296423 -0.383399 -0.064031 -0.191086 -0.320538 -0.420754 -0.422936 0.493655 0.071545 -0.360827 -0.204354 0.219636 -0.475268 0.240648 -0.457809 -0.124174 0.333929 0.459555 -0.266753 -0.199837 -0.459904 0.348895 0.203273 0.405921 0.493743 0.077258 0.306397 -0.007204 0.199457 -0.251363 0.476821 -0.001219 -0.131861 -0.084309 0.310596 0.050502 -0.002163 0.390560 0.047058 -0.427717 -0.467366 0.345605 0.294820 -0.439733 0.089154 0.339912 -0.058106 -0.071116 0.302368 0.175141 0.226146 0.342464 0.026937 -0.067680 0.251287 0.023581 -0.487521 0.060585 -0.480722 0.214837 0.312123 -0.501000 -0.283481 -0.316837 -0.082408 -0.469985 0.236566 0.418330 0.423477 -0.213476 0.493514 0.459011 -0.364970 0.291235 -0.474920 0.229985 0.134048 -0.035927 -0.344032 -0.060682 -0.357885 0.385015 -0.215317 0.171953 -0.179764 -0.461130 -0.301565 -0.164384 0.102356 -0.279386 -0.446646 -0.082621 -0.277485 -0.227227 0.103443 0.143007 -0.194311 -0.157091 0.064238 -0.267933 0.132334 0.060653 -0.303120 0.273166 -0.145211 -0.280941 0.000250 0.491738 0.186033 0.159119 -0.066043 0.331049 0.047034 0.221540 0.005903 0.370171 0.263312 0.207238 -0.291312 -0.131432 0.430753 -0.235058 0.288849 -0.343831 0.040616 -0.104808 0.302077 0.349207 0.241003 -0.127884 -0.412925 -0.123762 0.432769 -0.218946 -0.350596 -0.209541 0.003014 0.152554 -0.214902 -0.308052 -0.185426 0.221955 -0.474103 0.364509 -0.053603 0.034701 0.237581 -0.287391 -0.255160 0.449169 0.084079 -0.321506 -0.282988 -0.124172 -0.162436 0.260530 0.273921 -0.354558 0.115538 0.017825 0.014657 0.199712 0.396964 -0.049673 0.483668 -0.450732 0.243687 -0.010417 0.204723 -0.468314 0.184431 -0.477802 0.256542 0.213229 0.389608 -0.294160 -0.249170 0.130090 -0.078650 -0.001429 0.082160 -0.491671 0.179966 0.302073 -0.112942 -0.479570 0.065504 -0.336120 -0.334128 -0.318958 0.184606 0.183430 0.383655 0.084471 -0.363341 0.370223 0.136640 0.383246 -0.137293 -0.155736 0.417833 -0.449961 -0.130637 0.177276 0.266168 -0.238128 0.386016 -0.480101 0.394862 -0.189733 0.021371 -0.020077 -0.178503 -0.295762 -0.215103 0.211456 -0.272431 0.353302 0.378237 -0.103657 -0.462755 0.065744 -0.417326 0.423800 -0.346885 -0.277767 0.296924 0.292656 -0.391619 -0.337468 -0.360179 -0.470885 -0.284529 0.012084 0.209291 0.484541 0.276857 0.098209 -0.492659 0.174620 0.411377 0.031613 -0.342556 -0.264225 0.238752 -0.054758 0.450132 0.469223 -0.198555 0.331270 -0.131534 -0.158410 -0.100085 -0.045959 -0.231708 0.055931 0.179176 -0.431883 -0.148512 0.290457 -0.266450 -0.005791 0.322473 -0.048078 -0.490806 0.034665 -0.060636 0.288952 -0.364225 -0.050394 -0.033527 -0.449948 0.484120 0.126818 -0.211272 0.225773 -0.425039 -0.258240 0.197897 -0.120693 -0.424069 -0.430736 0.223798 -0.021254 0.026206 0.494991 -0.462422 -0.291717 -0.433992 -0.108033 -0.498359 -0.197541 0.389077 0.327015 0.257282 0.401172 -0.135419 -0.300453 0.193025 0.003257 0.152053 -0.337601 0.056210 0.139074 0.292117 0.347839 -0.132252 0.369979 -0.407500 -0.431454 -0.247813 -0.328668 -0.359289 0.478886 0.152979 0.169818 0.476777 0.193458 0.381002 -0.454314 -0.411674 0.385544 -0.148954 0.480303 0.215460 -0.388771 0.384376 -0.417058 -0.186323 0.080302 0.089100 0.468631 0.245601 -0.351789 0.110605 0.040620 -0.501049 0.481254 -0.086500 -0.405648 -0.447300 0.168587 -0.231415 -0.303688 0.150374 0.424465 0.369031 0.130052 0.120824 0.252934 0.178640 0.212051 0.141379 -0.467413 0.195256 -0.140260 -0.353283 0.082533 -0.054417 -0.036705 -0.334265 -0.462417 -0.065174 0.414238 -0.311305 -0.451668 -0.042242 -0.309454 -0.467513 0.374159 -0.212201 -0.411912 0.045647 0.059285 -0.212699 -0.301078 -0.013350 -0.340767 0.331875 -0.389624 0.415068 0.013416 0.325328 0.059348 0.048904 0.023484 0.421988 0.198521 -0.391082 -0.129528 -0.335283 -0.222446 -0.089044 0.102444 -0.305308 0.102552 0.153677 0.155352 0.295999 0.189065 0.032411 -0.413301 0.280055 -0.419041 0.148884 -0.429743 -0.217217 -0.361564 -0.267609 -0.382441 -0.248288 -0.349640 0.133875 -0.420059 0.212609 -0.314320 0.106326 0.137498 0.387102 0.218145 -0.489129 -0.445280 -0.501400 -0.075273 0.160065 -0.303807 -0.469820 -0.183356 0.354446 0.329080 -0.491390 -0.110242 0.418679 0.291566 -0.026382 0.070464 0.364724 0.259302 0.211801 -0.399984 0.379761 0.466414 -0.246723 0.016538 -0.450744 0.468787 0.205119 0.158483 0.109186 0.095122 -0.120471 0.122957 0.152743 -0.118970 -0.449415 -0.184291
0.083273 -0.413185 0.138402 -0.059381 0.418795 0.149913 0.333278 0.340375 -0.055620 -0.190203 -0.086260 -0.187996 -0.428000 -0.371558 -0.085079 0.454662 -0.402244 0.171099 -0.025899 -0.350087 0.142787 -0.317879 0.311297 -0.245127 0.280143 -0.306273 0.380731 -0.064213 0.077657 0.434218 0.254397 -0.339318 -0.479216 -0.107448 0.101053 0.439332 -0.457783 -0.065916 0.279459 -0.013651 0.243633 -0.307049 0.298105 0.315385 -0.178855 -0.287222 0.269800 -0.081346 0.383629 -0.256347 0.068319 0.026168 -0.074474 -0.120632 0.280794 -0.294579 0.072846 0.161277 0.140960 -0.349744 0.095247 -0.104891 -0.189310 0.115784 0.287413 0.411495 0.054867 0.329382 -0.154669 -0.165922 -0.184517 -0.411284 0.026781 -0.386660 0.403853 0.347679 -0.174130 0.173405 -0.233916 -0.290749 0.416810 0.334155 0.235172 -0.157913 -0.286725 0.015718 0.047260 0.285873 -0.323253 -0.312027 0.435881 0.271746 0.082834 -0.253677 -0.112718 -0.130001 -0.342430 0.441901 -0.300866 0.002652 -0.224269 0.014368 0.091120 0.302265 0.127460 -0.005275 0.149695 0.453082 -0.332118 0.415532 -0.337914 -0.415556 0.249439 0.397010 -0.073717 0.462466 -0.087520 0.473295 0.248091 0.088979 -0.338980 0.183724 -0.139522 0.243606 0.429799 0.247512 -0.386643 -0.412879 0.189165 -0.187757 0.089525 0.464649 0.326363 -0.319603 0.266666 -0.046424 0.174875 -0.083887 -0.093590 0.342509 -0.168603 0.068248 0.426704 -0.419412 -0.034990 -0.147261 -0.457194 0.378062 -0.173393 0.328295 0.003620 0.049642 0.038029 0.290291 -0.369876 -0.196140 0.073467 -0.156974 -0.009451 -0.237616 0.155021 -0.420174 -0.273215 -0.018864 -0.240025 0.493202 0.434464 0.434602 -0.090933 -0.159374 0.276863 0.240216 0.408627 0.203320 0.321377 -0.125791 -0.418729 0.426198 -0.186557 -0.092207 0.217582 0.181179 0.395203 -0.528061 -0.040298 -0.485032 0.030819 -0.384719 -0.059893 -0.478880 -0.122583 -0.405120 -0.399302 0.103954 0.075768 -0.139574 0.096908 0.009984 -0.205220 -0.494272 0.350363 -0.428605 0.246517 0.259562 0.299927 0.092471 -0.361758 0.375488 0.040978 -0.063548 -0.145799 -0.478927 -0.388833 -0.498206 -0.296911 0.139691 -0.324376 0.239853 0.254724 0.115483 0.260725 -0.368106 0.210115 0.361176 0.235600 -0.214365 -0.278647 -0.167740 0.295371 0.015885 -0.161439 0.146329 0.006049 -0.414218 -0.012982 -0.046482 0.267291 0.135501 -0.485058 -0.780126 0.141605 -0.276105 -0.357515 -0.484989 -0.019788 -0.131508 0.154454 0.155589 -0.391903 -0.091070 -0.229176 0.368575 0.040576 0.480691 0.229502 -0.224072 -0.233923 0.450608 0.108760 -0.437956 -0.114738 0.448026 0.381775 -0.423795 -0.515350 -0.425271 -0.563324 -0.170816 -0.086130 0.150643 0.243610 0.062669 -0.493512 0.413602 0.077431 -0.013548 -0.218153 -0.268363 -0.358207 -0.110304 0.140319 -0.087631 -0.241977 -0.319353 -0.107188 0.487278 -0.042853 0.159462 0.512780 -0.320942 0.292544 -0.036660 -0.360310 0.005189 -0.187995 -0.531240 -0.130242 0.429323 0.254200 -0.319008 -0.025227 -0.031706 0.243412 -0.018987 -0.118352 -0.179404 0.467218 0.163247 0.051985 -0.391237 -0.447305 -0.307944 0.020885 -0.189530 -0.127545 0.414269 -0.126537 0.336330 0.123616 -0.150364 0.386174 -0.401373 0.319524 0.338307 0.105345 -0.320377 0.478389 -0.247820 0.464400 0.152242 -0.067076 -0.061075 -0.379712 -0.323912 0.419691 0.001689 -0.003564 0.386661 -0.335312 -0.451827 0.495176 -0.282864 -0.260019 0.015813 0.103298 0.088335 0.040640 0.375118 -0.169176 -0.281534 -0.527009 -0.233941 -0.308560 0.203982 -0.226665 -0.491978 0.291477 -0.328366 -0.240046 0.255629 0.323628 0.192630 -0.305693 0.443668 0.368470 -0.386250 -0.054890 -0.135341 0.500163 0.109550 -0.087416 0.495091 0.301741 0.127620 0.040417 -0.064295 -0.147894 0.738509 -0.419853 0.060078 0.544522 -0.226154 -0.420643 -0.268920 0.433945 -0.229941 -0.261146 0.225174 -0.058555 -0.001440 -0.019445 -0.235175 -0.309058 0.174614 -0.291754 -0.440835 0.288116 0.153107 -0.076425 0.288030 -0.262287 0.305716 0.219580 -0.832014 -0.160303 -0.280295 -0.015786 0.339005 -0.173552 0.075526 0.001423 -0.328013 0.356224 -0.007260 -0.097181 0.289921 0.262552 0.141424 0.014846 -0.296251 -0.360264 0.495154 -0.031674 -0.169569 0.169520 0.176324 -0.110653 -0.042613 -0.170817 0.421138 -0.369836 -0.241437 -0.041189 -0.461397 0.505180 -0.395828 0.036200 -0.128241 0.384885 -0.040108 0.240656 -0.156215 0.224773 0.096632 0.336278 -0.372656 -0.113695 0.098582 0.268520 0.400903 0.302083 0.408009 0.395809 -0.229839 -0.261808 0.065901 0.446237 0.029928 -0.764556 -0.441175 -0.173381 -0.313080 0.133925 -0.811199 -0.209808 0.242217 -0.253838 0.022126 0.166813 -0.388808 -0.331945 -0.092779 -0.045270 0.392580 -0.496395 -0.209240 -0.480324 -0.110339 0.389094 0.287948 -0.209683 0.190929 0.195709 -0.313302 0.461686 0.400194 0.028748 0.069823 -0.158072 0.179619 -0.423111 0.235906 -0.721021 -0.742149 -0.597952 -0.176765 0.093246 -0.188892 0.449037 -0.240190 -0.077948 -0.383157 0.166783 0.376534 -0.490825 0.170140 -0.332954 -0.471397 -0.440446 -0.444108 0.316304 -0.150378 0.272010 0.030591 0.085738 0.158012 -0.134072 -0.110230 0.403020 -0.436135 -0.675721 0.245733 -0.441477 -0.413562 0.342792 -0.406986 -0.068755 -0.064210 -0.096126 -0.119967 0.195352 0.325679 -0.003371 -0.138113 0.201965 0.005556 -0.468221 0.368763 0.033911 -0.408915 0.449844 -0.124596 0.087975 0.218726 0.320874 0.560381 0.134881 -0.068350 -0.392518 0.473383 -0.175923 -0.181169 0.286172 -0.182935 -0.083941 0.128715 -0.090169 0.347056 -0.435743 0.313458 -0.273158 0.259361 0.138889 0.223223 -0.379000 -0.159394 -0.271469 -0.347468 -0.284375 0.337314 -0.059992 -0.174095 -0.194277 0.458708 0.585085 0.557423 0.045462 -0.201972 -0.125300 0.419478 -0.327920 0.090837 -0.261939 0.458004 0.407653 0.153872 0.086471 -0.182764 0.000680 0.150480 -0.369554 0.227274 -0.090406 0.269087 -0.049751 0.030346 -0.384051 0.253651 0.207136 -0.079489 0.130182 0.583545 0.034025 0.000951 0.212629 -0.138035 0.102569 -0.232370 -0.064211 0.304105 -0.313141 0.107621 -0.105307 -0.075328 0.065377 -0.197901 -0.421704 -0.348399 0.119087 0.078728 0.301833 0.249286 -0.194245 -0.288821 0.018124 0.255755 0.241277 0.127321 -0.065961 -0.053259 0.445391 0.374269 -0.150839 -0.103508 -0.073836 0.457995 0.151111 0.450960 -0.274623 -0.413347 0.254817 -0.088012 0.194026 -0.350737 0.336412 -0.240844 -0.048886 0.414460 -0.089492 -0.430047 -0.007060 -0.287906 0.318991 0.298447 -0.076976 -0.163133 0.053954 -0.335947 0.463940 0.487745 0.087464 0.409083 0.361766 0.436377 -0.194673 -0.212318 0.394124 0.456191 -0.261606 -0.380748 -0.457405 0.492964 0.030992 0.236374 -0.358021 -0.132844 0.495281 0.092845 -0.218632 -0.094458 0.162550 0.274060 0.117387 -0.018708 0.072259 -0.459836 0.317912 -0.374035 -0.296031 0.281604 -0.386538 0.291185 0.190439 0.474981 0.227314 0.495518 -0.237586 0.121189 0.451461 0.000561 0.240194 0.493808 -0.006723 -0.229062 0.229934 0.135008 0.137846 0.224967 -0.272396 0.418965 -0.369739 0.389906 0.192777 0.247400 -0.129050 -0.235212 0.287317 -0.311386 -0.109495 0.491038 0.469970 0.003720 0.281975 0.160161 -0.021547 0.009041 0.155432 0.240619 -0.370018 0.106645 -0.259068 0.369928 0.100205 0.233961 -0.359382 -0.170109 -0.131280 0.278216 -0.445390 0.096076 0.196934 -0.315377 -0.014266 -0.110537 0.431776 0.356437 0.154003 0.218844 -0.455197 -0.455739 0.209634 -0.485474 0.047733 -0.008638 0.174439 -0.474063 0.500155 -0.170377 0.266308 -0.370111 0.436020 -0.493008 0.499570 0.035977 0.240705 -0.360060 0.365620 -0.390823 0.417908 0.419982 0.205006 0.114593 -0.395643 -0.309507 -0.496192 -0.464115 -0.453318 0.157564 0.254482 -0.408763 0.201577 -0.036132 -0.394485 -0.250938
0.483915 0.308639 -0.196315 0.483822 -0.361986 -0.430255 -0.386536 -0.426214 -0.423510 -0.387215 0.109515 0.316947 -0.247523 -0.025114 0.425876 -0.329863 -0.105380 0.130634 0.284483 -0.001270 0.320879 0.288043 0.034367 0.367313 -0.054641 -0.211399 0.458302 -0.353312 0.252221 -0.436431 -0.104498 0.206955 0.343027 0.170005 0.161596 0.451860 0.210568 0.245878 0.496464 0.257877 0.329482 0.076798 0.045642 -0.447222 0.522503 -0.057663 -0.306266 -0.112058 -0.456210 0.449035 0.357490 0.335488 0.207896 -0.137324 0.173619 -0.375926 0.122095 0.102739 -0.258419 -0.154865 0.137126 0.107901 0.522909 -0.049028 -0.251276 0.155323 -0.126350 0.430111 -0.127980 -0.159067 0.158806 -0.327679 0.388549 -0.324733 -0.304083 0.381870 0.088422 -0.139530 -0.259370 0.103031 -0.219677 -0.431061 -0.090663 0.459038 -0.097567 -0.446225 -0.446069 0.495347 0.127333 -0.233670 -0.188700 -0.264722 0.345050 -0.194973 0.157068 -0.435407 0.431169 0.501537 0.465523 -0.225992 -0.186712 0.095148 -0.082853 -0.327344 0.241233 0.083883 0.525345 -0.199526 0.415171 -0.263206 0.374324 -0.333687 -0.223449 -0.245520 -0.403830 0.149803 -0.220927 -0.379081 0.115968 0.377224 -0.141932 0.398087 -0.416680 -0.326064 -0.326067 0.211207 -0.290652 -0.424080 0.183562 -0.354311 -0.179254 0.467669 0.211655 0.208712 -0.388857 -0.076293 -0.236586 -0.392694 0.195000 -0.350597 -0.185081 0.040142 -0.213465 0.062289 0.265440 -0.146477 -0.317090 0.375790 -0.309105 0.232044 0.312986 0.277563 -0.035428 0.234843 0.359118 0.261979 0.099539 -0.400932 0.330093 -0.246081 -0.284424 -0.378342 -0.307594 0.398050 0.301189 -0.225632 -0.207425 -0.464579 -0.147507 0.458394 -0.344357 0.138230 -0.030645 -0.087004 -0.506108 -0.630225 0.300872 0.047749 0.252409 -0.063020 -0.363702 0.627262 0.075446 -0.070410 0.540846 0.414660 0.032431 -0.015354 0.357990 -0.269912 0.209384 -0.455616 -0.177436 0.372609 0.413253 -0.405428 -0.382204 -0.323354 -0.399189 -0.058893 -0.394141 -0.272728 -0.627290 -0.045371 0.174621 -0.247262 0.622162 -0.048485 -0.145147 0.092043 -0.678987 -0.456525 0.133709 -0.191715 -0.163329 0.266930 -0.428399 0.070414 -0.277605 0.400409 0.271320 0.402597 0.415612 -0.435297 0.246025 0.299683 -0.369906 0.334639 0.447149 -0.298277 -0.430881 0.055369 -0.165435 -0.164679 0.468529 0.616383 0.011101 0.069239 -0.197583 0.267705 -0.414210 -0.125484 0.001188 0.521978 0.469576 0.026340 0.180214 0.511995 -0.432427 0.373427 0.383223 0.309712 0.246843 0.269654 0.345234 -0.036314 0.040156 0.446146 -0.421038 -0.510333 -0.477394 0.010739 -0.093593 -0.056394 0.698445 0.864780 -0.218404 -0.362808 -0.292272 -0.108778 0.405980 -0.270317 -0.158644 -0.157201 -0.357033 -0.218249 0.339957 0.294000 -0.235436 0.378349 0.138246 -0.381394 0.158880 -0.144093 0.359079 -0.025067 0.100231 -0.401631 -0.320973 -0.712502 0.121643 -0.317405 0.061308 -0.470135 0.271374 -0.385890 -0.045668 -0.107978 -0.150601 -0.202478 0.509498 -0.261689 -0.001976 -0.178327 0.051929 0.111810 0.074242 -0.137295 -0.123371 0.309625 -0.288128 0.485693 0.399050 0.341571 -0.200317 0.115656 -0.457337 -0.798613 -0.974828 -0.279822 -0.716210 0.465707 -0.527983 -0.454304 -0.596189 0.409325 0.176894 -0.338483 -0.160338 0.439056 -0.070143 -0.180020 -0.351814 0.398700 0.112471 0.170933 -0.018671 -0.342468 0.504457 0.328776 0.437976 -0.312852 0.272552 0.371998 0.183047 -0.799597 -0.291193 -0.696797 -1.319436 -0.457721 0.385640 -0.357635 -0.905735 0.390476 0.146463 -0.137444 0.437056 -0.178704 -0.005109 -0.252463 -0.268830 0.395567 0.038336 -0.149825 0.265085 -0.378375 0.491927 -0.282767 -0.250024 0.467202 0.580982 -0.391900 -0.445627 0.316964 0.487753 -0.998291 -0.760707 -0.617665 -0.030461 0.823894 -0.225694 -0.742056 0.243032 -0.235549 -0.404192 0.159239 0.097825 0.503683 0.451354 -0.436465 -0.277961 -0.346658 0.429920 0.231193 -0.025664 0.165824 0.323637 -0.062919 0.303206 -0.506238 -0.080869 0.192532 -0.235514 -0.533141 -0.211654 -0.618198 -0.100627 -0.445728 -0.441306 -0.233610 -0.826880 -0.125299 0.476464 -0.268332 0.109971 -0.456910 0.361726 -0.321385 0.517592 0.283899 -0.287032 -0.289550 0.408060 -0.386293 0.412462 -0.146786 0.122790 0.156248 0.485940 -0.153412 0.054467 -0.514062 -0.382805 -0.505963 -0.659403 -0.078053 0.185609 -0.500962 -0.431319 -0.246507 0.360280 -0.011227 0.205389 0.307562 0.191260 -0.213821 0.321471 0.023805 -0.064387 0.309882 -0.221478 0.119400 0.491150 -0.342600 0.191189 0.146316 0.091435 -0.190668 -0.033866 -0.389777 0.091179 -0.532197 -0.108868 -0.357370 -0.539112 0.155435 -0.484563 0.367521 0.338988 -0.003056 -0.195415 0.170086 0.456535 0.480792 -0.051534 0.118614 -0.262210 -0.259244 -0.386763 0.144221 0.521456 -0.137423 -0.309130 0.211740 -0.400771 0.050653 0.559954 0.553306 -0.433587 0.354448 -0.146811 -0.312502 0.134109 -0.202516 -0.131248 -0.008244 -0.328935 0.261120 0.066150 0.480872 -0.271118 0.341553 0.121776 -0.343764 0.293164 -0.458939 0.245668 0.501772 -0.247365 0.329724 0.116811 -0.221770 -0.377316 0.309006 -0.375981 -0.195836 -0.300678 0.572289 -0.004270 0.265126 -0.549367 -0.110375 -0.421211 0.396488 0.496737 0.213335 -0.048166 -0.361379 -0.054727 0.488803 -0.409688 0.144974 0.301175 0.182906 0.272029 0.065157 0.194786 -0.011484 0.037748 0.675411 0.176924 0.000508 -0.194123 0.041252 0.632017 0.066763 0.521870 -0.297384 -0.474411 -0.230249 -0.108602 0.065353 -0.364564 0.206446 -0.104247 -0.397008 -0.109400 0.318406 -0.287569 0.306692 0.278027 -0.226438 -0.077515 0.050021 0.427286 -0.334668 -0.414003 0.092891 0.122864 0.012032 -0.407831 0.483578 0.145259 0.118038 -0.425548 -0.178236 0.197271 -0.240212 -0.466679 -0.394279 0.266513 0.152593 0.141892 0.372767 -0.170142 0.508464 0.446577 0.191277 0.297688 -0.370173 -0.031213 0.046534 -0.125792 0.362090 -0.432626 -0.227687 0.496438 -0.535232 0.276969 0.104275 0.188335 -0.176082 0.048316 -0.070350 0.446113 0.173775 0.459628 0.178657 0.436813 0.514449 0.255197 0.174144 0.137861 -0.132093 0.017730 0.438538 -0.152810 -0.064874 0.100633 -0.384303 0.035772 -0.459762 0.133049 0.380798 0.373147 0.171242 -0.376071 0.342207 0.266249 0.422614 -0.093247 -0.073361 -0.309623 0.326661 0.248607 0.507540 -0.004253 0.121238 0.157015 -0.096621 0.106506 -0.116969 -0.451659 -0.284815 0.221757 0.036890 -0.375458 -0.460235 0.442834 0.195993 -0.373720 -0.050576 0.207050 0.230148 -0.198959 0.051016 -0.127792 -0.104212 -0.135958 -0.390724 -0.202623 0.241613 0.006733 -0.041428 0.039093 -0.273841 -0.063069 0.505659 0.318215 -0.435235 -0.120144 -0.104460 -0.081386 -0.100984 0.081544 -0.388811 0.406725 0.176904 -0.378227 0.320378 -0.156284 -0.281128 -0.259379 0.521584 0.419839 0.012480 0.043419 -0.237134 0.379087 0.378279 -0.157039 -0.352718 0.090711 0.320513 0.076674 -0.399377 0.517490 0.484423 -0.422900 0.306524 0.520006 -0.072225 -0.327117 -0.090561 0.297610 0.225245 -0.008554 0.175154 -0.127032 0.084038 -0.033650 0.187502 0.273728 0.177789 0.179905 0.164386 -0.338912 -0.305857 0.398070 0.510994 -0.456759 -0.288150 -0.370905 0.104770 0.503181 0.176587 0.176212 0.491489 0.131829 0.224131 0.268832 0.122653 -0.377275 0.412533 0.502910 0.391154 0.108597 -0.034825 0.037126 0.452384 0.520032 0.474295 0.110705 0.264579 0.122903 -0.238572 -0.100217 0.254810 -0.073610 -0.231328 0.236622 -0.059551 -0.048660 0.336536 0.516038 -0.074660 -0.016058 0.163068 -0.112353 -0.413411 -0.141982 -0.372702 0.180061 -0.048438 0.510650 0.153790 -0.186466 0.090065 -0.410216 0.321479 0.013267 -0.419365 0.266592 -0.405210 0.316032 -0.139686 -0.172963 -0.313367 -0.414058 0.224246 -0.073876 0.293383 -0.364487 0.348283
